
\data\
ngram 1=10118
ngram 2=80258
ngram 3=21372

\1-grams:
-5.350543	.enough	-0.1571616
-5.350543	.he	-0.1774321
-5.350543	.here	-0.1772887
-5.350543	.in	-0.1774514
-5.049512	.socrates	-0.1683648
-5.350543	.the	-0.1772828
-5.049512	000	-0.1730582
-4.447453	1	-0.394379
-5.350543	10	-0.146865
-4.873421	100	-0.1774204
-5.049512	1000	-0.160035
-4.651573	12	-0.2192808
-5.350543	13	-0.1600632
-5.350543	16	-0.1587706
-5.350543	1688	-0.173203
-4.873421	18	-0.1700591
-5.350543	1st	-0.146865
-4.049512	2	-0.3753582
-5.350543	200	-0.1774611
-5.350543	21	-0.1600632
-4.447453	216	-0.3239806
-4.505445	27	-0.183724
-5.350543	2nd	-0.146865
-3.873421	3	-0.4001875
-5.350543	300	-0.1774611
-5.350543	34	-0.173203
-5.350543	35	-0.1587706
-5.350543	3rd	-0.146865
-4.204414	4	-0.3639425
-4.873421	400	-0.1739146
-5.350543	48	-0.1748707
-5.350543	49	-0.1683945
-4.146423	5	-0.201342
-5.049512	50	-0.1571332
-5.350543	5000	-0.1745373
-5.049512	5040	-0.1725294
-4.505445	6	-0.1674715
-4.873421	7	-0.2497838
-4.505445	729	-0.2058632
-5.350543	7600	-0.146865
-4.572392	8	-0.2737227
-4.873421	8000	-0.1506034
-4.748483	9	-0.2273967
-5.049512	9th	-0.3534694
-1.405863	</s>
-99	<s>	-1.031049
-1.761935	a	-0.5872512
-5.350543	abandoned	-0.1773371
-5.350543	abate	-0.1773526
-5.049512	abated	-0.1694161
-5.350543	abates	-0.1712046
-5.350543	abdera	-0.1587706
-5.350543	abhor	-0.1766097
-4.748483	abhorrence	-0.6536163
-5.350543	abide	-0.1773526
-4.651573	abiding	-0.3338979
-4.748483	ability	-0.1381399
-5.049512	abject	-0.1568427
-3.30915	able	-1.154122
-5.350543	abler	-0.1765068
-5.350543	abnegation	-0.1571616
-5.350543	abnormal	-0.1600632
-4.447453	abode	-0.2171254
-5.350543	abolished	-0.146865
-5.350543	abolishes	-0.1773565
-4.873421	abolition	-0.4833863
-5.049512	abominable	-0.3333443
-5.350543	abominate	-0.1587706
-5.350543	abominates	-0.168873
-5.350543	aborigines	-0.1571616
-5.350543	abound	-0.168873
-5.350543	abounds	-0.168873
-2.838659	about	-0.4381772
-3.530999	above	-0.5971636
-4.651573	abroad	-0.2161425
-4.204414	absence	-1.155788
-3.626267	absolute	-0.3397808
-4.120094	absolutely	-0.1961275
-5.350543	absolution	-0.1683945
-5.350543	absorb	-0.146865
-4.505445	absorbed	-0.4456883
-5.350543	absorbs	-0.1757761
-4.873421	abstain	-0.5021836
-5.350543	abstained	-0.1759589
-5.350543	abstainer	-0.1712046
-5.350543	abstains	-0.1743324
-5.350543	abstinence	-0.1571616
-4.028323	abstract	-0.1884788
-5.350543	abstracted	-0.1587706
-4.120094	abstraction	-0.2052519
-4.120094	abstractions	-0.3594625
-5.350543	abstracts	-0.146865
-4.651573	absurd	-0.1231838
-5.350543	absurdities	-0.1725392
-4.447453	absurdity	-0.2452705
-5.350543	absurdum	-0.1716309
-5.049512	abundance	-0.1568915
-5.350543	abundantly	-0.1587706
-5.049512	abuse	-0.1468567
-4.748483	abusing	-0.2219888
-5.350543	academic	-0.1774514
-5.350543	accent	-0.1725392
-4.447453	accept	-0.1967646
-5.350543	acceptance	-0.1571616
-5.049512	accepted	-0.3510534
-5.350543	accessible	-0.1659124
-5.350543	accessory	-0.1773894
-4.651573	accident	-0.1928278
-4.572392	accidental	-0.161169
-4.873421	accidents	-0.254245
-5.350543	accommodate	-0.1769939
-5.350543	accommodated	-0.1698856
-5.350543	accommodation	-0.1725392
-5.350543	accommodations	-0.1762757
-4.748483	accompanied	-0.6713254
-5.350543	accompanies	-0.1750013
-5.049512	accompaniment	-0.3333443
-5.049512	accompaniments	-0.1405872
-4.873421	accompany	-0.1720706
-5.350543	accompanying	-0.146865
-5.049512	accomplish	-0.159177
-4.236599	accomplished	-0.3074968
-5.049512	accomplishing	-0.17505
-5.350543	accomplishments	-0.1587706
-4.873421	accord	-0.1730092
-4.236599	accordance	-1.289145
-3.594668	according	-1.751875
-4.3963	accordingly	-0.2676587
-5.049512	accords	-0.3515793
-4.00812	account	-0.4646742
-5.350543	accounted	-0.1771975
-5.350543	accruing	-0.1659124
-5.350543	accumulate	-0.1587706
-5.350543	accumulating	-0.1773933
-5.049512	accumulation	-0.3333443
-5.350543	accumulations	-0.1571616
-4.651573	accuracy	-0.217068
-4.748483	accurate	-0.1738169
-5.350543	accursed	-0.1772305
-4.572392	accusation	-0.1079467
-4.873421	accusations	-0.1372843
-5.049512	accuse	-0.1750286
-4.873421	accused	-0.1562389
-5.350543	accuser	-0.1659124
-4.572392	accustomed	-0.5150598
-5.350543	accustoming	-0.146865
-4.651573	achaeans	-0.202453
-5.350543	achieved	-0.146865
-4.447453	achilles	-0.1543633
-3.888145	acknowledge	-0.5799568
-4.071789	acknowledged	-0.4465878
-4.748483	acknowledges	-0.6680856
-4.873421	acknowledging	-0.1653231
-5.049512	acorns	-0.3519529
-4.447453	acquaintance	-0.401124
-4.873421	acquaintances	-0.1498814
-4.447453	acquainted	-0.7430081
-5.350543	acquiesced	-0.1600632
-5.350543	acquiesces	-0.1600632
-5.350543	acquiescing	-0.168873
-4.271361	acquire	-0.2680794
-4.146423	acquired	-0.2046164
-5.350543	acquirement	-0.1571616
-4.651573	acquiring	-0.2073914
-4.30915	acquisition	-0.7120585
-5.350543	acquit	-0.174744
-5.049512	acquitted	-0.1712007
-5.350543	acropolis	-0.1716309
-5.049512	across	-0.1769454
-3.806475	act	-0.1876239
-5.049512	acted	-0.3532949
-4.30915	acting	-0.1937485
-3.70709	action	-0.2871227
-3.832029	actions	-0.3011873
-4.572392	active	-0.2046241
-4.572392	actor	-0.1650879
-4.651573	actors	-0.1179936
-4.572392	acts	-0.1225445
-4.09527	actual	-0.1894439
-4.3963	actually	-0.1751104
-5.350543	actuated	-0.1748707
-5.049512	acute	-0.1771859
-5.350543	ad	-0.1774631
-5.049512	adamant	-0.1405872
-5.350543	adamantine	-0.1774379
-5.350543	adapt	-0.146865
-5.049512	adaptation	-0.3333443
-5.350543	adaptations	-0.1600632
-4.350543	adapted	-0.5401501
-5.049512	adapts	-0.1768601
-3.919179	add	-0.1754695
-4.09527	added	-0.2185516
-4.350543	adding	-0.1844544
-4.350543	addition	-0.3641009
-4.748483	additional	-0.1764427
-5.049512	additions	-0.1608531
-4.748483	address	-0.2127453
-5.350543	addressed	-0.1600632
-4.651573	adds	-0.1258584
-3.481311	adeimantus	-0.19318
-4.873421	adequate	-0.1657393
-4.505445	adequately	-0.2206399
-5.049512	adhere	-0.3420951
-5.350543	adherents	-0.1774166
-5.350543	adjusted	-0.1768135
-5.350543	adjusts	-0.146865
-5.350543	administer	-0.1762077
-5.049512	administered	-0.1497968
-4.748483	administration	-0.3672148
-4.651573	admirable	-0.1718763
-5.049512	admiration	-0.137552
-4.572392	admire	-0.1188571
-4.748483	admired	-0.2044757
-5.350543	admirer	-0.1571616
-5.049512	admirers	-0.137552
-5.350543	admiring	-0.1767262
-4.505445	admission	-0.1366995
-4.651573	admissions	-0.1834478
-3.634539	admit	-0.7272912
-4.651573	admits	-0.2123092
-3.782341	admitted	-0.412074
-4.350543	admitting	-0.2236259
-4.873421	admixture	-0.263956
-5.049512	admonition	-0.1543202
-5.350543	admonitions	-0.1725392
-4.873421	ado	-0.172786
-4.572392	adopt	-0.1864914
-4.651573	adopted	-0.3073679
-5.350543	adopting	-0.146865
-5.350543	adulation	-0.1587706
-5.350543	adulteration	-0.1774592
-5.049512	adultery	-0.3493856
-4.3963	advance	-0.3368585
-5.350543	advanced	-0.1771607
-4.873421	advances	-0.1312255
-5.350543	advancing	-0.1773216
-3.859181	advantage	-0.3625218
-4.447453	advantageous	-0.1549247
-4.120094	advantages	-0.5142255
-4.873421	adversaries	-0.1393177
-4.873421	adversary	-0.1752662
-4.748483	adverse	-0.2434357
-4.505445	advice	-0.1581733
-4.748483	advise	-0.1400088
-5.350543	advised	-0.1746933
-5.049512	advisers	-0.1753616
-4.651573	advises	-0.2277361
-5.350543	advising	-0.173203
-5.350543	advocate	-0.168873
-4.271361	aeschylus	-0.3111537
-5.350543	aesculapius	-0.173203
-5.350543	aesop	-0.173203
-5.049512	affair	-0.3333443
-4.271361	affairs	-0.2050007
-4.236599	affect	-0.3287953
-5.350543	affectation	-0.1774301
-4.071789	affected	-0.3150623
-4.873421	affecting	-0.1748005
-4.30915	affection	-0.2441469
-5.350543	affectionate	-0.1774534
-4.572392	affections	-0.1923941
-4.873421	affects	-0.121783
-4.748483	affinities	-0.1495633
-4.572392	affinity	-0.4273465
-4.071789	affirm	-0.2504204
-4.30915	affirmed	-0.2616704
-4.748483	affirming	-0.6680856
-4.748483	affirms	-0.3830089
-5.049512	afflicted	-0.170583
-5.049512	affliction	-0.1640421
-4.572392	afford	-0.1207378
-4.873421	afforded	-0.283968
-5.350543	affording	-0.1774631
-4.873421	affords	-0.2479238
-5.350543	aforesaid	-0.1774456
-3.970331	afraid	-0.5426921
-3.154643	after	-0.528955
-5.350543	afterthought	-0.1571616
-4.071789	afterwards	-0.1746914
-3.157418	again	-0.2447983
-3.250172	against	-0.5019665
-4.174451	agamemnon	-0.1848953
-3.293638	age	-0.3288072
-4.447453	aged	-0.1555466
-5.350543	agencies	-0.168873
-5.049512	agent	-0.1767631
-5.350543	agents	-0.1759492
-3.687785	ages	-0.1972749
-5.350543	aggravated	-0.1772286
-5.350543	aggression	-0.1732362
-5.350543	aggressive	-0.1772712
-5.350543	agility	-0.168873
-5.350543	aglaion	-0.1774301
-4.3963	ago	-0.1202385
-5.049512	agony	-0.3333443
-5.350543	agora	-0.1587706
-3.458448	agree	-0.8834536
-4.572392	agreeable	-0.5168916
-5.049512	agreeably	-0.3420951
-4.00812	agreed	-0.6463758
-5.049512	agreeing	-0.3515793
-4.651573	agreement	-0.2064868
-5.049512	agreements	-0.1579101
-4.651573	agrees	-0.5172561
-5.350543	agricultural	-0.1600632
-4.873421	agriculture	-0.157186
-4.748483	aid	-0.2363449
-5.350543	aided	-0.1748707
-5.049512	aids	-0.1442209
-5.350543	ailment	-0.1766136
-3.952603	aim	-0.3294796
-4.748483	aiming	-0.3760619
-4.30915	aims	-0.175495
-4.3963	air	-0.2688708
-4.748483	airs	-0.1520458
-5.350543	airy	-0.1770056
-4.748483	ajax	-0.139806
-4.09527	akin	-1.277128
-5.350543	alarms	-0.1774573
-4.748483	alas	-0.656518
-5.049512	alcibiades	-0.1697476
-5.350543	alcinous	-0.1771122
-5.350543	alexandria	-0.1659124
-5.350543	algebraic	-0.1774592
-4.651573	alien	-0.3242311
-5.350543	alighted	-0.1771122
-3.988815	alike	-0.1876964
-4.651573	alive	-0.218075
-2.411023	all	-0.4542494
-5.350543	allayed	-0.146865
-5.350543	alleged	-0.1732362
-4.873421	allegorical	-0.1586128
-5.350543	allegories	-0.1600632
-4.30915	allegory	-0.1369804
-5.350543	alleviation	-0.1571616
-4.572392	alliance	-0.4324888
-5.049512	alliances	-0.3515793
-4.748483	allied	-0.3535177
-4.572392	allies	-0.163439
-5.350543	allotted	-0.1659124
-3.651573	allow	-0.3932325
-5.049512	allowable	-0.168786
-5.049512	allowance	-0.157677
-3.678445	allowed	-0.5842282
-4.748483	allowing	-0.223424
-4.572392	allows	-0.2762131
-5.049512	alloy	-0.154994
-5.049512	alloyed	-0.1727899
-5.350543	allude	-0.1659124
-5.049512	alluded	-0.3420951
-5.350543	alludes	-0.1659124
-5.049512	alluding	-0.1480318
-5.049512	allurements	-0.3333443
-4.447453	allusion	-0.3047523
-5.350543	allusions	-0.146865
-4.3963	ally	-0.3132486
-3.782341	almost	-0.2231807
-5.350543	alms	-0.1751727
-5.350543	aloft	-0.168873
-3.819064	alone	-0.1659745
-4.09527	along	-0.5571306
-5.049512	alongside	-0.3333443
-5.049512	aloud	-0.1751649
-5.350543	alphabet	-0.1725392
-3.558151	already	-0.1754307
-2.751752	also	-0.2568021
-5.049512	altar	-0.1250416
-4.505445	alter	-0.2283465
-5.350543	altera	-0.1774514
-4.651573	altered	-0.1381017
-4.873421	altering	-0.1422124
-5.350543	alternated	-0.1772228
-5.350543	alternating	-0.1587706
-4.748483	alternative	-0.2160236
-5.350543	alternatives	-0.1732362
-3.401153	although	-0.4827612
-4.350543	altogether	-0.2057835
-3.204415	always	-0.117208
-3.257121	am	-0.3199602
-5.049512	amateurs	-0.1741938
-5.350543	amatory	-0.1774631
-5.350543	amazed	-0.1757703
-5.350543	amazement	-0.1716309
-5.350543	amazing	-0.1600632
-5.350543	ambassadors	-0.1659124
-5.049512	ambiguities	-0.1563406
-5.049512	ambiguity	-0.3333443
-5.350543	ambiguous	-0.1774146
-4.174451	ambition	-0.3327841
-4.174451	ambitious	-0.1721577
-5.350543	amelioration	-0.1571616
-5.350543	amenable	-0.1587706
-5.350543	amenities	-0.1571616
-4.873421	america	-0.2497838
-5.350543	american	-0.1774573
-5.350543	amerigo	-0.1774631
-4.049512	amid	-0.2480655
-3.253633	among	-0.6251388
-4.873421	amongst	-0.144133
-5.350543	amorous	-0.1571616
-4.447453	amount	-0.4436218
-5.049512	amounts	-0.3420951
-5.350543	amply	-0.1774592
-5.350543	amulet	-0.1770948
-4.651573	amused	-0.2200699
-4.572392	amusement	-0.4157554
-5.049512	amusements	-0.1723314
-4.748483	amusing	-0.1741352
-2.534965	an	-0.4889776
-5.049512	anacharsis	-0.1281651
-5.049512	anachronisms	-0.1769493
-4.651573	analogies	-0.126022
-4.748483	analogous	-0.6623672
-3.988815	analogy	-0.5471411
-4.748483	analyse	-0.3637708
-4.873421	analysed	-0.1185288
-5.350543	analyses	-0.1571616
-4.236599	analysis	-0.7038913
-5.350543	analytical	-0.1773972
-5.350543	analyzed	-0.1732362
-4.651573	anarchy	-0.1491251
-5.049512	anaxagoras	-0.3362459
-4.651573	ancestor	-0.1383986
-4.748483	ancestors	-0.1479301
-4.873421	ancestral	-0.286652
-3.651573	ancient	-0.2833018
-4.572392	ancients	-0.197874
-1.375387	and	-0.1975518
-5.350543	andromache	-0.1600632
-5.350543	anew	-0.1587706
-4.651573	angels	-0.1886384
-4.120094	anger	-0.1538845
-5.350543	angled	-0.1774514
-5.049512	angles	-0.1467028
-3.903385	angry	-0.4795524
-4.049512	animal	-0.2313301
-5.350543	animalism	-0.1600632
-3.626267	animals	-0.18308
-5.350543	animate	-0.173203
-5.049512	animated	-0.3510534
-5.350543	animation	-0.1587706
-5.350543	annihilates	-0.146865
-5.350543	annihilation	-0.1773313
-5.350543	announce	-0.1716309
-5.350543	announced	-0.1659124
-5.350543	annoyed	-0.1587706
-4.873421	annual	-0.2865822
-5.350543	anointed	-0.1761222
-5.350543	anomaly	-0.168873
-5.350543	anon	-0.1739517
-2.769618	another	-0.2828788
-3.274996	answer	-0.3669212
-4.028323	answered	-0.2278796
-4.3963	answering	-0.2223711
-3.952603	answers	-0.5711901
-4.505445	antagonism	-0.3200727
-5.350543	antagonist	-0.1571616
-5.350543	antagonistic	-0.1765068
-5.350543	antagonists	-0.1587706
-4.873421	antecedent	-0.5036296
-5.350543	antecedents	-0.1600632
-5.049512	anthropology	-0.1570276
-4.651573	anticipate	-0.2049492
-4.748483	anticipated	-0.1320049
-5.350543	anticipates	-0.1774631
-5.049512	anticipating	-0.1267738
-4.505445	anticipation	-0.3996506
-4.873421	anticipations	-0.152477
-5.049512	antidote	-0.3420951
-5.350543	antigone	-0.1587706
-5.350543	antiquarian	-0.1774069
-5.350543	antique	-0.1757022
-4.572392	antiquity	-0.3126948
-5.350543	antithesis	-0.1571616
-5.350543	antwerp	-0.1753967
-5.049512	anxiety	-0.3530175
-5.049512	anxious	-0.15992
-5.350543	anxiously	-0.1774282
-2.538968	any	-0.407085
-4.236599	anybody	-0.1660896
-5.350543	anyhow	-0.1772615
-5.350543	anyone	-0.1732362
-3.386755	anything	-0.2952439
-4.748483	anywhere	-0.2539345
-4.350543	apart	-0.8471614
-5.350543	aphoristic	-0.173203
-5.049512	aphrodite	-0.1511163
-4.30915	apollo	-0.1553253
-5.350543	apologist	-0.1571616
-4.748483	apology	-0.1413963
-5.350543	apostles	-0.1683945
-5.350543	appalling	-0.1774127
-5.049512	apparatus	-0.3333443
-5.350543	apparel	-0.1587706
-4.505445	apparent	-0.1369696
-4.651573	apparently	-0.1467465
-5.049512	apparition	-0.1519986
-5.350543	apparitions	-0.1600632
-4.350543	appeal	-0.8638546
-5.350543	appealed	-0.1659124
-5.350543	appealing	-0.1659124
-4.873421	appeals	-0.254245
-3.572391	appear	-0.4028509
-5.350543	appear.the	-0.177277
-3.859181	appearance	-0.3505368
-4.236599	appearances	-0.1795695
-4.146423	appeared	-0.4410287
-4.873421	appearing	-0.1588192
-3.565213	appears	-0.5852969
-5.350543	appeased	-0.1748707
-5.350543	append	-0.1774069
-5.049512	appended	-0.1387271
-4.873421	appetite	-0.1373416
-4.204414	appetites	-0.2560983
-4.873421	appetitive	-0.1250809
-5.049512	applaud	-0.1281651
-5.049512	applauded	-0.1584104
-5.049512	applause	-0.3333443
-5.350543	applauses	-0.1587706
-4.748483	applicable	-0.6623672
-4.174451	application	-0.3501837
-4.447453	applications	-0.3740417
-4.174451	applied	-0.2659409
-4.651573	applies	-0.5077443
-4.049512	apply	-0.3994504
-5.049512	applying	-0.1467028
-5.049512	appoint	-0.1764777
-4.271361	appointed	-0.2118075
-5.350543	appointing	-0.176402
-5.049512	appointment	-0.3333443
-5.350543	apportion	-0.1774631
-5.350543	apposing	-0.1742036
-4.651573	appreciate	-0.2920947
-5.049512	appreciated	-0.146474
-5.350543	appreciation	-0.1571616
-4.873421	apprehend	-0.1754142
-5.049512	apprehended	-0.1573626
-4.873421	apprehending	-0.2558475
-5.350543	apprehends	-0.1762388
-4.651573	apprehension	-0.2176513
-5.350543	apprentice	-0.1742036
-5.350543	apprentices	-0.1659124
-4.204414	approach	-0.1245492
-4.572392	approaches	-0.1848851
-5.350543	approaching	-0.177434
-4.748483	appropriate	-0.1319188
-5.350543	appropriately	-0.1774476
-5.350543	appropriating	-0.146865
-4.873421	approval	-0.1478679
-4.350543	approve	-0.5084163
-4.651573	approved	-0.1327808
-5.049512	approver	-0.3333443
-4.748483	approves	-0.1976555
-5.049512	approximation	-0.1554997
-5.350543	appurtenances	-0.1765903
-3.888145	apt	-1.465569
-4.651573	aptitude	-0.3363561
-5.350543	arbitrarily	-0.1774534
-5.350543	arcadian	-0.1774476
-5.350543	archelaus	-0.1587706
-5.350543	archer	-0.1774573
-4.873421	archilochus	-0.1567737
-4.873421	architecture	-0.1359454
-5.350543	archon	-0.1773313
-5.350543	archytas	-0.1571616
-4.572392	ardiaeus	-0.2352427
-2.013683	are	-0.2647843
-5.350543	arena	-0.1773584
-5.049512	ares	-0.3349532
-5.350543	argenis	-0.1571616
-4.873421	argos	-0.1595143
-4.028323	argue	-0.3018716
-5.049512	argued	-0.1745392
-4.447453	argues	-0.3388195
-4.505445	arguing	-0.18613
-3.325237	argument	-0.262513
-5.350543	argumentative	-0.1742036
-4.236599	arguments	-0.1711027
-5.049512	aright	-0.1698442
-5.350543	arion	-0.1770638
-3.903385	arise	-0.2403159
-4.447453	arisen	-0.2906699
-3.935569	arises	-0.3752256
-5.350543	arising	-0.1587706
-4.873421	aristocracies	-0.1549267
-4.30915	aristocracy	-0.2569983
-5.049512	aristocratic	-0.1699428
-4.873421	aristocratical	-0.1405281
-4.350543	ariston	-0.1631263
-5.350543	aristonymus	-0.1600632
-5.049512	aristophanes	-0.1681214
-4.873421	aristotelian	-0.1772964
-3.642972	aristotle	-0.2783642
-4.271361	arithmetic	-0.1945616
-4.572392	arithmetical	-0.202302
-4.651573	arithmetician	-0.2145053
-4.748483	arm	-0.120296
-4.873421	armed	-0.1540626
-4.873421	armenius	-0.2771062
-4.873421	armies	-0.1537783
-4.873421	armour	-0.1389473
-4.00812	arms	-0.2847778
-4.174451	army	-0.2136245
-4.350543	arose	-0.110791
-4.30915	around	-0.2993173
-4.873421	arouse	-0.176163
-4.651573	aroused	-0.199796
-5.350543	arousing	-0.146865
-4.873421	arrange	-0.1467943
-4.572392	arranged	-0.2788998
-4.748483	arrangement	-0.1845737
-4.873421	arrangements	-0.1328775
-5.350543	arranges	-0.1766699
-5.350543	arranging	-0.1750013
-5.350543	arrant	-0.1774476
-4.748483	array	-0.2230117
-5.350543	arrayed	-0.1763534
-5.049512	arrival	-0.1376391
-4.236599	arrive	-0.9786029
-3.988815	arrived	-0.7113661
-4.572392	arrives	-0.3034889
-4.873421	arriving	-0.2847335
-5.350543	arrogance	-0.1600632
-5.350543	arrogant	-0.1587706
-5.350543	arrows	-0.1571616
-3.09527	art	-0.465441
-5.350543	artemis	-0.1587706
-5.350543	arthur	-0.1587706
-5.350543	article	-0.1763534
-5.350543	articles	-0.1774553
-4.748483	artificer	-0.333194
-5.049512	artificers	-0.1526945
-4.651573	artificial	-0.1772945
-5.350543	artificially	-0.1773584
-4.3963	artisan	-0.1552388
-4.3963	artisans	-0.2695545
-4.00812	artist	-0.1309843
-4.873421	artistic	-0.1738618
-4.30915	artists	-0.1811674
-3.386755	arts	-0.3455093
-2.126009	as	-0.6144308
-4.236599	ascend	-0.2239111
-5.350543	ascendant	-0.1587706
-4.748483	ascended	-0.1541402
-4.748483	ascending	-0.144875
-4.447453	ascent	-0.1529567
-4.873421	ascertain	-0.126118
-4.873421	ascertained	-0.1479488
-5.350543	ascertaining	-0.1758772
-5.350543	asclepiads	-0.1765903
-4.120094	asclepius	-0.2063126
-5.049512	ascribe	-0.3420951
-4.350543	ascribed	-0.8533372
-5.350543	ascribes	-0.1659124
-5.350543	ascribing	-0.1766136
-4.271361	ashamed	-0.553148
-5.049512	ashes	-0.1677392
-5.350543	asia	-0.1757022
-4.271361	aside	-0.1687955
-3.363771	ask	-0.345858
-3.737759	asked	-0.3979287
-4.204414	asking	-0.1250206
-4.120094	asks	-0.3364444
-4.873421	asleep	-0.1521486
-4.3963	aspect	-0.3941371
-4.447453	aspects	-0.3825822
-4.873421	aspirant	-0.2814752
-4.505445	aspiration	-0.08694131
-4.651573	aspirations	-0.2532028
-4.873421	aspire	-0.2747966
-5.049512	assailant	-0.1600491
-5.350543	assailants	-0.1587706
-5.350543	assailing	-0.1770386
-5.350543	assails	-0.146865
-5.350543	assassinate	-0.1761222
-5.350543	assassinating	-0.146865
-5.049512	assassination	-0.1587929
-5.350543	assault	-0.173203
-5.350543	assemblage	-0.1571616
-4.873421	assembled	-0.1596173
-4.873421	assemblies	-0.4849953
-4.651573	assembly	-0.1576506
-4.271361	assent	-0.2937135
-4.873421	assented	-0.1548471
-4.505445	assert	-0.1698602
-4.505445	asserted	-0.1317916
-5.049512	asserting	-0.1526781
-4.3963	assertion	-0.2472162
-5.049512	asserts	-0.1629216
-5.049512	asses	-0.1745743
-4.651573	assign	-0.2270825
-4.350543	assigned	-0.3478206
-5.049512	assigning	-0.1657234
-5.049512	assigns	-0.1581269
-5.350543	assimilate	-0.1659124
-5.350543	assimilated	-0.146865
-5.049512	assimilates	-0.1441518
-5.350543	assimilating	-0.1774631
-5.350543	assimilation	-0.1571616
-4.572392	assist	-0.1931251
-4.572392	assistance	-0.2699878
-4.748483	assisted	-0.2206373
-5.049512	assisting	-0.1735883
-4.572392	associate	-0.4365577
-4.572392	associated	-0.3707063
-4.651573	associates	-0.1145405
-4.748483	association	-0.1213224
-4.873421	associations	-0.1262684
-5.350543	assortment	-0.1571616
-3.988815	assume	-0.4524695
-4.350543	assumed	-0.4361254
-4.572392	assumes	-0.2224498
-4.350543	assuming	-0.3032061
-4.748483	assumption	-0.3905817
-5.350543	assumptions	-0.1762388
-5.049512	assurance	-0.3333443
-4.873421	assure	-0.1711889
-4.651573	assured	-0.1908227
-4.00812	assuredly	-0.7886938
-5.350543	assuring	-0.1761222
-5.350543	assyria	-0.1587706
-5.350543	assyrian	-0.1745373
-5.350543	asthmatic	-0.1659124
-5.049512	astonished	-0.1729877
-5.350543	astonishment	-0.1587706
-4.873421	astray	-0.1655621
-5.350543	astronomer	-0.1745822
-4.873421	astronomers	-0.1468795
-5.350543	astronomical	-0.1774592
-3.988815	astronomy	-0.1839711
-5.049512	asunder	-0.1405872
-5.350543	asylum	-0.1600632
-2.409528	at	-0.8120428
-5.049512	atalanta	-0.1772518
-5.350543	ate	-0.1571616
-4.572392	athene	-0.3227304
-4.204414	athenian	-0.165052
-4.873421	athenians	-0.1746582
-4.30915	athens	-0.06920288
-4.505445	athlete	-0.1644192
-4.350543	athletes	-0.1226764
-4.748483	atlantis	-0.3238348
-4.748483	atmosphere	-0.2087286
-5.350543	atone	-0.1751727
-5.049512	atonement	-0.3513554
-5.350543	atonements	-0.1751727
-5.049512	atoning	-0.1774127
-5.350543	atreus	-0.146865
-4.447453	atropos	-0.2592137
-4.748483	attach	-0.1334846
-4.651573	attached	-0.5064408
-5.049512	attaching	-0.3420951
-5.350543	attachment	-0.1600632
-5.049512	attachments	-0.172353
-4.873421	attack	-0.142162
-5.049512	attacked	-0.3510534
-4.873421	attacks	-0.1359006
-3.970331	attain	-0.3248852
-5.049512	attainable	-0.1635582
-5.350543	attainder	-0.173203
-4.204414	attained	-0.2195329
-4.572392	attaining	-0.1110055
-4.572392	attainment	-0.2580182
-5.350543	attainments	-0.1770948
-4.572392	attains	-0.2043742
-5.350543	attainted	-0.17731
-5.350543	attemper	-0.146865
-5.350543	attempers	-0.1750013
-3.873421	attempt	-0.6951903
-5.049512	attempted	-0.3420951
-4.505445	attempting	-0.9446716
-4.30915	attempts	-0.3172764
-4.572392	attend	-0.2528734
-5.049512	attendant	-0.1658946
-4.873421	attendants	-0.2497838
-4.651573	attended	-0.2220617
-4.873421	attending	-0.1585379
-5.049512	attends	-0.1736508
-4.30915	attention	-0.2183753
-5.350543	attic	-0.1774631
-5.350543	attire	-0.1587706
-5.049512	attitude	-0.3333443
-4.651573	attract	-0.2079315
-4.505445	attracted	-0.2402224
-5.350543	attracting	-0.1771626
-4.873421	attraction	-0.1380911
-5.350543	attractions	-0.1571616
-5.350543	attractive	-0.1659124
-5.350543	attracts	-0.1774321
-4.3963	attribute	-0.2059603
-4.028323	attributed	-1.184415
-4.447453	attributes	-0.2732489
-4.748483	attributing	-0.2129425
-5.350543	attribution	-0.1571616
-5.350543	attuning	-0.146865
-5.350543	audacious	-0.1774262
-5.350543	audacity	-0.1659124
-5.049512	audience	-0.1739595
-5.049512	auditors	-0.1592619
-5.350543	aufklarung	-0.1600632
-5.350543	aught	-0.1774611
-4.572392	augustine	-0.2012488
-5.350543	auscultation	-0.1763534
-5.049512	auspices	-0.1767844
-3.970331	author	-0.7048533
-5.350543	authorised	-0.1774069
-5.350543	authoritative	-0.1587706
-4.873421	authorities	-0.1613661
-3.717074	authority	-0.4259809
-5.350543	authorized	-0.1774631
-4.350543	authors	-0.851683
-5.049512	autolycus	-0.3230476
-4.30915	auxiliaries	-0.2239511
-4.873421	auxiliary	-0.1345682
-5.049512	avail	-0.1480318
-4.447453	avarice	-0.1662242
-4.505445	avaricious	-0.1388521
-5.350543	aver	-0.1716309
-5.049512	average	-0.1569707
-5.049512	averse	-0.3420951
-5.350543	aversion	-0.1774592
-5.350543	avert	-0.175457
-5.350543	averted	-0.1773371
-5.350543	averters	-0.1571616
-5.350543	avesta	-0.1600632
-4.174451	avoid	-0.2096461
-5.049512	avoidance	-0.1389092
-4.748483	avoided	-0.2065052
-4.873421	await	-0.1754881
-5.049512	awaiting	-0.1459618
-5.049512	awaits	-0.1762776
-4.30915	awake	-0.2407665
-5.049512	awakened	-0.1748181
-5.049512	awakening	-0.1662943
-5.350543	awakens	-0.1587706
-5.049512	awaking	-0.3536283
-3.903385	aware	-0.733078
-3.359317	away	-0.5594849
-4.748483	awe	-0.1976555
-5.350543	awestricken	-0.1748707
-5.350543	awful	-0.1772305
-5.350543	awhile	-0.168873
-5.350543	axioms	-0.1600632
-4.3963	axis	-0.1325691
-4.651573	aye	-0.1942993
-3.737759	back	-0.286529
-5.350543	background	-0.1772421
-5.350543	backs	-0.1600632
-4.748483	backward	-0.2354872
-5.350543	backwardness	-0.1587706
-5.350543	backwards	-0.1760658
-4.3963	bacon	-0.09970123
-3.421124	bad	-0.2625793
-4.873421	bade	-0.2828475
-5.049512	badly	-0.1755777
-4.505445	badness	-0.9359208
-5.350543	baking	-0.1587706
-4.748483	balance	-0.1411015
-5.049512	balanced	-0.1759881
-5.350543	balances	-0.174937
-4.572392	bald	-0.3513826
-5.350543	balm	-0.1571616
-4.651573	band	-0.1940927
-5.350543	baneful	-0.1774631
-4.3963	banish	-0.1794106
-4.3963	banished	-0.1624383
-5.049512	banishes	-0.1450463
-4.748483	banishing	-0.2252733
-5.049512	banishment	-0.1571251
-5.350543	banquet	-0.1587706
-5.350543	banquetter	-0.1753967
-5.350543	banter	-0.1587706
-4.204414	barbarians	-0.3397019
-5.049512	barbarism	-0.1565948
-4.651573	barbarous	-0.2280347
-5.049512	barbers	-0.1741997
-5.350543	barclay	-0.1725392
-5.350543	bare	-0.1774495
-5.350543	barefoot	-0.1745373
-5.350543	barest	-0.1773894
-4.873421	bark	-0.2843402
-4.873421	barley	-0.2865532
-4.748483	barren	-0.1756632
-4.447453	base	-0.1931515
-4.00812	based	-0.5978466
-4.873421	baseness	-0.1695345
-5.049512	baser	-0.177153
-5.049512	bases	-0.3333443
-5.350543	basest	-0.1766097
-4.236599	basis	-0.5892351
-5.350543	bask	-0.168873
-5.350543	bass	-0.1774514
-4.572392	bastard	-0.2766345
-5.350543	bastards	-0.1600632
-5.049512	bat	-0.1741704
-4.873421	bath	-0.1530205
-5.350543	baths	-0.1765068
-5.049512	bats	-0.1511163
-3.970331	battle	-0.1560619
-5.049512	battles	-0.3333443
-5.350543	battling	-0.1587706
-5.049512	bazaar	-0.3519529
-1.888744	be	-0.3490909
-5.350543	beak	-0.1571616
-5.350543	beams	-0.1771122
-5.350543	beans	-0.1587706
-3.873421	bear	-0.2311853
-5.350543	bearer	-0.1774514
-5.350543	bearers	-0.1774573
-4.505445	bearing	-0.1345425
-4.447453	bears	-0.2688711
-3.988815	beast	-0.2374444
-4.505445	beasts	-0.1281673
-4.572392	beat	-0.5256309
-4.651573	beaten	-0.2725272
-5.049512	beatific	-0.353574
-5.350543	beating	-0.174937
-4.748483	beats	-0.172451
-5.350543	beauteous	-0.1773294
-4.873421	beauties	-0.2481059
-3.770759	beautiful	-0.2492054
-5.350543	beautify	-0.146865
-3.499284	beauty	-0.4578008
-4.271361	became	-0.2502632
-3.076385	because	-0.6354113
-3.325237	become	-0.2631969
-3.687785	becomes	-0.1944218
-4.028323	becoming	-0.2229738
-3.888145	bed	-0.3582214
-4.3963	beds	-0.3605497
-5.049512	bee	-0.3535546
-4.748483	beef	-0.2452655
-2.693487	been	-0.1504582
-5.049512	bees	-0.1677392
-5.350543	befall	-0.1761222
-3.325237	before	-0.3271576
-5.049512	beforehand	-0.137552
-4.3963	beg	-0.2726925
-4.120094	began	-0.5041041
-5.350543	begat	-0.168873
-4.873421	beget	-0.2677063
-5.049512	begetting	-0.1771801
-5.350543	beggarly	-0.1767766
-4.873421	beggars	-0.1678006
-5.049512	beggary	-0.1405872
-5.350543	begged	-0.1716309
-4.651573	begging	-0.1244662
-3.669301	begin	-0.6601649
-3.61018	beginning	-0.6958388
-5.049512	beginnings	-0.1250416
-3.819064	begins	-0.6579472
-5.350543	begone	-0.1760658
-4.873421	begotten	-0.1666818
-5.350543	begs	-0.1774611
-4.748483	begun	-0.1409224
-4.572392	behalf	-0.3426298
-4.873421	behave	-0.1715072
-4.505445	behaviour	-0.4349727
-4.748483	beheld	-0.229254
-5.350543	behests	-0.1772925
-4.204414	behind	-0.21954
-3.888145	behold	-0.3495258
-5.350543	beholder	-0.1745373
-5.049512	beholding	-0.1451632
-5.049512	beholds	-0.1769435
-2.863404	being	-0.2239597
-4.3963	beings	-0.18803
-4.204414	belief	-0.1653003
-4.572392	beliefs	-0.0877829
-3.481311	believe	-0.412282
-4.3963	believed	-0.219986
-4.748483	believer	-0.6653277
-4.3963	believes	-0.2213793
-4.572392	believing	-0.3005084
-5.049512	bellowing	-0.1571575
-4.651573	belong	-0.2101497
-5.049512	belonging	-0.3420951
-4.350543	belongs	-1.161535
-5.049512	beloved	-0.1749038
-3.782341	below	-0.2256594
-5.350543	belt	-0.1571616
-5.049512	bema	-0.3349532
-5.350543	bendidea	-0.1600632
-5.350543	bending	-0.1765165
-5.049512	bendis	-0.1549348
-4.350543	beneath	-0.2814101
-5.350543	benefactor	-0.1571616
-4.748483	benefactors	-0.3741874
-5.049512	beneficence	-0.137552
-4.572392	beneficial	-0.1653977
-4.120094	benefit	-0.2270342
-4.873421	benefited	-0.5010954
-5.350543	benefiting	-0.1716309
-4.873421	benefits	-0.2641315
-5.049512	benevolence	-0.1405872
-5.049512	bent	-0.1506178
-5.350543	bequeath	-0.1698856
-5.350543	bequeaths	-0.1742036
-4.873421	bequests	-0.1682184
-5.049512	berkeley	-0.1727978
-5.350543	berries	-0.1587706
-5.350543	beseech	-0.174744
-5.350543	beseeching	-0.1774573
-4.873421	beset	-0.1725666
-5.049512	beside	-0.1463824
-4.120094	besides	-0.2156026
-5.350543	besprinkled	-0.1753967
-3.143717	best	-0.3441159
-5.350543	bestow	-0.1600632
-5.049512	bestowed	-0.1758539
-5.350543	betray	-0.146865
-5.049512	betrayed	-0.1731952
-3.100123	better	-0.3960656
-3.253633	between	-0.5048074
-5.350543	beware	-0.1571616
-5.049512	bewildered	-0.1747752
-5.350543	bewilderments	-0.1571616
-3.618149	beyond	-0.4063579
-5.350543	bias	-0.173203
-5.049512	bid	-0.1741548
-5.049512	bidden	-0.163248
-4.651573	bidding	-0.1967014
-4.505445	bids	-0.3500598
-5.350543	bigger	-0.1765068
-5.350543	bigness	-0.1745373
-5.049512	bile	-0.3494189
-4.873421	bind	-0.1731462
-4.572392	binding	-0.1432136
-5.350543	binds	-0.1773197
-5.350543	biographer	-0.1659124
-4.873421	bird	-0.156609
-4.447453	birds	-0.1643133
-3.988815	birth	-0.1806029
-4.572392	births	-0.3402743
-4.873421	bishop	-0.1571514
-5.350543	bishopric	-0.1753967
-5.049512	bit	-0.1405872
-5.049512	bite	-0.3349532
-5.350543	bitter	-0.1774418
-5.350543	bitterest	-0.1772286
-4.505445	black	-0.1526925
-5.049512	blacksmith	-0.3532464
-5.049512	blacksmiths	-0.1702463
-4.30915	blame	-0.1444287
-5.350543	blameable	-0.1745373
-4.505445	blamed	-0.1964461
-4.748483	blameless	-0.1596375
-5.350543	blames	-0.177184
-5.350543	blaming	-0.1774262
-5.049512	blank	-0.1281651
-5.350543	blasphemous	-0.1774534
-5.350543	blasphemy	-0.1772208
-5.350543	blazes	-0.1770288
-5.350543	blazing	-0.1757703
-5.350543	bleat	-0.1765165
-5.350543	blemishes	-0.1766194
-5.350543	blend	-0.168873
-4.174451	blessed	-0.1460963
-5.049512	blessedness	-0.1519986
-4.572392	blessing	-0.253898
-4.447453	blessings	-0.2731992
-4.873421	blest	-0.2497838
-4.146423	blind	-0.2495993
-5.350543	blindly	-0.1587706
-4.748483	blindness	-0.1252142
-5.350543	blink	-0.1757703
-4.748483	blinking	-0.1177158
-5.350543	blinks	-0.1763534
-5.049512	bliss	-0.1405872
-4.271361	blood	-0.3772508
-5.049512	bloom	-0.1389092
-5.049512	blooming	-0.15854
-5.350543	blooms	-0.168873
-4.748483	blow	-0.1185087
-5.350543	blown	-0.1773003
-4.748483	blows	-0.1294135
-5.350543	blunted	-0.1770948
-5.350543	blurred	-0.1659124
-5.350543	blush	-0.1600632
-5.350543	blushing	-0.1600632
-5.350543	blustering	-0.1774476
-5.049512	boast	-0.3333443
-5.350543	boaster	-0.173203
-5.350543	boastful	-0.1774611
-5.350543	boasting	-0.1772208
-5.350543	boatswains	-0.173203
-4.00812	bodies	-0.177796
-3.737759	bodily	-0.3163813
-3.177356	body	-0.3351087
-5.350543	boeckh	-0.1774359
-5.350543	boil	-0.1774611
-5.049512	boiled	-0.3536341
-5.350543	boils	-0.1587706
-4.651573	bold	-0.1475318
-5.350543	bolder	-0.1774495
-4.651573	boldly	-0.1526658
-4.651573	bond	-0.1940562
-5.350543	bonds	-0.1748707
-5.350543	bones	-0.1587706
-3.386755	book	-0.4334557
-4.174451	books	-0.0999572
-5.049512	boon	-0.3536147
-5.350543	boorish	-0.1600632
-5.049512	border	-0.3362459
-5.350543	borders	-0.1751727
-4.873421	bore	-0.2479238
-3.903385	born	-0.2268789
-4.873421	borne	-0.1748005
-5.350543	borrow	-0.1600632
-4.350543	borrowed	-0.3437701
-5.049512	borrowing	-0.3349532
-5.350543	borrows	-0.1762854
-4.873421	bosom	-0.2675484
-3.069509	both	-0.3406036
-5.350543	bottom	-0.1571616
-5.049512	bought	-0.1566111
-4.204414	bound	-0.2066734
-5.350543	boundless	-0.1774553
-5.350543	bounds	-0.1571616
-5.049512	bow	-0.1756535
-5.049512	bowed	-0.1752798
-5.049512	bowl	-0.1573098
-5.350543	box	-0.1774553
-5.049512	boxer	-0.1755212
-5.350543	boxers	-0.1600632
-5.350543	boxes	-0.1774631
-5.049512	boxing	-0.1764991
-4.873421	boy	-0.2679632
-4.651573	boys	-0.1521342
-5.350543	brahmins	-0.173203
-4.236599	branch	-0.7528896
-4.748483	branches	-0.3761005
-4.236599	brass	-0.6259518
-4.174451	brave	-0.2451761
-5.350543	braver	-0.1587706
-4.873421	bravery	-0.1472847
-4.651573	bravest	-0.187012
-5.049512	brazen	-0.1774437
-5.350543	bread	-0.1587706
-4.3963	break	-0.1512809
-5.049512	breaker	-0.3333443
-4.651573	breaking	-0.2280109
-4.447453	breaks	-0.2464653
-4.3963	breast	-0.3627461
-4.748483	breath	-0.1209033
-5.350543	breathe	-0.173203
-5.049512	breathing	-0.3536438
-4.748483	bred	-0.1465967
-4.271361	breed	-0.2381158
-5.350543	breeder	-0.1571616
-4.447453	breeding	-0.1610614
-5.350543	breeds	-0.177434
-4.873421	breeze	-0.1476895
-5.350543	brethren	-0.1600632
-5.350543	bribe	-0.168873
-5.350543	bribed	-0.1766194
-5.350543	bribery	-0.1773778
-4.873421	bribes	-0.2648228
-5.350543	bricks	-0.1587706
-5.049512	bride	-0.3349532
-4.651573	bridegroom	-0.1561188
-5.049512	bridegrooms	-0.1554997
-5.049512	brides	-0.3349532
-4.651573	bridle	-0.2698034
-5.049512	brief	-0.1774359
-4.873421	briefly	-0.1468213
-4.748483	bright	-0.2392588
-4.651573	brighter	-0.2188846
-4.748483	brightest	-0.196324
-5.350543	brightness	-0.1587706
-5.049512	brilliant	-0.1758792
-3.806475	bring	-0.3070802
-4.572392	bringing	-0.2250587
-4.30915	brings	-0.1922869
-5.350543	brink	-0.1571616
-5.350543	brittle	-0.1587706
-5.049512	broadest	-0.3349532
-5.350543	broils	-0.1725392
-5.350543	broke	-0.177372
-4.748483	broken	-0.1729583
-4.174451	brother	-0.2009231
-5.049512	brotherhood	-0.1554997
-5.350543	brotherhoods	-0.1587706
-4.09527	brothers	-0.2283601
-3.61018	brought	-0.4776506
-5.350543	browse	-0.1587706
-5.049512	bruised	-0.1577804
-4.651573	brutal	-0.275021
-5.350543	brutality	-0.1587706
-5.350543	brutalized	-0.146865
-4.748483	brute	-0.2390389
-5.049512	brutes	-0.1584023
-5.049512	buffoon	-0.1666639
-5.350543	buffoonery	-0.1725392
-4.873421	build	-0.1769338
-4.572392	builder	-0.1499
-5.350543	builders	-0.1742036
-4.572392	building	-0.16942
-5.350543	builds	-0.1698856
-4.651573	built	-0.2368732
-5.350543	bulk	-0.1745373
-5.350543	bulldogs	-0.173203
-5.350543	bullies	-0.173203
-5.049512	bulls	-0.1422902
-5.350543	bunyan	-0.1712046
-4.873421	burden	-0.1585197
-5.350543	burglar	-0.173203
-4.873421	burglars	-0.2679451
-4.748483	burial	-0.656518
-4.873421	buried	-0.260313
-5.049512	burke	-0.1741294
-4.873421	burn	-0.1446578
-5.350543	burned	-0.1769842
-5.350543	burning	-0.1571616
-5.049512	burnt	-0.1766136
-5.350543	burst	-0.1753967
-5.049512	bury	-0.1663599
-5.350543	bushel	-0.1571616
-3.618149	business	-0.3314609
-5.350543	bustling	-0.1768349
-4.873421	busy	-0.2845505
-4.873421	busybody	-0.1643417
-2.172718	but	-0.6234876
-5.350543	butchery	-0.1600632
-5.350543	butt	-0.1757703
-4.505445	buy	-0.1316283
-5.350543	buyers	-0.1587706
-4.873421	buying	-0.2635168
-5.049512	buzz	-0.1768135
-5.049512	buzzing	-0.1768135
-2.225061	by	-0.5902966
-5.350543	bye	-0.1659124
-5.350543	c.f	-0.1600632
-5.350543	cadmus	-0.1745373
-5.350543	caesar	-0.1587706
-5.049512	caitiff	-0.1723765
-5.350543	cajole	-0.174937
-5.049512	cakes	-0.1570073
-5.049512	calamities	-0.1683826
-5.350543	calamity	-0.1587706
-4.873421	calculating	-0.2678398
-4.204414	calculation	-0.24914
-5.350543	calendar	-0.1571616
-3.518034	call	-0.2785807
-3.447453	called	-0.2815382
-4.236599	calling	-0.2374572
-4.873421	callings	-0.1482722
-5.350543	callippus	-0.1600632
-4.30915	calls	-0.1970535
-4.873421	calm	-0.2679572
-5.049512	calmer	-0.1742485
-5.350543	cambridge	-0.1774534
-3.748483	came	-0.3541515
-4.3963	camp	-0.1868741
-5.350543	campaign	-0.1739517
-5.350543	campaigning	-0.1763534
-4.873421	campanella	-0.1698028
-2.698296	can	-0.4987475
-4.873421	candle	-0.2663948
-5.350543	canibus	-0.1587706
-3.092864	cannot	-0.4076476
-4.09527	capable	-1.394182
-5.350543	capacities	-0.1571616
-4.447453	capacity	-0.1265184
-4.873421	capital	-0.2831679
-4.120094	captain	-0.3049677
-5.350543	captivates	-0.146865
-5.350543	captivating	-0.1659124
-4.748483	captive	-0.1721392
-4.748483	captives	-0.2285331
-5.350543	capture	-0.1774495
-5.350543	cardinal	-0.1773642
-5.049512	carding	-0.3511839
-3.469729	care	-0.4952014
-5.049512	career	-0.1749974
-4.651573	careful	-0.1368186
-4.873421	carefully	-0.1467693
-4.572392	careless	-0.2417562
-5.350543	carelessly	-0.1773681
-5.350543	carelessness	-0.1587706
-4.3963	cares	-0.1974246
-5.350543	caricatured	-0.1748707
-5.350543	caring	-0.1751727
-5.350543	carnivorous	-0.1745822
-5.350543	carousals	-0.1587706
-4.00812	carpenter	-0.2687744
-5.049512	carpentering	-0.1405872
-5.350543	carpenters	-0.1587706
-3.873421	carried	-0.4322882
-4.505445	carries	-0.1836057
-4.09527	carry	-0.3497585
-4.505445	carrying	-0.2145362
-5.350543	carts	-0.1600632
-3.421124	case	-0.4322658
-3.952603	cases	-0.1100249
-5.049512	casks	-0.1772499
-4.204414	cast	-0.2311238
-4.873421	caste	-0.1387589
-5.049512	casting	-0.3460683
-5.350543	castle	-0.1587706
-5.350543	castles	-0.1725392
-5.350543	casts	-0.1750013
-5.049512	casual	-0.1772693
-5.350543	casuistry	-0.1725392
-5.049512	catalogue	-0.3333443
-5.350543	catarrh	-0.1683945
-5.350543	catastrophe	-0.1600632
-4.505445	catch	-0.2484773
-5.350543	catches	-0.1774398
-5.350543	catching	-0.1698856
-4.651573	catholic	-0.1682817
-5.049512	cattle	-0.1566111
-4.447453	caught	-0.1501003
-3.717074	cause	-0.4586488
-4.572392	caused	-0.3198907
-3.988815	causes	-0.2349586
-5.049512	cautery	-0.1728291
-4.873421	caution	-0.145376
-5.049512	cautious	-0.1705653
-4.572392	cave	-0.1452946
-5.049512	cavern	-0.1587322
-5.350543	caves	-0.1571616
-4.30915	cease	-0.5694123
-4.873421	ceased	-0.4921372
-5.350543	ceaseless	-0.1774611
-4.873421	ceases	-0.2691167
-5.350543	cebes	-0.168873
-5.049512	ceiling	-0.1733653
-5.350543	celebrate	-0.146865
-4.748483	celebrated	-0.2217936
-5.350543	celebrating	-0.168873
-5.350543	cells	-0.1774437
-5.350543	censors	-0.1773739
-4.873421	censorship	-0.4833863
-4.572392	censure	-0.2335907
-4.873421	censured	-0.1537005
-5.350543	censures	-0.146865
-5.049512	censuring	-0.1465634
-4.505445	centre	-0.1684413
-4.873421	centuries	-0.1760619
-4.350543	century	-0.2326926
-5.350543	ceos	-0.1587706
-3.919179	cephalus	-0.2183086
-5.350543	cerberus	-0.1587706
-4.873421	ceremonies	-0.1495778
-3.475481	certain	-0.2792608
-2.935569	certainly	-0.8062767
-5.350543	certainties	-0.1600632
-4.505445	certainty	-0.4338554
-5.350543	certifies	-0.1716309
-4.572392	cessation	-0.4071991
-5.350543	chafe	-0.1774611
-5.350543	chafes	-0.1587706
-4.873421	chain	-0.1375286
-4.873421	chained	-0.1574843
-4.572392	chains	-0.2396737
-5.350543	chair	-0.1587706
-5.350543	chairs	-0.168873
-5.049512	chalcedonian	-0.1774553
-4.873421	champion	-0.1531947
-4.049512	chance	-0.2133763
-5.049512	chanced	-0.3420951
-5.350543	chances	-0.146865
-3.530999	change	-0.3366338
-4.3963	changed	-0.2333228
-3.988815	changes	-0.2373519
-4.651573	changing	-0.2195629
-5.350543	channel	-0.1600632
-4.651573	chaos	-0.270979
-5.350543	chaotic	-0.1774398
-5.049512	chaplets	-0.1567919
-5.350543	chapter	-0.1725392
-3.377415	character	-0.5594017
-5.350543	characterises	-0.1761222
-4.174451	characteristic	-0.5496653
-4.748483	characteristically	-0.1772363
-4.447453	characteristics	-0.290654
-5.350543	characterize	-0.146865
-5.049512	characterized	-0.1440807
-4.028323	characters	-0.3449444
-4.447453	charge	-0.2064433
-4.873421	charged	-0.2842389
-5.350543	charges	-0.1772208
-5.049512	chariot	-0.3333443
-4.3963	charm	-0.3100825
-5.049512	charmantides	-0.1461534
-4.873421	charmed	-0.2665592
-5.350543	charmer	-0.1587706
-5.350543	charmides	-0.1725392
-4.146423	charming	-0.1130946
-5.350543	charmingly	-0.1773216
-4.651573	charms	-0.1942326
-5.049512	charondas	-0.1587362
-5.350543	chase	-0.1600632
-5.350543	chased	-0.1774088
-4.748483	chasm	-0.1685092
-5.049512	chasms	-0.1688276
-5.350543	chasten	-0.1745373
-5.350543	chastened	-0.1587706
-5.350543	chastise	-0.1587706
-5.350543	chastises	-0.174937
-5.350543	chastising	-0.146865
-5.350543	chastity	-0.1587706
-4.748483	cheat	-0.2369252
-5.350543	cheek	-0.1571616
-5.350543	cheered	-0.1770444
-4.873421	cheese	-0.1536248
-5.049512	cheiron	-0.3532464
-5.350543	chemical	-0.1774631
-5.350543	chemistry	-0.1587706
-5.350543	cherish	-0.1770676
-5.350543	cherished	-0.1772228
-5.350543	cherisher	-0.1571616
-5.350543	cherishes	-0.146865
-5.350543	chestnuts	-0.1659124
-4.204414	chief	-0.1755227
-4.873421	chiefest	-0.2674593
-4.30915	chiefly	-0.1621277
-5.350543	chiefs	-0.1571616
-3.903385	child	-0.269464
-4.30915	childhood	-0.2657447
-5.350543	childish	-0.1772421
-3.239953	children	-0.3274729
-5.350543	chimera	-0.173203
-5.350543	china	-0.1774631
-5.049512	chines	-0.3487218
-5.350543	chirping	-0.1571616
-5.350543	chisel	-0.1587706
-4.120094	choice	-0.1309742
-5.350543	choices	-0.168873
-3.935569	choose	-0.2082518
-5.350543	chooser	-0.1772053
-4.873421	chooses	-0.1762057
-4.572392	choosing	-0.2490332
-5.350543	chords	-0.1571616
-4.651573	chorus	-0.1500692
-5.049512	choruses	-0.1587342
-4.3963	chose	-0.2719912
-4.120094	chosen	-0.2115599
-4.174451	christ	-0.2427634
-5.350543	christendom	-0.146865
-4.00812	christian	-0.2291621
-4.873421	christianity	-0.1566273
-4.748483	christians	-0.1673724
-5.350543	chronique	-0.1774631
-5.049512	chronological	-0.1771161
-5.350543	chronology	-0.1762388
-4.651573	chryses	-0.1513098
-4.120094	church	-0.2994246
-5.049512	churches	-0.1765923
-5.350543	churlish	-0.1745373
-4.447453	cicero	-0.1417688
-4.271361	circle	-0.241029
-4.572392	circles	-0.2893657
-5.350543	circuit	-0.1587706
-5.049512	circuitous	-0.3531882
-5.350543	circuits	-0.1571616
-5.350543	circule	-0.1771685
-5.350543	circumcision	-0.1571616
-5.049512	circumference	-0.158716
-5.350543	circumferences	-0.1571616
-4.3963	circumstance	-0.9941659
-5.350543	circumstanced	-0.1772324
-3.832029	circumstances	-0.2262639
-5.350543	circumvent	-0.1774127
-5.350543	circumventing	-0.1774127
-5.350543	citadel	-0.1571616
-5.350543	citations	-0.1759589
-3.888145	cities	-0.224803
-5.350543	citing	-0.1772964
-4.071789	citizen	-0.2637342
-3.239953	citizens	-0.2366784
-4.651573	citizenship	-0.09472747
-3.177356	city	-0.3928069
-5.350543	civic	-0.1766912
-4.572392	civil	-0.4211555
-5.049512	civilisation	-0.1716545
-5.350543	civilities	-0.1600632
-5.350543	civility	-0.1659124
-4.505445	civilization	-0.1399096
-5.350543	civilize	-0.1587706
-4.146423	civilized	-0.192636
-5.350543	civilizing	-0.146865
-5.350543	civitate	-0.1774631
-4.350543	claim	-0.3963514
-5.350543	claimed	-0.1763534
-5.350543	claiming	-0.1659124
-4.748483	claims	-0.3826189
-5.350543	clapping	-0.175457
-3.346221	class	-0.3143258
-5.350543	class.the	-0.1769668
-3.70709	classes	-0.2884687
-5.049512	classical	-0.1774243
-5.049512	classics	-0.1543202
-5.350543	classification	-0.146865
-5.350543	classifying	-0.1773546
-5.049512	clause	-0.1587463
-4.572392	clean	-0.2359422
-3.859181	clear	-0.3611522
-4.873421	cleared	-0.2851614
-4.236599	clearer	-0.2210213
-5.350543	clearest	-0.1772247
-5.049512	clearing	-0.146397
-3.458448	clearly	-0.3888189
-4.120094	clearness	-0.3616779
-5.350543	cleisthenes	-0.1587706
-4.505445	cleitophon	-0.1590567
-5.049512	clement	-0.137552
-5.350543	clergy	-0.1757703
-4.447453	clever	-0.3476753
-5.350543	cleverest	-0.177372
-5.350543	cleverly	-0.1774611
-4.651573	cleverness	-0.2740235
-5.049512	climate	-0.1556261
-5.049512	clime	-0.1536268
-4.873421	cling	-0.4921372
-5.350543	clinging	-0.1659124
-5.350543	clings	-0.1659124
-5.350543	cloak	-0.1774379
-4.447453	close	-0.2160449
-5.350543	closed	-0.1772208
-5.350543	closely	-0.1774456
-5.350543	closing	-0.173203
-5.350543	clothe	-0.176402
-4.505445	clothed	-0.5145874
-4.748483	clothes	-0.3726876
-5.350543	clothing	-0.1587706
-4.447453	clotho	-0.3754298
-4.748483	clouds	-0.1976555
-5.350543	club	-0.1600632
-5.350543	clubs	-0.1600632
-5.350543	clue	-0.1758792
-5.350543	clumsiness	-0.1571616
-5.049512	clumsy	-0.1587686
-4.651573	co	-0.2396275
-4.748483	coarse	-0.1706204
-5.350543	coarseness	-0.1587706
-5.350543	coarser	-0.1774243
-4.572392	coat	-0.2662656
-5.350543	coats	-0.1757761
-4.174451	cobbler	-0.2037627
-4.505445	cobblers	-0.3212332
-4.748483	cobbling	-0.1350704
-5.049512	cock	-0.1633161
-5.049512	cocytus	-0.3349532
-5.350543	coddling	-0.1759492
-5.350543	coerces	-0.174937
-5.350543	coextensive	-0.1753967
-5.350543	cognate	-0.1773623
-5.350543	cognizable	-0.1748707
-4.651573	coincide	-0.3131132
-5.049512	coincidence	-0.3333443
-5.350543	coincidences	-0.168873
-5.350543	coincides	-0.1753967
-5.049512	coined	-0.3528021
-4.271361	cold	-0.2270759
-5.350543	coldly	-0.1763534
-4.873421	coleridge	-0.1637702
-4.651573	colleagues	-0.2794291
-5.350543	collecting	-0.1770153
-5.049512	collective	-0.1586816
-5.049512	collectively	-0.1741821
-5.350543	colleges	-0.1757703
-4.873421	collet	-0.1571555
-5.350543	collocation	-0.1571616
-5.350543	colonies	-0.1587706
-4.204414	colour	-0.2130651
-4.873421	coloured	-0.2652585
-4.146423	colours	-0.2854053
-5.350543	colts	-0.1774262
-4.3963	column	-0.3478155
-5.350543	combating	-0.1753967
-5.350543	combe	-0.1683945
-4.505445	combination	-0.9359208
-4.3963	combinations	-0.1670547
-4.651573	combine	-0.2051149
-4.3963	combined	-0.370261
-5.350543	combines	-0.1767301
-5.049512	combining	-0.1749974
-3.30915	come	-0.4142876
-5.350543	comedies	-0.1774301
-4.505445	comedy	-0.1623904
-5.350543	comeliness	-0.1571616
-5.049512	comer	-0.1756691
-3.551202	comes	-0.4676367
-5.350543	comfort	-0.1587706
-5.049512	comfortable	-0.1725999
-5.350543	comforter	-0.1600632
-5.049512	comforts	-0.137552
-4.748483	comic	-0.1586148
-4.09527	coming	-0.2341395
-4.028323	command	-0.1759048
-4.651573	commanded	-0.2971129
-5.350543	commanders	-0.1587706
-4.447453	commands	-0.2595107
-5.350543	commence	-0.1757703
-4.651573	commencement	-0.6351329
-5.350543	commencing	-0.146865
-5.350543	commend	-0.146865
-5.049512	commensurable	-0.3349532
-5.350543	commensurate	-0.1753967
-5.350543	commentators	-0.1773274
-5.350543	commerce	-0.173203
-5.049512	commercial	-0.1587241
-4.505445	commit	-0.2963867
-4.572392	committed	-0.1627225
-5.049512	committing	-0.1460243
-5.049512	commodities	-0.1597586
-3.267757	common	-0.3318769
-4.873421	commoner	-0.1763476
-4.146423	commonly	-0.1714913
-4.873421	commonplace	-0.1510916
-4.873421	commonplaces	-0.4833863
-4.3963	commonwealth	-0.3345314
-4.873421	commonwealths	-0.2772072
-5.350543	commotion	-0.1758792
-5.350543	communicate	-0.1774437
-4.873421	communicated	-0.4921372
-5.350543	communicates	-0.1774224
-5.350543	communication	-0.1571616
-5.350543	communications	-0.1745822
-4.651573	communion	-0.3008052
-4.3963	communism	-0.1711589
-5.049512	communistic	-0.1774146
-5.350543	communists	-0.146865
-3.727293	community	-0.5596647
-4.873421	compact	-0.1657592
-4.447453	companion	-0.3312232
-4.120094	companions	-0.1706178
-5.049512	companionship	-0.1597546
-3.845393	company	-0.2778728
-5.350543	comparable	-0.1659124
-4.447453	comparative	-0.272899
-5.049512	comparatively	-0.1773933
-4.30915	compare	-0.4262263
-3.919179	compared	-1.031275
-4.447453	compares	-0.2758579
-4.748483	comparing	-0.1305546
-4.120094	comparison	-0.8649764
-5.350543	comparisons	-0.1571616
-5.350543	compass	-0.1698856
-4.447453	compel	-0.3715878
-3.819064	compelled	-0.6953977
-4.651573	compelling	-0.4876596
-4.572392	compels	-0.2639763
-5.350543	compensating	-0.1774321
-4.572392	compete	-0.5194769
-5.350543	competition	-0.1683945
-5.350543	competitor	-0.168873
-4.873421	complain	-0.260243
-5.350543	complainers	-0.1773565
-5.350543	complaining	-0.1716309
-4.748483	complaints	-0.2486497
-4.271361	complete	-0.265117
-4.447453	completed	-0.1978797
-4.447453	completely	-0.1656776
-5.350543	completion	-0.1571616
-4.30915	complex	-0.1372354
-5.350543	complexion	-0.1587706
-4.651573	complexity	-0.3044283
-5.350543	complicated	-0.1748707
-5.350543	complicating	-0.175457
-5.350543	complications	-0.1725392
-4.873421	compliment	-0.1750227
-4.748483	compose	-0.2513452
-4.30915	composed	-0.2035706
-4.651573	composite	-0.1766272
-4.748483	composition	-0.35797
-5.350543	compositions	-0.1587706
-4.873421	compound	-0.2568489
-5.049512	compounded	-0.1571068
-4.873421	comprehend	-0.14212
-4.30915	comprehended	-0.3809922
-4.873421	comprehending	-0.1656278
-5.350543	comprehends	-0.1730268
-5.350543	comprehension	-0.1587706
-4.748483	comprehensive	-0.1767689
-5.350543	comprehensiveness	-0.1571616
-4.873421	compromise	-0.1561514
-4.748483	compulsion	-0.1540789
-5.350543	compulsory	-0.1771549
-5.049512	compunction	-0.1641719
-5.350543	computation	-0.1746933
-5.350543	comrade	-0.1600632
-5.049512	comrades	-0.1584023
-5.350543	concave	-0.1773759
-5.350543	conceal	-0.1770153
-4.748483	concealed	-0.1418403
-4.572392	concealment	-0.3987823
-5.350543	conceals	-0.1770153
-5.350543	concede	-0.1716309
-5.049512	conceit	-0.3333443
-4.873421	conceited	-0.1572976
-5.049512	conceits	-0.1587585
-4.651573	conceivable	-0.2333944
-3.832029	conceive	-0.1925382
-3.952603	conceived	-0.1576921
-4.873421	conceives	-0.1336411
-4.873421	conceiving	-0.255783
-5.350543	concentrated	-0.146865
-5.350543	concentration	-0.1600632
-3.61018	conception	-0.8623529
-4.30915	conceptions	-0.3176048
-4.748483	concern	-0.2352267
-3.832029	concerned	-0.8308393
-4.09527	concerning	-0.2439536
-5.350543	concernment	-0.1571616
-4.651573	concerns	-0.1858557
-4.873421	conclude	-0.2789029
-5.049512	concluded	-0.1740103
-5.049512	concluding	-0.1765126
-3.935569	conclusion	-0.2602795
-4.3963	conclusions	-0.1985615
-5.049512	concord	-0.1651956
-5.049512	concrete	-0.1642818
-4.572392	concupiscent	-0.1995118
-4.873421	condemn	-0.1588192
-4.873421	condemnation	-0.1423742
-4.505445	condemned	-0.1256947
-5.350543	condemning	-0.1767689
-5.350543	condensed	-0.1774437
-4.873421	condescend	-0.4921372
-5.350543	condescends	-0.1659124
-4.873421	condiments	-0.1452884
-3.678445	condition	-0.3599888
-5.350543	conditional	-0.1772828
-4.049512	conditions	-0.4561288
-5.049512	conduce	-0.3420951
-5.350543	conduces	-0.1659124
-4.873421	conducive	-0.4921372
-4.505445	conduct	-0.136173
-4.873421	conducted	-0.1396708
-5.049512	conducting	-0.3536283
-5.350543	conductor	-0.1659124
-5.350543	confectionary	-0.1600632
-5.350543	confectioners	-0.1587706
-5.350543	confections	-0.1587706
-4.873421	confer	-0.1756555
-5.049512	conferring	-0.1756088
-5.350543	confers	-0.1698856
-4.873421	confess	-0.1595063
-4.873421	confession	-0.2663562
-4.748483	confidence	-0.1561188
-4.748483	confident	-0.2354445
-5.049512	confidently	-0.1571474
-5.350543	confiding	-0.168873
-5.350543	confine	-0.146865
-4.146423	confined	-1.367368
-5.350543	confines	-0.174937
-5.049512	confirmation	-0.3333443
-4.748483	confirmed	-0.6713254
-5.350543	confirms	-0.175566
-5.350543	confiscate	-0.1587706
-5.350543	confiscation	-0.173203
-4.651573	conflict	-0.3008052
-5.350543	conflicting	-0.1774359
-5.350543	conflicts	-0.1774476
-4.447453	conform	-0.3925601
-5.049512	conformed	-0.1587929
-5.350543	conformity	-0.1753967
-5.049512	confound	-0.1754453
-5.049512	confounded	-0.3515793
-5.350543	confounding	-0.146865
-5.350543	confronted	-0.1753967
-4.651573	confuse	-0.1348824
-4.271361	confused	-0.2235904
-4.146423	confusion	-0.1862244
-5.049512	congenial	-0.1586634
-5.350543	congregate	-0.1773797
-4.651573	conjecture	-0.1897917
-5.350543	conjoined	-0.1712046
-5.350543	conjugates	-0.1587706
-5.350543	conjure	-0.174744
-5.350543	conjuring	-0.1587706
-4.505445	connect	-0.3560097
-4.350543	connected	-0.5524618
-4.873421	connecting	-0.2866481
-4.447453	connection	-0.3371425
-5.049512	connections	-0.1638482
-5.350543	connects	-0.1750013
-4.3963	connexion	-0.3487123
-5.350543	connexions	-0.1774534
-5.350543	connoisseurs	-0.1571616
-5.350543	connotation	-0.1571616
-5.350543	conquer	-0.1600632
-5.049512	conquered	-0.1550573
-5.350543	conquering	-0.1587706
-5.350543	conqueror	-0.1774631
-5.049512	conquerors	-0.1653311
-5.350543	conquest	-0.173203
-5.350543	conquests	-0.1587706
-4.873421	conscience	-0.1385894
-4.350543	conscious	-0.5036336
-5.350543	consciously	-0.168873
-4.651573	consciousness	-0.2850009
-5.350543	consecrate	-0.1716309
-5.350543	consecrated	-0.1600632
-4.748483	consent	-0.1307877
-5.350543	consented	-0.1659124
-4.174451	consequence	-0.5100896
-4.447453	consequences	-0.1880526
-5.049512	consequently	-0.1774262
-5.350543	conservative	-0.1600632
-3.458448	consider	-0.4147253
-4.350543	considerable	-0.2202361
-5.350543	considerably	-0.1774476
-5.350543	considerate	-0.1587706
-4.505445	consideration	-0.43477
-4.873421	considerations	-0.1449565
-3.935569	considered	-0.2286082
-4.572392	considering	-0.2490387
-4.572392	considers	-0.2004949
-4.748483	consist	-0.1294762
-5.350543	consisted	-0.168873
-4.748483	consistency	-0.1272156
-4.271361	consistent	-0.4318404
-4.748483	consisting	-0.6536163
-4.447453	consists	-0.4828191
-5.350543	consolation	-0.1739927
-5.350543	consoled	-0.1587706
-5.049512	consonances	-0.3487218
-5.350543	consort	-0.1753967
-5.350543	consorted	-0.1753967
-5.350543	consorts	-0.1753967
-5.350543	conspicuous	-0.1774456
-5.350543	conspiracy	-0.1571616
-4.873421	conspire	-0.2748584
-5.049512	conspired	-0.1656617
-5.350543	conspiring	-0.1772208
-5.350543	constancy	-0.1571616
-4.651573	constant	-0.1587382
-4.748483	constantly	-0.1658806
-4.873421	constitute	-0.1373863
-4.651573	constituted	-0.1642478
-5.049512	constitutes	-0.3535469
-3.717074	constitution	-0.3272821
-5.049512	constitutional	-0.3523029
-4.30915	constitutions	-0.1602853
-5.049512	constrained	-0.174024
-5.049512	constraining	-0.1633821
-4.873421	construct	-0.2541302
-4.3963	constructed	-0.121457
-4.447453	construction	-0.305838
-5.350543	constructions	-0.1587706
-4.748483	constructive	-0.1750831
-5.350543	constructs	-0.146865
-4.873421	consult	-0.1737603
-5.350543	consulting	-0.146865
-5.049512	consume	-0.1738032
-5.049512	consummate	-0.1770793
-5.049512	consummation	-0.1250416
-4.873421	consumption	-0.1532644
-4.505445	contain	-0.2011234
-4.236599	contained	-1.140212
-4.651573	containing	-0.3042441
-4.447453	contains	-0.2129211
-5.350543	contamination	-0.1571616
-5.350543	contemns	-0.1587706
-4.505445	contemplate	-0.1635997
-5.350543	contemplated	-0.1748707
-5.049512	contemplates	-0.1423259
-5.350543	contemplating	-0.146865
-4.049512	contemplation	-1.105356
-5.350543	contemplations	-0.1659124
-4.236599	contemporaries	-0.2230161
-4.748483	contemporary	-0.1774088
-4.651573	contempt	-0.1226082
-5.350543	contemptible	-0.1587706
-5.049512	contemptuous	-0.1577702
-4.873421	contending	-0.1574214
-5.350543	contends	-0.1716309
-4.350543	content	-0.2331931
-4.505445	contented	-0.1688106
-4.447453	contention	-0.2235281
-4.748483	contentious	-0.2321194
-5.350543	contentiousness	-0.1587706
-5.350543	contents	-0.1571616
-4.30915	contest	-0.1646604
-4.873421	contests	-0.1592416
-4.873421	contingent	-0.2850156
-4.873421	continually	-0.1581431
-5.350543	continuance	-0.1571616
-5.350543	continuation	-0.1571616
-4.09527	continue	-0.6883677
-4.572392	continued	-0.2182344
-5.049512	continues	-0.3420951
-4.748483	continuing	-0.1371078
-4.572392	continuous	-0.158542
-5.350543	continuously	-0.168873
-5.350543	contracted	-0.1774282
-5.350543	contractors	-0.1766951
-4.3963	contracts	-0.1823939
-5.350543	contradict	-0.1587706
-5.350543	contradicted	-0.1770153
-5.049512	contradicting	-0.1563772
-4.146423	contradiction	-0.227837
-5.350543	contradictions	-0.1725392
-4.748483	contradictory	-0.1586674
-5.350543	contraries	-0.146865
-4.09527	contrary	-0.261362
-4.30915	contrast	-0.1519609
-4.873421	contrasted	-0.1438484
-4.748483	contrasting	-0.1465821
-4.873421	contrasts	-0.2641907
-5.350543	contribute	-0.175457
-5.350543	contributed	-0.1771219
-5.049512	contributes	-0.1581998
-5.049512	contribution	-0.1635582
-5.350543	contrivances	-0.1587706
-4.748483	contrive	-0.2367508
-5.049512	contrived	-0.1480318
-5.350543	contriving	-0.1774359
-4.00812	control	-0.1742173
-4.651573	controlled	-0.3199905
-5.350543	controlling	-0.1571616
-5.350543	controls	-0.1770133
-5.350543	controversial	-0.1774379
-4.873421	controversy	-0.1363332
-5.350543	convenance	-0.1774088
-5.350543	convenience	-0.1571616
-5.049512	conveniences	-0.3333443
-5.350543	convenient	-0.1751727
-5.049512	conveniently	-0.1757644
-5.350543	convent	-0.1698856
-5.350543	convention	-0.1765942
-4.651573	conventional	-0.2358933
-4.271361	conversation	-0.1935284
-4.350543	converse	-0.3578393
-5.350543	conversed	-0.146865
-4.651573	conversely	-0.3148242
-4.873421	conversing	-0.2816516
-4.447453	conversion	-0.1773706
-5.049512	convert	-0.1748493
-4.447453	converted	-0.3920582
-5.049512	converting	-0.1267738
-4.873421	converts	-0.5028442
-5.350543	convex	-0.1774437
-5.350543	convey	-0.1659124
-4.748483	conveyed	-0.1570783
-5.350543	conveys	-0.1762077
-5.049512	convict	-0.1722648
-4.572392	conviction	-0.260239
-5.350543	convictions	-0.1751727
-4.3963	convince	-0.2040824
-4.174451	convinced	-0.3585209
-4.748483	convincing	-0.1389007
-5.350543	convivial	-0.1774204
-5.049512	convulsions	-0.1581269
-5.350543	convulsively	-0.1600632
-4.873421	cookery	-0.2497838
-5.049512	cooks	-0.1587666
-5.350543	coolness	-0.1587706
-5.350543	cope	-0.1753967
-5.350543	copies	-0.1600632
-5.049512	coping	-0.3536341
-5.350543	copper	-0.1587706
-4.572392	copy	-0.1007798
-5.350543	cordial	-0.173203
-5.049512	corinth	-0.1600612
-4.873421	corinthian	-0.1774573
-4.651573	corn	-0.3061042
-4.873421	corner	-0.4833863
-5.350543	corners	-0.1587706
-5.350543	corporate	-0.1753967
-5.350543	corporation	-0.1659124
-5.350543	corpse	-0.1587706
-4.3963	correct	-0.1689343
-5.049512	corrected	-0.1405872
-5.350543	correcting	-0.1750013
-5.049512	correction	-0.1540933
-5.350543	corrections	-0.1571616
-5.350543	corrective	-0.1571616
-5.350543	correctly	-0.1683945
-5.350543	correctors	-0.1730268
-4.572392	correlation	-0.4902656
-5.049512	correlative	-0.1570784
-4.873421	correlatives	-0.1737036
-4.30915	correspond	-0.3080118
-5.350543	corresponded	-0.1659124
-4.028323	corresponding	-0.3257692
-4.651573	corresponds	-0.6438838
-4.447453	corrupt	-0.1516307
-4.30915	corrupted	-0.4772936
-4.873421	corrupters	-0.4833863
-4.651573	corrupting	-0.2086833
-5.350543	corruptio	-0.1774631
-4.00812	corruption	-0.4698242
-4.873421	corruptions	-0.2481059
-5.350543	corruptors	-0.1712046
-5.049512	corrupts	-0.3230476
-5.049512	cost	-0.1579101
-5.049512	costly	-0.137552
-4.873421	couches	-0.2661979
-5.350543	coughed	-0.1766699
-3.321159	could	-0.4365502
-5.049512	council	-0.1389092
-4.236599	counsel	-0.2000405
-5.350543	counselling	-0.1587706
-4.748483	counsellor	-0.1179491
-4.873421	counsellors	-0.1366803
-4.447453	counsels	-0.2281147
-4.3963	count	-0.1799207
-4.873421	counted	-0.144064
-5.350543	counteracting	-0.1773856
-5.350543	counterbalanced	-0.1748707
-4.873421	counterpart	-0.2573508
-5.350543	counters	-0.1587706
-5.350543	counteth	-0.1716309
-5.350543	counting	-0.174937
-5.350543	countless	-0.1773759
-4.204414	countries	-0.1532094
-3.759478	country	-0.188139
-5.350543	countrymen	-0.1725392
-3.634539	courage	-0.3728572
-4.236599	courageous	-0.1279874
-5.350543	courageously	-0.1774631
-3.587115	course	-0.6464249
-5.350543	courses	-0.1600632
-5.350543	coursing	-0.175457
-4.651573	court	-0.1969024
-5.350543	courteous	-0.1659124
-5.350543	courtesans	-0.1587706
-5.350543	courtezan	-0.1600632
-5.049512	courtezans	-0.1536268
-5.350543	courtier	-0.1755232
-4.3963	courts	-0.2790307
-5.350543	cousin	-0.1571616
-5.350543	covenants	-0.1587706
-4.572392	cover	-0.2620122
-5.049512	covered	-0.1728565
-5.350543	covering	-0.1587706
-4.505445	covetous	-0.1902065
-5.350543	covetousness	-0.1600632
-4.873421	coward	-0.1379575
-4.505445	cowardice	-0.2614786
-4.651573	cowardly	-0.1961385
-4.651573	cowards	-0.1328732
-4.873421	craft	-0.1577682
-5.049512	crafts	-0.3362459
-4.873421	craftsmen	-0.1516883
-5.049512	crafty	-0.17731
-5.350543	cram	-0.1773487
-5.350543	crave	-0.1771277
-5.350543	creaking	-0.1571616
-4.3963	create	-0.1977873
-4.447453	created	-0.2374693
-4.651573	creates	-0.2225034
-5.049512	creating	-0.1685943
-4.09527	creation	-0.4957188
-4.447453	creations	-0.3501612
-4.505445	creative	-0.2496505
-4.3963	creator	-0.3202789
-4.204414	creature	-0.2248239
-4.748483	creatures	-0.1540891
-5.350543	creches	-0.1571616
-5.049512	credibility	-0.157677
-5.350543	credible	-0.1774573
-5.350543	creditable	-0.1600632
-5.350543	creed	-0.1571616
-5.049512	creep	-0.1755057
-5.049512	creophylus	-0.1455554
-5.350543	crept	-0.1766194
-5.350543	crest	-0.1571616
-5.049512	cretan	-0.1773953
-5.049512	cretans	-0.1579182
-5.350543	crete	-0.1587706
-5.350543	cretic	-0.1774262
-4.748483	crew	-0.1553407
-5.049512	cries	-0.137552
-4.447453	crime	-0.1891438
-4.447453	crimes	-0.2012206
-4.651573	criminal	-0.1176936
-4.651573	criminals	-0.1382481
-4.873421	crises	-0.1295109
-5.049512	crisis	-0.1571494
-4.3963	criterion	-0.3363195
-4.651573	critias	-0.1386678
-5.350543	critical	-0.1774243
-5.350543	criticise	-0.1774534
-5.350543	criticised	-0.174937
-4.447453	criticism	-0.1282237
-5.049512	criticisms	-0.1554997
-5.350543	critics	-0.1742036
-5.049512	croesus	-0.1440807
-5.350543	cromwell	-0.1683945
-5.049512	cronus	-0.1587686
-4.572392	crooked	-0.1570682
-5.350543	crookedness	-0.1571616
-5.350543	cross	-0.1774553
-5.350543	crotchets	-0.173203
-5.350543	crow	-0.1765165
-4.748483	crowd	-0.2268679
-5.049512	crowded	-0.1756808
-5.350543	crowding	-0.168873
-4.651573	crown	-0.1484649
-4.447453	crowned	-0.2220119
-5.350543	crowning	-0.1750013
-5.350543	crowns	-0.1571616
-5.350543	crucified	-0.1587706
-5.350543	crude	-0.1774611
-5.350543	crudest	-0.1774631
-4.748483	cruel	-0.1718508
-5.049512	cruelty	-0.3450556
-4.748483	crushed	-0.1520294
-4.748483	cry	-0.2362352
-4.873421	crying	-0.2843655
-4.204414	cube	-0.625484
-4.30915	cubed	-0.2409153
-4.572392	cubes	-0.395052
-5.350543	cubing	-0.1774456
-5.350543	cubits	-0.1774185
-4.572392	cultivated	-0.2474384
-5.049512	cultivates	-0.1460347
-5.350543	cultivating	-0.146865
-4.572392	cultivation	-0.4145624
-4.572392	culture	-0.1831609
-5.049512	cunning	-0.1497968
-4.873421	cup	-0.1571575
-5.049512	cups	-0.1492968
-4.120094	cure	-0.23915
-4.447453	cured	-0.2948363
-5.350543	cures	-0.1753967
-4.873421	curiosity	-0.1594659
-4.350543	curious	-0.1496774
-4.748483	curiously	-0.1756185
-5.350543	current	-0.1772228
-5.350543	curriculum	-0.1571616
-5.350543	curriers	-0.1587706
-5.049512	curse	-0.1667751
-5.049512	cursed	-0.1753889
-5.350543	cursing	-0.1571616
-5.350543	curtail	-0.1748707
-5.049512	cushioned	-0.1774573
-4.350543	custom	-0.2186967
-4.572392	customary	-0.1688019
-4.505445	customs	-0.1775288
-4.30915	cut	-0.3534629
-5.350543	cutpurses	-0.1600632
-4.748483	cutting	-0.2560371
-4.572392	cycle	-0.1036667
-5.049512	cycles	-0.1526945
-4.873421	cyclical	-0.503399
-4.873421	cylinder	-0.1689224
-5.350543	cynic	-0.1698856
-5.350543	cynics	-0.177434
-5.049512	dactylic	-0.1731991
-5.049512	daedalus	-0.3493856
-5.350543	daemonium	-0.173203
-5.350543	dagger	-0.173203
-4.651573	daily	-0.3421659
-5.350543	dainties	-0.1587706
-5.049512	dainty	-0.3349532
-5.350543	dally	-0.1766912
-5.350543	damaged	-0.1748707
-5.350543	damaging	-0.1659124
-4.505445	damon	-0.1410615
-5.049512	damsel	-0.3517058
-5.350543	dance	-0.1773352
-5.350543	danced	-0.168873
-5.049512	dancers	-0.1774573
-5.350543	dances	-0.1571616
-3.806475	danger	-0.2644089
-4.3963	dangerous	-0.1220517
-4.236599	dangers	-0.2679986
-4.651573	dante	-0.2069174
-4.146423	dare	-0.8409577
-5.049512	daring	-0.15992
-4.204414	dark	-0.2848701
-4.748483	darkened	-0.1517684
-5.049512	darker	-0.3526895
-4.873421	darkly	-0.1365121
-4.174451	darkness	-0.337222
-5.350543	darter	-0.1769183
-5.350543	dash	-0.1772751
-5.350543	data	-0.1732362
-4.873421	date	-0.1387419
-4.873421	dates	-0.1479903
-5.350543	dating	-0.1759589
-4.146423	daughter	-0.3708546
-4.572392	daughters	-0.3417278
-4.873421	dawn	-0.1558725
-5.350543	dawned	-0.1771122
-3.524468	day	-0.2242198
-5.350543	daylight	-0.1571616
-3.888145	days	-0.4080642
-4.651573	dazzled	-0.2890464
-4.572392	de	-0.2286288
-3.970331	dead	-0.259944
-5.049512	deaf	-0.1508548
-4.071789	deal	-0.3337649
-4.873421	dealing	-0.1565704
-4.505445	dealings	-0.0963513
-3.873421	dear	-0.5926729
-5.350543	dearer	-0.1765068
-5.049512	dearest	-0.3333443
-3.579691	death	-0.3674083
-5.350543	deaths	-0.173203
-5.350543	debated	-0.1774592
-4.236599	debt	-0.3241604
-5.350543	debtors	-0.1587706
-4.3963	debts	-0.2477352
-4.3963	decay	-0.2728598
-4.873421	deceit	-0.1599241
-5.350543	deceitful	-0.1773953
-4.3963	deceive	-0.1878079
-4.236599	deceived	-0.2113316
-5.049512	deceiver	-0.1765126
-4.873421	deceives	-0.2806214
-4.651573	deceiving	-0.2257682
-5.049512	decency	-0.1645054
-4.572392	deception	-0.1779057
-4.572392	decide	-0.163262
-4.447453	decided	-0.2391599
-5.350543	decides	-0.1716309
-4.505445	decision	-0.1549083
-5.350543	decisive	-0.1571616
-5.350543	decked	-0.1769842
-5.350543	declaration	-0.1716309
-4.505445	declare	-0.3339519
-5.350543	declared	-0.1659124
-4.748483	declares	-0.3905365
-4.572392	declaring	-0.5126337
-4.236599	decline	-0.2329091
-5.049512	declined	-0.3420951
-5.049512	declines	-0.1452487
-4.651573	declining	-0.1675192
-5.350543	decomposition	-0.173203
-5.350543	decreased	-0.168873
-5.350543	decreasing	-0.1732362
-5.049512	dedicate	-0.1771646
-4.748483	dedicated	-0.3845113
-5.350543	dedication	-0.1659124
-5.049512	deduction	-0.1557137
-4.350543	deed	-0.1082351
-4.350543	deeds	-0.2284095
-4.350543	deem	-0.1980886
-4.049512	deemed	-0.2334003
-5.350543	deeming	-0.146865
-4.873421	deems	-0.1654386
-4.505445	deep	-0.1967924
-5.350543	deepen	-0.146865
-4.572392	deeper	-0.2660659
-4.447453	deeply	-0.1596807
-5.350543	defeat	-0.1587706
-5.350543	defeated	-0.1725392
-5.350543	defeats	-0.1757703
-4.350543	defect	-0.2525652
-4.873421	defective	-0.2750833
-4.572392	defects	-0.3379917
-4.146423	defence	-0.2838786
-4.350543	defend	-0.2444016
-5.350543	defendant	-0.1745373
-4.651573	defenders	-0.1984347
-5.049512	defending	-0.1747518
-5.049512	defer	-0.3230476
-5.350543	deferred	-0.1600632
-5.350543	deficiencies	-0.1587706
-4.873421	deficiency	-0.1537333
-4.651573	deficient	-0.5104564
-5.350543	defiled	-0.1600632
-4.447453	define	-0.1831061
-4.271361	defined	-0.3491635
-5.049512	defines	-0.1267738
-5.049512	defining	-0.1461097
-4.447453	definite	-0.2727497
-5.049512	definitely	-0.1774359
-4.873421	definiteness	-0.1614927
-4.174451	definition	-0.6192675
-5.049512	definitions	-0.3333443
-5.350543	defoe	-0.1771859
-5.049512	deformed	-0.1740806
-4.572392	deformity	-0.1796724
-4.748483	defraud	-0.1473678
-5.350543	defrauded	-0.1748707
-5.350543	defy	-0.1773507
-5.049512	degeneracy	-0.1569585
-5.049512	degenerate	-0.1591831
-5.350543	degenerated	-0.168873
-4.873421	degenerates	-0.1312255
-4.873421	degradation	-0.254245
-5.350543	degrade	-0.146865
-4.651573	degraded	-0.1427983
-5.350543	degrading	-0.146865
-3.61018	degree	-0.3101522
-4.236599	degrees	-0.366599
-5.350543	dei	-0.1725392
-5.350543	deify	-0.1745822
-5.049512	deign	-0.3420951
-4.572392	deities	-0.1874063
-4.873421	deity	-0.1541648
-5.350543	delayed	-0.174744
-5.350543	deliberate	-0.1587706
-5.350543	deliberately	-0.1774573
-5.350543	delicacies	-0.1742036
-5.049512	delicacy	-0.1519986
-5.350543	delicate	-0.1773856
-4.3963	delight	-0.3008449
-4.3963	delighted	-0.2178614
-4.873421	delightful	-0.1582687
-5.049512	delighting	-0.1570865
-4.572392	delights	-0.1606927
-5.049512	delineate	-0.175422
-4.748483	delineated	-0.227635
-4.873421	delineation	-0.2481059
-5.350543	deliver	-0.1659124
-4.873421	delivered	-0.2663948
-5.350543	delivering	-0.1770153
-4.873421	delphi	-0.1728761
-5.350543	delphian	-0.1772053
-5.350543	deluded	-0.1766194
-5.350543	deluding	-0.1766117
-5.350543	deluge	-0.1587706
-5.049512	deluged	-0.1457242
-5.350543	deluges	-0.1587706
-4.873421	delusion	-0.1555262
-5.350543	demagogues	-0.1774127
-4.30915	demand	-0.1596632
-5.049512	demanded	-0.1480318
-5.049512	demanding	-0.1468338
-4.505445	demands	-0.1328205
-4.873421	demigods	-0.2649103
-4.651573	democracies	-0.1372864
-3.572391	democracy	-0.1903596
-4.505445	democrat	-0.2242247
-4.30915	democratic	-0.3303929
-4.271361	democratical	-0.2584133
-5.350543	democrats	-0.1757022
-5.350543	demolished	-0.1774437
-5.350543	demonic	-0.1774514
-5.350543	demonstrate	-0.1716309
-5.350543	demonstrated	-0.1748707
-5.350543	demonstration	-0.1600632
-5.350543	demonstrative	-0.1587706
-5.049512	demus	-0.1587423
-3.988815	den	-0.2802566
-5.350543	denaturalized	-0.1587706
-5.350543	denial	-0.1571616
-4.447453	denied	-0.2706177
-4.873421	denies	-0.1696648
-5.049512	denote	-0.3230476
-4.748483	denoted	-0.3764233
-5.049512	denounced	-0.1442209
-5.350543	denounces	-0.146865
-3.970331	deny	-0.6413238
-5.049512	denying	-0.1713304
-4.350543	depart	-0.2700176
-5.049512	departed	-0.1686813
-4.873421	departing	-0.1754492
-5.350543	department	-0.1571616
-4.873421	departments	-0.4833863
-5.049512	departs	-0.1480318
-4.873421	departure	-0.1576121
-4.505445	depend	-0.5912268
-5.350543	depended	-0.1771122
-4.572392	dependent	-0.5377882
-4.748483	depends	-0.1720725
-5.049512	depict	-0.1731873
-4.873421	depicted	-0.1687485
-5.049512	deportment	-0.1543202
-4.505445	deposit	-0.2331535
-5.350543	deposited	-0.1774224
-5.350543	depraved	-0.1746933
-5.350543	depreciate	-0.175457
-5.350543	depreciated	-0.1587706
-5.049512	depreciates	-0.1468546
-4.873421	depreciating	-0.1685883
-5.350543	depress	-0.146865
-5.350543	depressing	-0.1771782
-5.049512	deprivation	-0.1571494
-5.350543	deprive	-0.146865
-4.271361	deprived	-1.09364
-5.350543	deprives	-0.1698856
-5.350543	depriving	-0.146865
-4.651573	depth	-0.2119625
-5.049512	deranged	-0.1560619
-5.350543	derided	-0.1587706
-4.651573	derive	-0.165339
-4.028323	derived	-0.7754759
-4.873421	derives	-0.2775496
-5.350543	deriving	-0.146865
-5.350543	descartes	-0.1774631
-4.350543	descend	-0.2286486
-5.350543	descendant	-0.1774011
-4.748483	descendants	-0.2180486
-5.350543	descended	-0.1766194
-4.748483	descending	-0.2378994
-4.748483	descends	-0.1647249
-4.748483	descent	-0.2349803
-3.970331	describe	-0.3303064
-3.587115	described	-0.5262725
-4.30915	describes	-0.1591299
-3.782341	describing	-0.1152899
-3.988815	description	-0.7700491
-5.049512	descriptions	-0.1702798
-4.873421	descriptive	-0.2678722
-5.350543	desert	-0.1750013
-5.049512	deserted	-0.1748649
-5.350543	deserters	-0.1769551
-5.049512	deserting	-0.3529438
-4.651573	deserve	-0.2916021
-5.350543	deserved	-0.1659124
-5.350543	deservedly	-0.1774611
-5.049512	deserving	-0.3333443
-5.350543	desideratum	-0.1600632
-4.30915	design	-0.2229936
-5.350543	designate	-0.1761222
-5.350543	designated	-0.1774437
-5.049512	designates	-0.1433645
-5.350543	designation	-0.1600632
-4.350543	designed	-0.4517238
-5.350543	designs	-0.1742036
-4.30915	desirable	-0.3839503
-5.350543	desirableness	-0.1571616
-3.401153	desire	-0.3765284
-4.271361	desired	-0.2014336
-3.426263	desires	-0.2357813
-5.350543	desiring	-0.1772867
-4.505445	desirous	-0.509839
-5.049512	desolate	-0.1579101
-5.049512	despair	-0.3362459
-4.505445	despise	-0.1673028
-4.748483	despised	-0.2287005
-5.049512	despises	-0.177372
-5.350543	despising	-0.146865
-5.049512	despoil	-0.1545796
-5.350543	despoiled	-0.1600632
-5.350543	despoiling	-0.176196
-5.350543	despotism	-0.168873
-5.350543	dessert	-0.1746933
-5.350543	destination	-0.1571616
-5.049512	destined	-0.3420951
-5.350543	destinies	-0.173203
-4.572392	destiny	-0.1843555
-4.873421	destitute	-0.2481059
-5.350543	destitutes	-0.1768484
-3.970331	destroy	-0.5205303
-4.120094	destroyed	-0.4424643
-5.350543	destroyers	-0.1571616
-4.651573	destroying	-0.2789001
-5.049512	destroys	-0.1267738
-4.3963	destruction	-0.3763024
-5.350543	destructions	-0.1571616
-5.350543	destructive	-0.1571616
-4.748483	detail	-0.2214974
-5.350543	detailing	-0.1758772
-4.651573	details	-0.2119852
-5.350543	detain	-0.146865
-4.651573	detained	-0.5168022
-5.350543	detaining	-0.1770967
-5.350543	detect	-0.1698856
-4.505445	detected	-0.1989772
-5.350543	detective	-0.1683945
-5.350543	deteriorate	-0.1600632
-4.651573	deteriorated	-0.2796798
-5.350543	deteriorates	-0.1600632
-5.350543	deterioration	-0.1571616
-4.873421	determination	-0.2572285
-4.174451	determine	-0.312528
-4.00812	determined	-0.3594471
-5.350543	determines	-0.1758772
-4.748483	determining	-0.1416363
-5.350543	deterred	-0.1748707
-5.350543	detest	-0.1600632
-5.049512	detestable	-0.1574315
-5.049512	detestation	-0.137552
-5.350543	detract	-0.1759589
-5.350543	detraction	-0.1600632
-5.049512	devastate	-0.1468192
-5.049512	devastation	-0.3333443
-5.049512	develop	-0.16862
-4.651573	develope	-0.1332766
-4.651573	developed	-0.1520746
-4.873421	developes	-0.2551543
-5.049512	developing	-0.1441518
-4.3963	development	-0.2313205
-5.350543	developments	-0.1571616
-5.049512	deviation	-0.1701044
-4.748483	device	-0.6536163
-5.350543	devices	-0.1774631
-5.049512	devise	-0.174974
-5.350543	devised	-0.1748707
-5.049512	devising	-0.1749974
-4.651573	devoid	-0.6351329
-4.651573	devote	-0.1447602
-4.505445	devoted	-0.3795483
-5.350543	devotes	-0.1770153
-4.651573	devotion	-0.3013046
-4.651573	devour	-0.3070416
-5.350543	dexterity	-0.1571616
-3.782341	dialectic	-0.2957248
-4.3963	dialectical	-0.3162813
-4.505445	dialectician	-0.2360447
-4.204414	dialogue	-0.2633858
-4.071789	dialogues	-0.3815114
-4.651573	diameter	-0.4794873
-4.651573	diameters	-0.1996473
-5.350543	diamonds	-0.1587706
-4.873421	dicast	-0.1693115
-5.049512	dice	-0.1702916
-5.350543	dictate	-0.1600632
-3.416044	did	-0.4363839
-4.236599	die	-0.2095997
-4.873421	died	-0.148152
-4.651573	dies	-0.1933993
-4.651573	diet	-0.1236556
-5.350543	dietetics	-0.1587706
-5.350543	dieting	-0.1571616
-4.146423	differ	-0.4144688
-3.499284	difference	-0.668163
-4.120094	differences	-0.3622079
-3.368271	different	-0.3597268
-4.748483	differently	-0.1581998
-5.049512	differing	-0.1756068
-4.505445	differs	-0.5321274
-4.049512	difficult	-0.2347241
-4.350543	difficulties	-0.162379
-5.350543	difficultly	-0.1587706
-3.48722	difficulty	-0.5253795
-4.873421	diffused	-0.2779333
-5.350543	dig	-0.1751727
-5.049512	digits	-0.1725255
-5.350543	dignities	-0.1571616
-4.505445	dignity	-0.3382933
-4.873421	digressed	-0.1342323
-4.873421	digression	-0.166936
-5.350543	digressions	-0.1774398
-5.350543	dilate	-0.1587706
-5.049512	diligent	-0.1687188
-4.873421	diligently	-0.1386678
-5.049512	dimension	-0.1415774
-5.350543	dimensions	-0.1571616
-4.748483	diminish	-0.1344655
-5.049512	diminished	-0.3510534
-5.049512	diminishing	-0.3230476
-5.350543	diminutives	-0.1587706
-5.049512	dimly	-0.1497968
-5.350543	dimmed	-0.1683945
-5.350543	dimmer	-0.168873
-5.350543	dine	-0.177372
-5.350543	diner	-0.173203
-5.350543	dining	-0.1774514
-5.350543	dinners	-0.1587706
-5.049512	dinning	-0.3450556
-5.049512	diomede	-0.1656776
-5.049512	dionysiac	-0.353636
-4.873421	dionysius	-0.1465863
-5.350543	dire	-0.1774611
-5.350543	direct	-0.1774166
-4.236599	directed	-0.3808105
-4.120094	direction	-0.2180828
-5.049512	directions	-0.165797
-4.748483	directly	-0.1615209
-5.350543	directness	-0.1571616
-4.748483	director	-0.2171753
-5.049512	directs	-0.1442209
-5.350543	dirt	-0.1774398
-5.350543	disabused	-0.1571616
-5.049512	disagree	-0.1598111
-5.049512	disagreeable	-0.3349532
-5.049512	disagreeing	-0.1738833
-5.350543	disagreement	-0.1768349
-4.873421	disappear	-0.148181
-5.049512	disappearance	-0.3333443
-4.572392	disappeared	-0.5023756
-5.350543	disappointed	-0.1659124
-5.350543	disappointing	-0.1600632
-5.049512	disappointment	-0.1389092
-5.350543	disapprover	-0.1683945
-5.350543	disarmed	-0.1761222
-5.350543	disarrange	-0.146865
-5.049512	disaster	-0.1564057
-5.350543	disbelief	-0.168873
-5.350543	disbelieve	-0.1766233
-5.350543	discard	-0.175457
-5.350543	discarded	-0.1600632
-4.651573	discern	-0.3104213
-5.049512	discerned	-0.1685013
-5.049512	discernible	-0.1511163
-5.049512	discerning	-0.175124
-4.748483	discernment	-0.6536163
-5.350543	discerns	-0.174937
-4.572392	disciple	-0.4197823
-4.204414	disciples	-0.3534629
-4.505445	discipline	-0.1463127
-5.049512	disciplined	-0.1645254
-5.350543	discomposed	-0.1751727
-5.350543	discontent	-0.1600632
-5.350543	discontented	-0.1759492
-5.350543	discontents	-0.1571616
-4.174451	discord	-0.3371453
-4.873421	discordant	-0.2865474
-5.350543	discountenanced	-0.146865
-5.350543	discouraging	-0.1600632
-4.350543	discourse	-0.1613787
-5.350543	discoursed	-0.1753967
-5.049512	discourses	-0.1570154
-5.350543	discourtesy	-0.1769416
-4.174451	discover	-0.1956625
-3.888145	discovered	-0.1539628
-4.873421	discoveries	-0.1528853
-5.350543	discovering	-0.1750013
-4.30915	discovery	-0.3275781
-5.350543	discredit	-0.1600632
-5.049512	discreditable	-0.1600531
-5.350543	discrepancies	-0.1571616
-4.873421	discretion	-0.1358793
-4.651573	discuss	-0.1401102
-4.236599	discussed	-0.2219423
-5.049512	discussing	-0.1598111
-3.935569	discussion	-0.1424649
-4.505445	discussions	-0.2812161
-5.350543	disdain	-0.1766136
-3.819064	disease	-0.2481613
-4.748483	diseased	-0.2121833
-4.071789	diseases	-0.1977655
-5.350543	disenchanted	-0.1761222
-4.873421	disengaged	-0.5021836
-5.350543	disengaging	-0.173203
-5.350543	disentangle	-0.146865
-4.873421	disfigured	-0.2839621
-4.3963	disgrace	-0.2157942
-4.572392	disgraceful	-0.3434157
-5.049512	disguise	-0.3333443
-5.350543	disguised	-0.168873
-5.350543	disguises	-0.1757761
-5.049512	disgusted	-0.3519529
-5.350543	dish	-0.1725392
-5.350543	dishonest	-0.1771006
-5.350543	dishonestly	-0.1742036
-4.651573	dishonesty	-0.1256947
-4.447453	dishonour	-0.1828088
-4.873421	dishonourable	-0.2648228
-4.873421	dishonoured	-0.2665592
-5.049512	dishonours	-0.3532503
-5.350543	disinclined	-0.1659124
-4.748483	disinterested	-0.1450191
-5.049512	disinterestedness	-0.1597949
-4.651573	dislike	-0.2903922
-5.350543	disliked	-0.1587706
-4.748483	dislikes	-0.1554569
-4.873421	dismissed	-0.2662121
-5.350543	disobedience	-0.1571616
-5.350543	disobey	-0.1750013
-5.350543	disobeying	-0.176402
-4.350543	disorder	-0.2304541
-4.651573	disordered	-0.3343804
-5.350543	disorderly	-0.1774573
-4.505445	disorders	-0.1528119
-5.350543	disorganized	-0.1760444
-5.350543	disparate	-0.173203
-5.350543	dispelled	-0.146865
-5.049512	dispensation	-0.1408023
-5.049512	dispensed	-0.1738833
-5.350543	dispenser	-0.1571616
-5.350543	dispensing	-0.1698856
-5.350543	dispersed	-0.1774476
-5.049512	displayed	-0.1688236
-5.350543	displease	-0.146865
-5.350543	disposal	-0.1712046
-4.071789	disposed	-0.5229972
-4.651573	disposition	-0.1664275
-5.049512	dispositions	-0.3333443
-4.873421	disproportion	-0.2690077
-5.350543	disproportionate	-0.1773042
-5.350543	disproportionately	-0.1774301
-5.049512	disprove	-0.1442209
-5.350543	disproved	-0.1748707
-5.350543	disproven	-0.1759492
-4.572392	dispute	-0.2056528
-5.049512	disputed	-0.1597848
-5.049512	disputes	-0.1756438
-5.350543	disputing	-0.176862
-5.350543	disqualified	-0.1587706
-4.748483	disregard	-0.1222761
-4.651573	disregarded	-0.1866248
-5.350543	disregarding	-0.1769939
-5.350543	disrepute	-0.1770676
-5.350543	dissatisfaction	-0.1725392
-5.350543	dissatisfactions	-0.1587706
-4.748483	dissatisfied	-0.2514786
-5.350543	dissect	-0.176402
-4.873421	dissent	-0.2835603
-5.049512	dissimilar	-0.1768271
-5.049512	dissimilarity	-0.1405872
-5.350543	dissimilating	-0.1587706
-5.350543	dissipation	-0.1600632
-5.049512	dissolute	-0.1765088
-4.572392	dissolution	-0.1590493
-5.350543	dissolve	-0.173203
-4.748483	dissolved	-0.1204484
-5.350543	dissolves	-0.1587706
-5.350543	distaff	-0.1571616
-3.845393	distance	-0.4582476
-5.049512	distances	-0.137552
-4.447453	distant	-0.1924849
-3.888145	distinct	-0.2501758
-3.888145	distinction	-0.5640734
-4.572392	distinctions	-0.2357876
-5.350543	distinctive	-0.1772828
-4.873421	distinctly	-0.1772984
-5.049512	distinctness	-0.1572874
-4.049512	distinguish	-0.3253876
-5.350543	distinguishable	-0.1762388
-3.935569	distinguished	-0.294583
-4.651573	distinguishes	-0.1223971
-4.873421	distinguishing	-0.1738267
-5.350543	distorted	-0.1774631
-4.748483	distracted	-0.1657791
-5.350543	distracting	-0.1773894
-4.572392	distraction	-0.1842074
-5.350543	distractions	-0.1771685
-5.350543	distracts	-0.1759589
-5.350543	distress	-0.1761222
-5.049512	distribute	-0.1729818
-5.049512	distributing	-0.1773797
-5.049512	distribution	-0.3333443
-5.350543	disturb	-0.146865
-5.350543	disturbances	-0.168873
-4.748483	disturbing	-0.3534597
-5.350543	disuse	-0.1571616
-5.350543	dithyramb	-0.1774592
-5.350543	divergence	-0.1773759
-4.748483	divers	-0.1568935
-4.873421	diverse	-0.1576689
-5.350543	diversion	-0.1600632
-5.350543	diversities	-0.1571616
-5.049512	diversity	-0.3333443
-4.748483	divert	-0.3943269
-5.350543	diverted	-0.1766194
-5.049512	divested	-0.3333443
-4.505445	divide	-0.1144622
-3.988815	divided	-0.301594
-4.748483	divides	-0.135032
-5.049512	dividing	-0.15872
-5.350543	divinations	-0.173203
-3.558151	divine	-0.239409
-5.049512	divinely	-0.1774398
-4.873421	diviner	-0.1763787
-4.748483	divinity	-0.1590456
-3.717074	division	-0.3929872
-3.952603	divisions	-0.5333591
-4.748483	divisors	-0.2392427
-2.571668	do	-0.7997898
-4.748483	doctor	-0.1396391
-5.049512	doctoring	-0.1585582
-5.049512	doctors	-0.1267738
-5.350543	doctrinaire	-0.1771607
-5.350543	doctrinaires	-0.1774611
-4.09527	doctrine	-0.8428727
-4.748483	doctrines	-0.1299131
-5.350543	documents	-0.168873
-4.873421	doer	-0.2653989
-4.873421	doers	-0.1764622
-3.146423	does	-0.6909507
-3.970331	dog	-0.189513
-5.350543	dogmatic	-0.1587706
-3.919179	dogs	-0.3913136
-3.678445	doing	-0.1744906
-5.350543	doings	-0.1571616
-5.350543	dolphin	-0.173203
-4.873421	domestic	-0.1468276
-5.350543	dominican	-0.1774611
-4.873421	dominion	-0.4833863
-5.350543	dominus	-0.176095
-4.505445	don	-0.9562067
-4.873421	donaldson	-0.1403509
-3.618149	done	-0.2050623
-5.350543	doom	-0.1571616
-5.350543	door	-0.1571616
-4.748483	doors	-0.1356873
-4.572392	dorian	-0.290459
-5.350543	dormant	-0.1774611
-5.049512	dose	-0.3333443
-4.3963	double	-0.1524421
-4.873421	doubled	-0.1529857
-5.049512	doubles	-0.1659065
-3.737759	doubt	-0.43425
-4.748483	doubted	-0.2373467
-4.651573	doubtful	-0.2166657
-5.350543	doubting	-0.1716309
-4.505445	doubtless	-0.1644876
-4.748483	doubts	-0.2362758
-3.572391	down	-0.2973461
-5.350543	downfall	-0.1748707
-5.049512	downright	-0.1774398
-4.651573	downwards	-0.1190809
-4.651573	dr	-0.6380346
-5.049512	drag	-0.1745782
-4.572392	dragged	-0.2831152
-5.049512	dragging	-0.1455157
-5.350543	draggling	-0.1763534
-4.873421	drama	-0.1393769
-5.350543	dramas	-0.1766097
-4.30915	dramatic	-0.2070351
-5.350543	dramatize	-0.1756652
-4.651573	drank	-0.4361504
-5.350543	drapery	-0.173203
-4.748483	draught	-0.1772402
-4.873421	draughts	-0.146118
-3.832029	draw	-0.3656036
-4.236599	drawing	-0.1420005
-5.350543	drawling	-0.1769842
-3.952603	drawn	-0.2444459
-4.271361	draws	-0.2568387
-5.049512	dread	-0.137552
-5.350543	dreaded	-0.1750013
-4.748483	dreadful	-0.2561613
-3.888145	dream	-0.4321367
-4.873421	dreamed	-0.1053559
-5.049512	dreamer	-0.173201
-5.049512	dreamers	-0.1543549
-4.873421	dreaming	-0.1184378
-4.873421	dreams	-0.4833863
-5.350543	dregs	-0.1571616
-4.572392	dress	-0.1309754
-5.350543	dresser	-0.1600632
-5.049512	dresses	-0.1595951
-5.049512	dressing	-0.14471
-4.651573	drew	-0.2342623
-5.350543	dried	-0.1770288
-3.618149	drink	-0.3147699
-5.350543	drinker	-0.1587706
-4.071789	drinking	-0.1177467
-4.651573	drinks	-0.2843553
-4.873421	drive	-0.1731658
-5.350543	drivelling	-0.1587706
-4.30915	driven	-0.2726811
-5.049512	drives	-0.1765845
-5.049512	driving	-0.1774495
-5.350543	dronage	-0.1748707
-4.271361	drone	-0.1252349
-5.350543	dronelike	-0.1773022
-4.049512	drones	-0.1510542
-4.873421	drop	-0.1435175
-4.873421	dropped	-0.2674654
-5.350543	dropping	-0.1766194
-5.350543	drops	-0.1757703
-5.049512	dross	-0.3487218
-5.350543	drought	-0.1774631
-5.049512	drown	-0.3532212
-4.873421	drug	-0.1426934
-5.350543	drugs	-0.1587706
-4.873421	drunk	-0.1583983
-5.350543	drunkards	-0.173203
-5.049512	drunken	-0.1762291
-4.651573	drunkenness	-0.1881304
-5.350543	dry	-0.1774631
-5.350543	drying	-0.1750013
-5.350543	dualism	-0.1571616
-5.350543	dublin	-0.1762854
-4.174451	due	-0.5787681
-5.350543	dues	-0.1725392
-5.049512	dull	-0.157188
-5.049512	duller	-0.1771995
-5.350543	dullness	-0.1587706
-5.350543	dulness	-0.1571616
-4.873421	duly	-0.1773546
-5.350543	dumb	-0.1745373
-5.049512	durance	-0.1587686
-5.350543	duration	-0.1771006
-4.350543	during	-0.2738228
-5.049512	dust	-0.3349532
-5.350543	dusty	-0.1587706
-4.071789	duties	-0.2457118
-3.903385	duty	-0.2904665
-4.3963	dwell	-0.2992629
-5.350543	dwellers	-0.168873
-4.350543	dwelling	-0.1960743
-4.873421	dwellings	-0.1582181
-4.651573	dwells	-0.1638322
-4.748483	dwelt	-0.2291529
-5.350543	dwindle	-0.168873
-4.873421	dye	-0.2663502
-5.049512	dyed	-0.3450556
-5.350543	dyeing	-0.1760658
-5.049512	dyers	-0.1753071
-4.651573	dying	-0.2297566
-5.350543	dynamics	-0.1748707
-5.350543	dynasties	-0.1587706
-4.30915	e.g	-1.061779
-3.313116	each	-0.4229552
-4.447453	eager	-0.2135182
-5.350543	eagerly	-0.1587706
-5.049512	eagerness	-0.1450484
-5.049512	eagle	-0.1596839
-4.236599	ear	-0.1900061
-4.447453	earlier	-0.2460883
-4.505445	earliest	-0.3454319
-3.770759	early	-0.2737498
-4.204414	earnest	-0.1820281
-4.873421	earnestly	-0.2646964
-4.748483	earnestness	-0.2314793
-4.00812	ears	-0.1294184
-3.505445	earth	-0.3408388
-4.873421	earthborn	-0.5028363
-4.447453	earthly	-0.1772325
-4.873421	earthquake	-0.1263774
-5.350543	earthquakes	-0.1587706
-5.049512	ease	-0.137552
-4.873421	easier	-0.176831
-5.049512	easiest	-0.158291
-3.669301	easily	-0.1204363
-4.748483	east	-0.1165247
-5.350543	eastern	-0.1774631
-3.859181	easy	-0.2159586
-4.447453	eat	-0.1440974
-5.350543	eaten	-0.1770948
-5.049512	eaters	-0.1579527
-4.146423	eating	-0.8099207
-5.350543	eats	-0.1769842
-5.350543	eccentricity	-0.168873
-5.350543	ecclesiastic	-0.1745373
-5.049512	ecclesiastical	-0.1774321
-5.350543	ecclesiastics	-0.1571616
-5.350543	eccleziazusae	-0.173203
-4.748483	echo	-0.3281813
-5.350543	echoed	-0.1748707
-5.350543	ecliptic	-0.1600632
-5.049512	economic	-0.1771277
-5.049512	economies	-0.1645254
-4.873421	economy	-0.167303
-5.350543	ecstasy	-0.1571616
-5.049512	edge	-0.1538785
-5.049512	edges	-0.1762893
-5.350543	edification	-0.1571616
-5.350543	edition	-0.1571616
-4.505445	educate	-0.1075099
-3.859181	educated	-0.1999189
-4.748483	educating	-0.1404078
-3.109993	education	-0.437239
-5.350543	educations	-0.1600632
-4.748483	educator	-0.35797
-5.350543	educators	-0.1755232
-5.350543	effaced	-0.146865
-3.759478	effect	-0.2875772
-4.271361	effected	-0.5077239
-5.049512	effecting	-0.1746016
-4.572392	effects	-0.2414898
-5.049512	effeminacy	-0.1697298
-5.049512	effeminate	-0.1560619
-5.350543	efficient	-0.1587706
-5.049512	effluence	-0.1519986
-4.3963	effort	-0.284452
-4.572392	efforts	-0.2192099
-5.350543	eggs	-0.1587706
-5.350543	ego	-0.1587706
-5.350543	egotistical	-0.1571616
-4.873421	egypt	-0.1662804
-5.049512	egyptian	-0.1731991
-4.873421	egyptians	-0.1359454
-5.049512	eight	-0.1687248
-4.236599	eighth	-0.1251156
-3.100123	either	-0.3729283
-5.350543	elaborated	-0.1753967
-5.350543	elapsed	-0.1587706
-5.350543	elastic	-0.1768135
-5.350543	elasticity	-0.1571616
-4.350543	elder	-0.186144
-4.748483	elders	-0.1547572
-5.350543	eleatic	-0.1768698
-5.049512	elected	-0.1725647
-4.873421	elegiac	-0.177341
-3.737759	element	-0.401345
-4.873421	elementary	-0.1773623
-3.748483	elements	-0.5369604
-5.350543	eleusinian	-0.1774611
-4.505445	elevate	-0.125806
-4.873421	elevated	-0.145255
-4.505445	elevating	-0.2330223
-5.049512	elevation	-0.1555833
-4.873421	elicit	-0.2544454
-4.873421	elicited	-0.5021836
-5.350543	elicits	-0.1698856
-5.350543	eliminate	-0.146865
-5.350543	eliminated	-0.146865
-5.350543	eliot	-0.1770638
-5.350543	eloquent	-0.173203
-5.350543	eloquently	-0.1763534
-3.537629	else	-0.2798965
-4.271361	elsewhere	-0.1215803
-5.350543	emaciated	-0.1587706
-4.873421	emancipated	-0.1567269
-5.350543	emancipation	-0.1571616
-5.049512	embassy	-0.1658627
-5.350543	embellished	-0.1587706
-5.350543	emblazoned	-0.1763534
-4.873421	embodied	-0.4950977
-5.049512	embodies	-0.168618
-4.651573	embodiment	-0.6351329
-5.350543	embrace	-0.146865
-5.049512	embraced	-0.1560619
-5.049512	embraces	-0.1570073
-5.350543	embracing	-0.177339
-5.049512	embroidered	-0.1763495
-5.350543	embroiderer	-0.1743324
-4.873421	embroidery	-0.2663522
-5.350543	embryo	-0.1725392
-5.350543	emerge	-0.1766194
-5.350543	emetic	-0.173203
-5.350543	emigration	-0.1774553
-5.350543	eminence	-0.1571616
-4.651573	eminent	-0.1765592
-5.049512	eminently	-0.1759939
-5.049512	emotion	-0.1511163
-5.350543	emotional	-0.1771995
-4.873421	emotions	-0.1529324
-5.049512	emphatically	-0.1745587
-4.236599	empire	-0.2531159
-4.873421	empires	-0.1360733
-5.049512	empirics	-0.1752117
-4.505445	employ	-0.1592845
-4.447453	employed	-0.2300438
-4.873421	employing	-0.1288006
-4.748483	employment	-0.2120953
-4.505445	employments	-0.0951352
-5.350543	employs	-0.1773371
-5.350543	emptied	-0.1587706
-4.748483	empty	-0.2566344
-5.350543	emulating	-0.174937
-5.350543	emulous	-0.1571616
-4.350543	enable	-0.4645348
-5.049512	enabled	-0.1633821
-4.873421	enables	-0.1452132
-5.350543	enact	-0.175566
-5.049512	enacted	-0.1750519
-5.350543	enacting	-0.1716309
-5.049512	enactment	-0.1525099
-4.505445	enactments	-0.2039614
-5.350543	enamoured	-0.1571616
-5.350543	encamp	-0.1587706
-4.873421	encamped	-0.1710591
-5.049512	enchant	-0.1521711
-5.350543	enchanted	-0.1732362
-5.350543	enchanter	-0.1771549
-5.350543	enchanters	-0.1571616
-4.873421	enchantment	-0.2692398
-5.049512	enchantments	-0.1526781
-5.350543	enclosed	-0.1600632
-5.350543	enclosure	-0.168873
-5.350543	encomiasts	-0.1571616
-5.350543	encomiums	-0.1712046
-4.748483	encourage	-0.2537824
-4.651573	encouraged	-0.2663567
-5.049512	encouragement	-0.1519986
-5.049512	encourages	-0.1749116
-5.350543	encouraging	-0.146865
-3.341943	end	-0.6094593
-5.350543	endanger	-0.1773487
-5.350543	endeared	-0.1659124
-5.350543	endearment	-0.1774514
-4.748483	endeavour	-0.3828489
-5.350543	endeavouring	-0.1659124
-5.350543	endeavours	-0.1571616
-5.350543	ended	-0.17712
-4.572392	ending	-0.2138364
-4.651573	endless	-0.177184
-5.350543	endowments	-0.1732362
-4.146423	ends	-0.2937444
-5.350543	endurable	-0.1772712
-4.873421	endurance	-0.2628235
-4.30915	endure	-0.2822892
-4.651573	endured	-0.1958236
-5.350543	endures	-0.1659124
-5.350543	enduring	-0.177341
-3.572391	enemies	-0.3234034
-3.727293	enemy	-0.3187864
-5.350543	energetically	-0.174744
-5.049512	energies	-0.3333443
-4.651573	energy	-0.1377919
-5.350543	enervated	-0.1600632
-5.350543	enervating	-0.146865
-5.350543	enfeebles	-0.146865
-5.350543	enfeebling	-0.1774514
-5.049512	enforce	-0.1442209
-4.748483	enforced	-0.1605228
-5.350543	enfranchisement	-0.1571616
-5.350543	engage	-0.168873
-4.3963	engaged	-0.3458998
-4.873421	engaging	-0.1649543
-5.049512	engender	-0.1762057
-5.350543	engendered	-0.1774573
-5.049512	england	-0.1522328
-4.3963	english	-0.2609453
-5.350543	engrossing	-0.1587706
-5.350543	enigmatical	-0.1772286
-5.350543	enjoin	-0.1774631
-5.049512	enjoins	-0.1451611
-4.651573	enjoy	-0.1446473
-5.049512	enjoying	-0.1665666
-4.873421	enjoyment	-0.1473865
-5.049512	enjoyments	-0.1536268
-5.350543	enjoys	-0.146865
-4.873421	enlarge	-0.2668574
-4.748483	enlarged	-0.3631414
-4.748483	enlargement	-0.3729393
-5.350543	enlighten	-0.1756652
-4.572392	enlightened	-0.2208263
-5.049512	enlightenment	-0.1526945
-5.350543	enlist	-0.146865
-5.350543	enlisting	-0.1763534
-4.350543	enmity	-0.3249169
-5.049512	ennoble	-0.1459493
-5.049512	ennobled	-0.1440807
-5.350543	ennobling	-0.1773565
-5.350543	enormity	-0.1725392
-5.049512	enormous	-0.1682857
-3.481311	enough	-0.4762446
-4.049512	enquire	-0.4549046
-4.873421	enquirer	-0.1621255
-5.049512	enquirers	-0.1737309
-4.873421	enquiries	-0.159181
-4.873421	enquiring	-0.1585258
-3.79424	enquiry	-0.2273021
-5.350543	enrol	-0.1750013
-5.350543	enrolled	-0.168873
-4.3963	enslave	-0.1285243
-4.30915	enslaved	-0.2426267
-5.350543	ensued	-0.1587706
-5.350543	ensured	-0.1774282
-5.350543	entail	-0.1745822
-5.350543	entanglements	-0.1587706
-4.09527	enter	-0.494116
-4.873421	entered	-0.2742407
-5.350543	entering	-0.1766194
-5.350543	enterprises	-0.1751727
-5.049512	enters	-0.3528021
-4.572392	entertain	-0.219649
-4.3963	entertained	-0.2066182
-5.350543	entertainer	-0.1571616
-5.350543	entertaining	-0.1766136
-4.748483	entertainment	-0.1703664
-5.350543	entertainments	-0.1571616
-5.350543	entertains	-0.146865
-5.049512	enthroned	-0.1741646
-4.651573	enthusiasm	-0.2012969
-5.049512	enthusiastic	-0.1771723
-5.350543	enthusiastically	-0.1774514
-5.350543	enthusiasts	-0.1755232
-4.204414	entire	-0.1779132
-4.049512	entirely	-0.1860158
-5.350543	entitle	-0.1750013
-5.049512	entrails	-0.3333443
-5.350543	entrance	-0.1571616
-5.350543	entreat	-0.1772964
-5.049512	entreated	-0.1583254
-5.049512	entreaties	-0.3349532
-5.350543	entreaty	-0.173203
-4.873421	entrust	-0.2436536
-5.049512	entrusted	-0.3420951
-5.350543	entwine	-0.1753967
-5.049512	enumerate	-0.3230476
-5.049512	enumerated	-0.1598111
-5.049512	enumerating	-0.1766699
-5.049512	enunciated	-0.1662267
-5.049512	envious	-0.1587605
-5.350543	environment	-0.1751727
-4.748483	envy	-0.1246479
-5.049512	epeus	-0.1468005
-4.505445	epic	-0.19757
-5.350543	epicure	-0.1774631
-5.350543	epicureans	-0.168873
-5.049512	epidemic	-0.1745236
-5.350543	epilogue	-0.1571616
-5.350543	episcopari	-0.1742036
-5.350543	episode	-0.1725392
-5.350543	epistles	-0.1571616
-5.049512	epithet	-0.1683015
-5.350543	epitome	-0.1571616
-5.049512	epoch	-0.3333443
-5.350543	equable	-0.1683945
-3.888145	equal	-0.172096
-4.174451	equality	-0.2801515
-5.350543	equalize	-0.146865
-5.350543	equalled	-0.168873
-5.350543	equalling	-0.1587706
-3.537629	equally	-0.1532445
-4.447453	equals	-0.1252926
-5.049512	equanimity	-0.1752467
-5.350543	equator	-0.1587706
-5.049512	equestrian	-0.1774514
-5.049512	equilibrium	-0.1774476
-5.350543	equipped	-0.1751727
-4.748483	equivalent	-0.6623672
-4.120094	er	-0.2790451
-5.350543	eradicate	-0.1750013
-5.049512	eradicated	-0.1573626
-5.350543	erase	-0.1587706
-5.350543	erect	-0.168873
-5.049512	eriphyle	-0.1754901
-5.350543	eristic	-0.1755232
-4.447453	err	-0.2063834
-5.350543	errant	-0.1587706
-5.049512	erring	-0.1772984
-4.748483	erroneous	-0.159805
-5.350543	erroneously	-0.1774495
-3.859181	error	-0.3311823
-4.505445	errors	-0.1276852
-4.873421	errs	-0.1493154
-5.350543	eryxias	-0.1774282
-3.935569	escape	-0.3198023
-4.271361	escaped	-0.279933
-4.873421	escaping	-0.173156
-3.952603	especially	-0.3389782
-5.350543	espousals	-0.1587706
-5.350543	espoused	-0.1587706
-4.120094	essence	-0.2949874
-5.350543	essences	-0.173203
-4.271361	essential	-0.2841125
-5.049512	essentially	-0.15872
-4.748483	establish	-0.2179173
-4.271361	established	-0.2895026
-5.350543	establishment	-0.1571616
-4.873421	estate	-0.1262946
-4.873421	estates	-0.4849953
-5.350543	esteem	-0.1772732
-4.651573	esteemed	-0.1492285
-5.049512	esteeming	-0.1754375
-5.049512	estimate	-0.1250416
-5.049512	estimated	-0.1267738
-5.049512	estimating	-0.1467881
-5.049512	estimation	-0.1685705
-5.350543	estranged	-0.1742036
-4.651573	etc	-0.6380346
-4.204414	eternal	-0.3633475
-4.651573	eternity	-0.4930517
-4.3963	ethical	-0.2083636
-4.09527	ethics	-0.253868
-4.873421	eulogists	-0.4833863
-5.350543	eumolpus	-0.177372
-5.350543	eunuch	-0.1774573
-5.350543	euphemism	-0.1751727
-5.350543	euphemistic	-0.1772247
-4.651573	euripides	-0.1471767
-4.505445	europe	-0.1669716
-5.350543	european	-0.1769862
-5.350543	europeans	-0.1659124
-4.873421	eurypylus	-0.2557352
-5.049512	euthydemus	-0.1267738
-5.350543	evacuation	-0.1587706
-5.350543	evading	-0.146865
-5.350543	evasion	-0.1751727
-3.165851	even	-0.4540784
-4.572392	evening	-0.2414038
-5.049512	event	-0.1598474
-4.350543	events	-0.2088414
-3.271361	ever	-0.1982352
-4.873421	everlasting	-0.1597203
-5.350543	everlastingly	-0.1774592
-3.090471	every	-0.5608653
-4.271361	everybody	-0.3443667
-3.832029	everything	-0.245865
-4.204414	everywhere	-0.1208047
-4.572392	evidence	-0.1811231
-5.350543	evidencing	-0.1768969
-4.447453	evident	-0.3372431
-4.651573	evidently	-0.1756282
-2.983187	evil	-0.3562533
-3.782341	evils	-0.2696128
-5.350543	evokes	-0.176095
-4.748483	evolution	-0.1388774
-4.236599	exact	-0.2305589
-5.350543	exacted	-0.1757022
-5.350543	exactions	-0.1571616
-3.79424	exactly	-0.9414619
-4.651573	exactness	-0.08995214
-5.049512	exaggerated	-0.1662824
-4.873421	exaggerates	-0.1401989
-5.350543	exaggerating	-0.1770948
-4.748483	exaggeration	-0.2338219
-5.350543	exalt	-0.146865
-5.049512	exalted	-0.1662267
-5.350543	exalting	-0.1659124
-4.748483	examination	-0.2165509
-4.447453	examine	-0.1798201
-5.350543	examined	-0.1600632
-5.350543	examining	-0.1600632
-3.618149	example	-0.3281466
-4.204414	examples	-0.4040013
-4.572392	exceed	-0.1908969
-5.049512	exceeded	-0.1440807
-5.049512	exceeding	-0.1774456
-4.873421	exceeds	-0.1401081
-3.935569	excellence	-0.4958172
-5.049512	excellences	-0.1549348
-4.028323	excellent	-0.2242548
-5.350543	excellently	-0.1774611
-4.028323	except	-0.3446271
-4.873421	excepting	-0.175383
-4.271361	exception	-0.4056166
-5.049512	exceptional	-0.17731
-4.572392	exceptions	-0.2924132
-4.049512	excess	-0.4539348
-4.447453	excessive	-0.2090963
-4.271361	exchange	-0.1960077
-5.350543	exchanged	-0.1698856
-5.049512	excitable	-0.15761
-5.350543	excite	-0.146865
-4.873421	excited	-0.1709549
-4.873421	excitement	-0.1388499
-5.350543	excites	-0.1774166
-5.350543	exciting	-0.146865
-5.350543	exclaiming	-0.1716309
-4.748483	exclude	-0.1748804
-4.748483	excluded	-0.137212
-5.350543	excluding	-0.146865
-5.049512	exclusion	-0.3333443
-4.651573	exclusive	-0.22055
-4.873421	exclusively	-0.1644136
-5.350543	exclusiveness	-0.1571616
-5.350543	excusable	-0.1600632
-4.572392	excuse	-0.430553
-5.049512	excused	-0.1725823
-4.748483	execute	-0.1457784
-5.049512	executed	-0.1554997
-5.350543	executing	-0.174937
-4.572392	execution	-0.2677117
-4.873421	executioner	-0.2497838
-4.00812	exercise	-0.2471434
-4.30915	exercised	-0.3238994
-4.174451	exercises	-0.3409364
-4.873421	exercising	-0.1732069
-5.049512	exert	-0.1463824
-5.049512	exerted	-0.1717448
-5.350543	exertion	-0.1762757
-4.873421	exhausted	-0.1402158
-5.049512	exhibit	-0.3531979
-4.748483	exhibited	-0.196324
-4.873421	exhibiting	-0.1464677
-5.350543	exhibition	-0.1571616
-5.350543	exhibits	-0.1659124
-5.350543	exhorting	-0.1766233
-4.350543	exile	-0.3185336
-4.873421	exiled	-0.1730875
-5.049512	exiles	-0.1584327
-5.350543	exiling	-0.1767766
-4.09527	exist	-0.3908928
-4.236599	existed	-0.2276458
-3.49321	existence	-0.4499115
-5.350543	existences	-0.1774011
-5.049512	existent	-0.1565948
-4.120094	existing	-0.3043788
-4.236599	exists	-0.3493926
-5.350543	exodus	-0.168873
-5.350543	exordium	-0.1600632
-5.049512	exotic	-0.3536438
-5.350543	expand	-0.1587706
-5.350543	expanse	-0.1571616
-5.350543	expansion	-0.1587706
-5.350543	expatiates	-0.1659124
-4.204414	expect	-0.1087312
-4.873421	expectation	-0.2659724
-4.120094	expected	-0.7525902
-5.049512	expecting	-0.3478136
-5.350543	expects	-0.174937
-4.873421	expediency	-0.1455908
-5.049512	expedient	-0.173066
-5.350543	expedite	-0.146865
-5.350543	expedition	-0.1774631
-4.873421	expeditions	-0.1542016
-4.873421	expel	-0.1668446
-5.049512	expelled	-0.1597546
-5.350543	expelling	-0.1773119
-4.748483	expenditure	-0.2384089
