
\data\
ngram 1=10118
ngram 2=17981
ngram 3=3777

\1-grams:
-5.350543	.enough
-5.350543	.he	-0.1774321
-5.350543	.here
-5.350543	.in	-0.1774515
-5.049512	.socrates	-0.07970117
-5.350543	.the
-5.049512	000
-4.447453	1	-0.3135439
-5.350543	10
-4.873421	100	-0.1774204
-5.049512	1000	-0.07970311
-4.651573	12	-0.1730821
-5.350543	13
-5.350543	16
-5.350543	1688
-4.873421	18	-0.05148199
-5.350543	1st
-4.049512	2	-0.3099302
-5.350543	200	-0.1774611
-5.350543	21
-4.447453	216	-0.2396325
-4.505445	27	-0.02131484
-5.350543	2nd
-3.873421	3	-0.2988713
-5.350543	300	-0.1774611
-5.350543	34
-5.350543	35
-5.350543	3rd
-4.204414	4	-0.2496442
-4.873421	400	-0.0514878
-5.350543	48
-5.350543	49
-4.146423	5	-0.07580954
-5.049512	50	-0.07970311
-5.350543	5000
-5.049512	5040	-0.07972055
-4.505445	6
-4.873421	7
-4.505445	729	-0.07511304
-5.350543	7600
-4.572392	8	-0.2025151
-4.873421	8000	-0.05148199
-4.748483	9
-5.049512	9th	-0.3534693
-1.405863	</s>
-99	<s>	-0.9291267
-1.761935	a	-0.4768154
-5.350543	abandoned
-5.350543	abate
-5.049512	abated
-5.350543	abates
-5.350543	abdera
-5.350543	abhor
-4.748483	abhorrence	-0.6536165
-5.350543	abide
-4.651573	abiding	-0.2219336
-4.748483	ability
-5.049512	abject
-3.30915	able	-1.059989
-5.350543	abler
-5.350543	abnegation
-5.350543	abnormal
-4.447453	abode	-0.1206635
-5.350543	abolished
-5.350543	abolishes
-4.873421	abolition	-0.4833863
-5.049512	abominable
-5.350543	abominate
-5.350543	abominates
-5.350543	aborigines
-5.350543	abound
-5.350543	abounds
-2.838659	about	-0.3391509
-3.530999	above	-0.4935594
-4.651573	abroad	-0.1071867
-4.204414	absence	-1.155788
-3.626267	absolute	-0.2391259
-4.120094	absolutely	-0.08624233
-5.350543	absolution
-5.350543	absorb
-4.505445	absorbed	-0.3443834
-5.350543	absorbs
-4.873421	abstain	-0.5021836
-5.350543	abstained
-5.350543	abstainer
-5.350543	abstains
-5.350543	abstinence
-4.028323	abstract	-0.08709011
-5.350543	abstracted
-4.120094	abstraction	-0.07167578
-4.120094	abstractions	-0.177759
-5.350543	abstracts
-4.651573	absurd
-5.350543	absurdities
-4.447453	absurdity	-0.1206635
-5.350543	absurdum
-5.049512	abundance
-5.350543	abundantly
-5.049512	abuse	-0.07972249
-4.748483	abusing
-5.350543	academic	-0.1774515
-5.350543	accent
-4.447453	accept	-0.138395
-5.350543	acceptance
-5.049512	accepted	-0.3510533
-5.350543	accessible
-5.350543	accessory	-0.1773895
-4.651573	accident
-4.572392	accidental
-4.873421	accidents
-5.350543	accommodate
-5.350543	accommodated
-5.350543	accommodation
-5.350543	accommodations
-4.748483	accompanied	-0.6713256
-5.350543	accompanies
-5.049512	accompaniment
-5.049512	accompaniments
-4.873421	accompany
-5.350543	accompanying
-5.049512	accomplish
-4.236599	accomplished	-0.2554659
-5.049512	accomplishing
-5.350543	accomplishments
-4.873421	accord	-0.05149361
-4.236599	accordance	-1.111875
-3.594668	according	-1.751875
-4.3963	accordingly	-0.1685437
-5.049512	accords	-0.3515792
-4.00812	account	-0.2941743
-5.350543	accounted
-5.350543	accruing
-5.350543	accumulate
-5.350543	accumulating	-0.1773933
-5.049512	accumulation
-5.350543	accumulations
-4.651573	accuracy
-4.748483	accurate	-0.0380283
-5.350543	accursed
-4.572392	accusation
-4.873421	accusations
-5.049512	accuse
-4.873421	accused
-5.350543	accuser
-4.572392	accustomed	-0.4432567
-5.350543	accustoming
-4.651573	achaeans	-0.1484009
-5.350543	achieved
-4.447453	achilles	-0.06467985
-3.888145	acknowledge	-0.4151712
-4.071789	acknowledged	-0.3533156
-4.748483	acknowledges	-0.6680858
-4.873421	acknowledging
-5.049512	acorns	-0.3519529
-4.447453	acquaintance	-0.2876623
-4.873421	acquaintances
-4.447453	acquainted	-0.743008
-5.350543	acquiesced
-5.350543	acquiesces
-5.350543	acquiescing
-4.271361	acquire	-0.08909263
-4.146423	acquired
-5.350543	acquirement
-4.651573	acquiring	-0.1089109
-4.30915	acquisition	-0.5439681
-5.350543	acquit
-5.049512	acquitted	-0.07972636
-5.350543	acropolis
-5.049512	across	-0.07970892
-3.806475	act	-0.03686961
-5.049512	acted	-0.3532948
-4.30915	acting	-0.1093503
-3.70709	action	-0.1734837
-3.832029	actions	-0.2044859
-4.572392	active	-0.1193187
-4.572392	actor	-0.05148974
-4.651573	actors
-4.572392	acts	-0.0249811
-4.09527	actual	-0.02697469
-4.3963	actually	-0.01648819
-5.350543	actuated
-5.049512	acute
-5.350543	ad	-0.1774631
-5.049512	adamant
-5.350543	adamantine	-0.1774379
-5.350543	adapt
-5.049512	adaptation
-5.350543	adaptations
-4.350543	adapted	-0.4116183
-5.049512	adapts	-0.07969342
-3.919179	add	-0.0677387
-4.09527	added	-0.1305689
-4.350543	adding	-0.0148101
-4.350543	addition	-0.2874149
-4.748483	additional
-5.049512	additions
-4.748483	address	-0.1409378
-5.350543	addressed
-4.651573	adds
-3.481311	adeimantus	-0.1221984
-4.873421	adequate
-4.505445	adequately	-0.1007131
-5.049512	adhere	-0.342095
-5.350543	adherents	-0.1774166
-5.350543	adjusted
-5.350543	adjusts
-5.350543	administer
-5.049512	administered
-4.748483	administration	-0.2938077
-4.651573	admirable	-0.03015725
-5.049512	admiration
-4.572392	admire
-4.748483	admired	-0.1111795
-5.350543	admirer
-5.049512	admirers
-5.350543	admiring
-4.505445	admission	-0.02132453
-4.651573	admissions
-3.634539	admit	-0.6109593
-4.651573	admits	-0.03014562
-3.782341	admitted	-0.3699732
-4.350543	admitting
-4.873421	admixture
-5.049512	admonition
-5.350543	admonitions
-4.873421	ado
-4.572392	adopt
-4.651573	adopted	-0.1999256
-5.350543	adopting
-5.350543	adulation
-5.350543	adulteration	-0.1774592
-5.049512	adultery	-0.3493856
-4.3963	advance	-0.2259063
-5.350543	advanced
-4.873421	advances
-5.350543	advancing
-3.859181	advantage	-0.212969
-4.447453	advantageous
-4.120094	advantages	-0.3256562
-4.873421	adversaries
-4.873421	adversary
-4.748483	adverse	-0.1417155
-4.505445	advice
-4.748483	advise
-5.350543	advised
-5.049512	advisers	-0.07969536
-4.651573	advises	-0.1088488
-5.350543	advising
-5.350543	advocate
-4.271361	aeschylus	-0.2285852
-5.350543	aesculapius
-5.350543	aesop
-5.049512	affair
-4.271361	affairs
-4.236599	affect	-0.2215101
-5.350543	affectation	-0.1774301
-4.071789	affected	-0.1698243
-4.873421	affecting
-4.30915	affection	-0.1453281
-5.350543	affectionate	-0.1774534
-4.572392	affections
-4.873421	affects
-4.748483	affinities
-4.572392	affinity	-0.3665583
-4.071789	affirm	-0.1457281
-4.30915	affirmed	-0.2112019
-4.748483	affirming	-0.6680858
-4.748483	affirms	-0.308277
-5.049512	afflicted
-5.049512	affliction
-4.572392	afford
-4.873421	afforded	-0.1990094
-5.350543	affording	-0.1774631
-4.873421	affords	-0.1940243
-5.350543	aforesaid	-0.1774457
-3.970331	afraid	-0.4500702
-3.154643	after	-0.4371168
-5.350543	afterthought
-4.071789	afterwards	-0.007731948
-3.157418	again	-0.1233137
-3.250172	against	-0.3497121
-4.174451	agamemnon	-0.09183898
-3.293638	age	-0.2394608
-4.447453	aged
-5.350543	agencies
-5.049512	agent
-5.350543	agents
-3.687785	ages	-0.08634521
-5.350543	aggravated
-5.350543	aggression
-5.350543	aggressive
-5.350543	agility
-5.350543	aglaion	-0.1774301
-4.3963	ago	-0.01648819
-5.049512	agony
-5.350543	agora
-3.458448	agree	-0.7437003
-4.572392	agreeable	-0.4432567
-5.049512	agreeably	-0.342095
-4.00812	agreed	-0.5626767
-5.049512	agreeing	-0.3515792
-4.651573	agreement
-5.049512	agreements
-4.651573	agrees	-0.4303171
-5.350543	agricultural
-4.873421	agriculture	-0.05149361
-4.748483	aid	-0.03803217
-5.350543	aided
-5.049512	aids
-5.350543	ailment
-3.952603	aim	-0.2430706
-4.748483	aiming	-0.3124164
-4.30915	aims	-0.04468193
-4.3963	air	-0.194232
-4.748483	airs	-0.03801667
-5.350543	airy
-4.748483	ajax	-0.03803217
-4.09527	akin	-1.277129
-5.350543	alarms	-0.1774573
-4.748483	alas	-0.6565182
-5.049512	alcibiades
-5.350543	alcinous
-5.350543	alexandria
-5.350543	algebraic	-0.1774592
-4.651573	alien	-0.2830677
-5.350543	alighted
-3.988815	alike	-0.06316912
-4.651573	alive	-0.0301495
-2.411023	all	-0.3645282
-5.350543	allayed
-5.350543	alleged
-4.873421	allegorical	-0.05147811
-5.350543	allegories
-4.30915	allegory
-5.350543	alleviation
-4.572392	alliance	-0.321619
-5.049512	alliances	-0.3515792
-4.748483	allied	-0.3025586
-4.572392	allies
-5.350543	allotted
-3.651573	allow	-0.2722321
-5.049512	allowable
-5.049512	allowance
-3.678445	allowed	-0.5218455
-4.748483	allowing
-4.572392	allows	-0.1519825
-5.049512	alloy
-5.049512	alloyed
-5.350543	allude
-5.049512	alluded	-0.342095
-5.350543	alludes
-5.049512	alluding
-5.049512	allurements
-4.447453	allusion	-0.2060196
-5.350543	allusions
-4.3963	ally	-0.1669688
-3.782341	almost	-0.1403867
-5.350543	alms
-5.350543	aloft
-3.819064	alone	-0.06164666
-4.09527	along	-0.425188
-5.049512	alongside
-5.049512	aloud	-0.07972249
-5.350543	alphabet
-3.558151	already	-0.09863672
-2.751752	also	-0.1809375
-5.049512	altar
-4.505445	alter	-0.1207133
-5.350543	altera	-0.1774515
-4.651573	altered
-4.873421	altering
-5.350543	alternated
-5.350543	alternating
-4.748483	alternative	-0.1383072
-5.350543	alternatives
-3.401153	although	-0.3289022
-4.350543	altogether	-0.1034621
-3.204415	always	-0.01698459
-3.257121	am	-0.2677462
-5.049512	amateurs
-5.350543	amatory	-0.1774631
-5.350543	amazed
-5.350543	amazement
-5.350543	amazing
-5.350543	ambassadors
-5.049512	ambiguities
-5.049512	ambiguity
-5.350543	ambiguous	-0.1774146
-4.174451	ambition	-0.1427166
-4.174451	ambitious	-0.06290286
-5.350543	amelioration
-5.350543	amenable
-5.350543	amenities
-4.873421	america
-5.350543	american	-0.1774573
-5.350543	amerigo	-0.1774631
-4.049512	amid	-0.1589226
-3.253633	among	-0.5137411
-4.873421	amongst	-0.05147811
-5.350543	amorous
-4.447453	amount	-0.358546
-5.049512	amounts	-0.342095
-5.350543	amply	-0.1774592
-5.350543	amulet
-4.651573	amused	-0.1077842
-4.572392	amusement	-0.304993
-5.049512	amusements
-4.748483	amusing
-2.534965	an	-0.3918816
-5.049512	anacharsis
-5.049512	anachronisms	-0.0797283
-4.651573	analogies
-4.748483	analogous	-0.6623673
-3.988815	analogy	-0.3871819
-4.748483	analyse	-0.2835111
-4.873421	analysed
-5.350543	analyses
-4.236599	analysis	-0.49158
-5.350543	analytical	-0.1773972
-5.350543	analyzed
-4.651573	anarchy
-5.049512	anaxagoras	-0.3362458
-4.651573	ancestor	-0.03015337
-4.748483	ancestors
-4.873421	ancestral	-0.286652
-3.651573	ancient	-0.1626313
-4.572392	ancients	-0.02497141
-1.375387	and	-0.1290361
-5.350543	andromache
-5.350543	anew
-4.651573	angels
-4.120094	anger	-0.008653094
-5.350543	angled	-0.1774515
-5.049512	angles
-3.903385	angry	-0.398649
-4.049512	animal	-0.1069826
-5.350543	animalism
-3.626267	animals	-0.0739444
-5.350543	animate
-5.049512	animated	-0.3510533
-5.350543	animation
-5.350543	annihilates
-5.350543	annihilation
-5.350543	announce
-5.350543	announced
-5.350543	annoyed
-4.873421	annual	-0.2865822
-5.350543	anointed
-5.350543	anomaly
-5.350543	anon
-2.769618	another	-0.2111147
-3.274996	answer	-0.2480074
-4.028323	answered	-0.0866555
-4.3963	answering	-0.05734695
-3.952603	answers	-0.4011993
-4.505445	antagonism	-0.2417331
-5.350543	antagonist
-5.350543	antagonistic
-5.350543	antagonists
-4.873421	antecedent	-0.5036296
-5.350543	antecedents
-5.049512	anthropology
-4.651573	anticipate	-0.1093104
-4.748483	anticipated
-5.350543	anticipates	-0.1774631
-5.049512	anticipating
-4.505445	anticipation	-0.332672
-4.873421	anticipations
-5.049512	antidote	-0.342095
-5.350543	antigone
-5.350543	antiquarian	-0.1774069
-5.350543	antique
-4.572392	antiquity	-0.08825863
-5.350543	antithesis
-5.350543	antwerp
-5.049512	anxiety	-0.3530174
-5.049512	anxious
-5.350543	anxiously	-0.1774282
-2.538968	any	-0.294081
-4.236599	anybody	-0.09332248
-5.350543	anyhow
-5.350543	anyone
-3.386755	anything	-0.187442
-4.748483	anywhere	-0.1416535
-4.350543	apart	-0.6974639
-5.350543	aphoristic
-5.049512	aphrodite
-4.30915	apollo	-0.01577668
-5.350543	apologist
-4.748483	apology
-5.350543	apostles
-5.350543	appalling	-0.1774127
-5.049512	apparatus
-5.350543	apparel
-4.505445	apparent
-4.651573	apparently	-0.06256235
-5.049512	apparition
-5.350543	apparitions
-4.350543	appeal	-0.6874174
-5.350543	appealed
-5.350543	appealing
-4.873421	appeals
-3.572391	appear	-0.288002
-5.350543	appear.the
-3.859181	appearance	-0.2795657
-4.236599	appearances	-0.07367369
-4.146423	appeared	-0.2860278
-4.873421	appearing
-3.565213	appears	-0.4746441
-5.350543	appeased
-5.350543	append	-0.1774069
-5.049512	appended
-4.873421	appetite
-4.204414	appetites	-0.03484743
-4.873421	appetitive
-5.049512	applaud
-5.049512	applauded
-5.049512	applause
-5.350543	applauses
-4.748483	applicable	-0.6623673
-4.174451	application	-0.1498585
-4.447453	applications	-0.1972687
-4.174451	applied	-0.1966868
-4.651573	applies	-0.4208329
-4.049512	apply	-0.2102962
-5.049512	applying
-5.049512	appoint
-4.271361	appointed	-0.03972281
-5.350543	appointing
-5.049512	appointment
-5.350543	apportion	-0.1774631
-5.350543	apposing
-4.651573	appreciate	-0.1999256
-5.049512	appreciated
-5.350543	appreciation
-4.873421	apprehend
-5.049512	apprehended
-4.873421	apprehending
-5.350543	apprehends
-4.651573	apprehension	-0.03013981
-5.350543	apprentice
-5.350543	apprentices
-4.204414	approach
-4.572392	approaches
-5.350543	approaching	-0.177434
-4.748483	appropriate	-0.03803217
-5.350543	appropriately	-0.1774476
-5.350543	appropriating
-4.873421	approval
-4.350543	approve	-0.4028675
-4.651573	approved
-5.049512	approver
-4.748483	approves
-5.049512	approximation
-5.350543	appurtenances
-3.888145	apt	-1.465569
-4.651573	aptitude	-0.2282333
-5.350543	arbitrarily	-0.1774534
-5.350543	arcadian	-0.1774476
-5.350543	archelaus
-5.350543	archer	-0.1774573
-4.873421	archilochus
-4.873421	architecture
-5.350543	archon
-5.350543	archytas
-4.572392	ardiaeus	-0.0891761
-2.013683	are	-0.1470509
-5.350543	arena
-5.049512	ares	-0.3349532
-5.350543	argenis
-4.873421	argos	-0.05149168
-4.028323	argue	-0.2286598
-5.049512	argued
-4.447453	argues	-0.2428769
-4.505445	arguing	-0.09925351
-3.325237	argument	-0.1124095
-5.350543	argumentative
-4.236599	arguments
-5.049512	aright
-5.350543	arion
-3.903385	arise	-0.129944
-4.447453	arisen	-0.1287747
-3.935569	arises	-0.2720274
-5.350543	arising
-4.873421	aristocracies	-0.0514878
-4.30915	aristocracy	-0.1292596
-5.049512	aristocratic
-4.873421	aristocratical
-4.350543	ariston	-0.05110308
-5.350543	aristonymus
-5.049512	aristophanes
-4.873421	aristotelian	-0.05148393
-3.642972	aristotle	-0.1456801
-4.271361	arithmetic	-0.04064766
-4.572392	arithmetical	-0.1158206
-4.651573	arithmetician	-0.1444218
-4.748483	arm
-4.873421	armed
-4.873421	armenius	-0.1940243
-4.873421	armies
-4.873421	armour
-4.00812	arms	-0.2039235
-4.174451	army	-0.05987289
-4.350543	arose
-4.30915	around	-0.1841239
-4.873421	arouse	-0.0514878
-4.651573	aroused	-0.1068846
-5.350543	arousing
-4.873421	arrange	-0.05147811
-4.572392	arranged	-0.1801188
-4.748483	arrangement
-4.873421	arrangements
-5.350543	arranges
-5.350543	arranging
-5.350543	arrant	-0.1774476
-4.748483	array
-5.350543	arrayed
-5.049512	arrival
-4.236599	arrive	-0.8112186
-3.988815	arrived	-0.5818819
-4.572392	arrives	-0.1808878
-4.873421	arriving	-0.199909
-5.350543	arrogance
-5.350543	arrogant
-5.350543	arrows
-3.09527	art	-0.3676488
-5.350543	artemis
-5.350543	arthur
-5.350543	article
-5.350543	articles	-0.1774553
-4.748483	artificer	-0.1416361
-5.049512	artificers
-4.651573	artificial	-0.09758271
-5.350543	artificially
-4.3963	artisan
-4.3963	artisans	-0.1668655
-4.00812	artist	-0.03955063
-4.873421	artistic	-0.05148587
-4.30915	artists	-0.05942284
-3.386755	arts	-0.2516667
-2.126009	as	-0.4915504
-4.236599	ascend	-0.1073252
-5.350543	ascendant
-4.748483	ascended
-4.748483	ascending
-4.447453	ascent	-0.06362348
-4.873421	ascertain
-4.873421	ascertained
-5.350543	ascertaining
-5.350543	asclepiads
-4.120094	asclepius	-0.09249111
-5.049512	ascribe	-0.342095
-4.350543	ascribed	-0.6874174
-5.350543	ascribes
-5.350543	ascribing
-4.271361	ashamed	-0.5090413
-5.049512	ashes
-5.350543	asia
-4.271361	aside	-0.040811
-3.363771	ask	-0.255467
-3.737759	asked	-0.2767773
-4.204414	asking	-0.05605478
-4.120094	asks	-0.2638026
-4.873421	asleep
-4.3963	aspect	-0.2960691
-4.447453	aspects	-0.2694273
-4.873421	aspirant	-0.2006882
-4.505445	aspiration
-4.651573	aspirations
-4.873421	aspire	-0.1900512
-5.049512	assailant	-0.07971667
-5.350543	assailants
-5.350543	assailing
-5.350543	assails
-5.350543	assassinate
-5.350543	assassinating
-5.049512	assassination
-5.350543	assault
-5.350543	assemblage
-4.873421	assembled	-0.05149361
-4.873421	assemblies	-0.4849953
-4.651573	assembly
-4.271361	assent	-0.1136662
-4.873421	assented
-4.505445	assert
-4.505445	asserted
-5.049512	asserting
-4.3963	assertion	-0.09253848
-5.049512	asserts
-5.049512	asses	-0.07972249
-4.651573	assign
-4.350543	assigned	-0.2605971
-5.049512	assigning
-5.049512	assigns
-5.350543	assimilate
-5.350543	assimilated
-5.049512	assimilates
-5.350543	assimilating	-0.1774631
-5.350543	assimilation
-4.572392	assist
-4.572392	assistance	-0.1622792
-4.748483	assisted	-0.1391852
-5.049512	assisting
-4.572392	associate	-0.321619
-4.572392	associated	-0.1805142
-4.651573	associates
-4.748483	association
-4.873421	associations
-5.350543	assortment
-3.988815	assume	-0.3339177
-4.350543	assumed	-0.3991752
-4.572392	assumes
-4.350543	assuming	-0.1586339
-4.748483	assumption	-0.308277
-5.350543	assumptions
-5.049512	assurance
-4.873421	assure
-4.651573	assured
-4.00812	assuredly	-0.6123676
-5.350543	assuring
-5.350543	assyria
-5.350543	assyrian
-5.350543	asthmatic
-5.049512	astonished
-5.350543	astonishment
-4.873421	astray	-0.05147618
-5.350543	astronomer
-4.873421	astronomers
-5.350543	astronomical	-0.1774592
-3.988815	astronomy	-0.06255081
-5.049512	asunder
-5.350543	asylum
-2.409528	at	-0.7227337
-5.049512	atalanta	-0.07971861
-5.350543	ate
-4.572392	athene	-0.1638882
-4.204414	athenian	-0.0105304
-4.873421	athenians
-4.30915	athens	-0.01344389
-4.505445	athlete
-4.350543	athletes
-4.748483	atlantis	-0.3238349
-4.748483	atmosphere
-5.350543	atone
-5.049512	atonement	-0.3513553
-5.350543	atonements
-5.049512	atoning	-0.1774127
-5.350543	atreus
-4.447453	atropos	-0.2154334
-4.748483	attach
-4.651573	attached	-0.4208329
-5.049512	attaching	-0.342095
-5.350543	attachment
-5.049512	attachments
-4.873421	attack
-5.049512	attacked	-0.3510533
-4.873421	attacks
-3.970331	attain	-0.2193342
-5.049512	attainable
-5.350543	attainder
-4.204414	attained	-0.03341914
-4.572392	attaining
-4.572392	attainment	-0.1622792
-5.350543	attainments
-4.572392	attains
-5.350543	attainted
-5.350543	attemper
-5.350543	attempers
-3.873421	attempt	-0.5113261
-5.049512	attempted	-0.342095
-4.505445	attempting	-0.9446717
-4.30915	attempts	-0.2505763
-4.572392	attend
-5.049512	attendant	-0.0797128
-4.873421	attendants
-4.651573	attended	-0.1068846
-4.873421	attending
-5.049512	attends
-4.30915	attention	-0.0581013
-5.350543	attic	-0.1774631
-5.350543	attire
-5.049512	attitude
-4.651573	attract	-0.03015725
-4.505445	attracted	-0.148719
-5.350543	attracting
-4.873421	attraction
-5.350543	attractions
-5.350543	attractive
-5.350543	attracts	-0.1774321
-4.3963	attribute	-0.1012893
-4.028323	attributed	-1.089345
-4.447453	attributes	-0.2058381
-4.748483	attributing
-5.350543	attribution
-5.350543	attuning
-5.350543	audacious	-0.1774263
-5.350543	audacity
-5.049512	audience
-5.049512	auditors
-5.350543	aufklarung
-5.350543	aught	-0.1774611
-4.572392	augustine	-0.1196854
-5.350543	auscultation
-5.049512	auspices	-0.07969148
-3.970331	author	-0.5817568
-5.350543	authorised	-0.1774069
-5.350543	authoritative
-4.873421	authorities
-3.717074	authority	-0.2783545
-5.350543	authorized	-0.1774631
-4.350543	authors	-0.6786667
-5.049512	autolycus
-4.30915	auxiliaries	-0.06103906
-4.873421	auxiliary
-5.049512	avail
-4.447453	avarice
-4.505445	avaricious
-5.350543	aver
-5.049512	average
-5.049512	averse	-0.342095
-5.350543	aversion	-0.1774592
-5.350543	avert
-5.350543	averted
-5.350543	averters
-5.350543	avesta
-4.174451	avoid	-0.1104062
-5.049512	avoidance
-4.748483	avoided
-4.873421	await
-5.049512	awaiting
-5.049512	awaits
-4.30915	awake	-0.08860265
-5.049512	awakened
-5.049512	awakening
-5.350543	awakens
-5.049512	awaking	-0.3536282
-3.903385	aware	-0.6355737
-3.359317	away	-0.4247352
-4.748483	awe
-5.350543	awestricken
-5.350543	awful
-5.350543	awhile
-5.350543	axioms
-4.3963	axis	-0.03362584
-4.651573	aye
-3.737759	back	-0.2280862
-5.350543	background
-5.350543	backs
-4.748483	backward	-0.1394872
-5.350543	backwardness
-5.350543	backwards
-4.3963	bacon
-3.421124	bad	-0.1738426
-4.873421	bade	-0.2002609
-5.049512	badly
-4.505445	badness	-0.9359209
-5.350543	baking
-4.748483	balance
-5.049512	balanced
-5.350543	balances
-4.572392	bald	-0.3513826
-5.350543	balm
-4.651573	band
-5.350543	baneful	-0.1774631
-4.3963	banish	-0.03363747
-4.3963	banished
-5.049512	banishes
-4.748483	banishing	-0.1410911
-5.049512	banishment	-0.07969536
-5.350543	banquet
-5.350543	banquetter
-5.350543	banter
-4.204414	barbarians	-0.171507
-5.049512	barbarism
-4.651573	barbarous	-0.1917343
-5.049512	barbers	-0.07972636
-5.350543	barclay
-5.350543	bare	-0.1774495
-5.350543	barefoot
-5.350543	barest	-0.1773895
-4.873421	bark	-0.2002337
-4.873421	barley	-0.2015959
-4.748483	barren	-0.03801667
-4.447453	base	-0.1089521
-4.00812	based	-0.5324177
-4.873421	baseness
-5.049512	baser	-0.07972055
-5.049512	bases
-5.350543	basest
-4.236599	basis	-0.3946699
-5.350543	bask
-5.350543	bass	-0.1774515
-4.572392	bastard	-0.2038078
-5.350543	bastards
-5.049512	bat
-4.873421	bath
-5.350543	baths
-5.049512	bats
-3.970331	battle	-0.0003399607
-5.049512	battles
-5.350543	battling
-5.049512	bazaar	-0.3519529
-1.888744	be	-0.2546761
-5.350543	beak
-5.350543	beams
-5.350543	beans
-3.873421	bear	-0.1115636
-5.350543	bearer	-0.1774515
-5.350543	bearers	-0.1774573
-4.505445	bearing
-4.447453	bears	-0.1415915
-3.988815	beast	-0.09937526
-4.505445	beasts	-0.0437429
-4.572392	beat	-0.4522812
-4.651573	beaten
-5.049512	beatific	-0.3535739
-5.350543	beating
-4.748483	beats	-0.07972242
-5.350543	beauteous
-4.873421	beauties
-3.770759	beautiful	-0.1487475
-5.350543	beautify
-3.499284	beauty	-0.383756
-4.271361	became	-0.0558887
-3.076385	because	-0.518446
-3.325237	become	-0.1580361
-3.687785	becomes	-0.09595896
-4.028323	becoming	-0.06732745
-3.888145	bed	-0.2543178
-4.3963	beds	-0.290416
-5.049512	bee	-0.3535546
-4.748483	beef	-0.03803217
-2.693487	been	-0.07591866
-5.049512	bees
-5.350543	befall
-3.325237	before	-0.241727
-5.049512	beforehand
-4.3963	beg	-0.1669688
-4.120094	began	-0.4819077
-5.350543	begat
-4.873421	beget
-5.049512	begetting	-0.07969536
-5.350543	beggarly
-4.873421	beggars
-5.049512	beggary
-5.350543	begged
-4.651573	begging	-0.03015725
-3.669301	begin	-0.5839444
-3.61018	beginning	-0.5818356
-5.049512	beginnings
-3.819064	begins	-0.5397279
-5.350543	begone
-4.873421	begotten
-5.350543	begs	-0.1774611
-4.748483	begun
-4.572392	behalf	-0.1622792
-4.873421	behave
-4.505445	behaviour	-0.332672
-4.748483	beheld	-0.1230851
-5.350543	behests
-4.204414	behind	-0.1078236
-3.888145	behold	-0.1530444
-5.350543	beholder
-5.049512	beholding
-5.049512	beholds	-0.07970698
-2.863404	being	-0.1367175
-4.3963	beings	-0.05734308
-4.204414	belief
-4.572392	beliefs
-3.481311	believe	-0.2624512
-4.3963	believed	-0.1070078
-4.748483	believer	-0.6653279
-4.3963	believes
-4.572392	believing	-0.1767485
-5.049512	bellowing	-0.07972636
-4.651573	belong
-5.049512	belonging	-0.342095
-4.350543	belongs	-0.9884474
-5.049512	beloved
-3.782341	below	-0.04553448
-5.350543	belt
-5.049512	bema
-5.350543	bendidea
-5.350543	bending
-5.049512	bendis
-4.350543	beneath	-0.2082119
-5.350543	benefactor
-4.748483	benefactors	-0.2938077
-5.049512	beneficence
-4.572392	beneficial
-4.120094	benefit	-0.1073894
-4.873421	benefited	-0.5010954
-5.350543	benefiting
-4.873421	benefits	-0.1966779
-5.049512	benevolence
-5.049512	bent
-5.350543	bequeath
-5.350543	bequeaths
-4.873421	bequests	-0.05148587
-5.049512	berkeley
-5.350543	berries
-5.350543	beseech
-5.350543	beseeching	-0.1774573
-4.873421	beset
-5.049512	beside
-4.120094	besides	-0.06010482
-5.350543	besprinkled
-3.143717	best	-0.2570322
-5.350543	bestow
-5.049512	bestowed
-5.350543	betray
-5.049512	betrayed	-0.07972249
-3.100123	better	-0.2937162
-3.253633	between	-0.3755493
-5.350543	beware
-5.049512	bewildered
-5.350543	bewilderments
-3.618149	beyond	-0.2504115
-5.350543	bias
-5.049512	bid
-5.049512	bidden
-4.651573	bidding	-0.1069509
-4.505445	bids	-0.2585765
-5.350543	bigger
-5.350543	bigness
-5.049512	bile	-0.3494188
-4.873421	bind
-4.572392	binding
-5.350543	binds
-5.350543	biographer
-4.873421	bird	-0.05149361
-4.447453	birds
-3.988815	birth	-0.1069582
-4.572392	births	-0.1638882
-4.873421	bishop	-0.1099193
-5.350543	bishopric
-5.049512	bit
-5.049512	bite	-0.3349532
-5.350543	bitter	-0.1774418
-5.350543	bitterest
-4.505445	black	-0.02132453
-5.049512	blacksmith	-0.3532463
-5.049512	blacksmiths
-4.30915	blame
-5.350543	blameable
-4.505445	blamed	-0.07299323
-4.748483	blameless
-5.350543	blames
-5.350543	blaming	-0.1774263
-5.049512	blank
-5.350543	blasphemous	-0.1774534
-5.350543	blasphemy
-5.350543	blazes
-5.350543	blazing
-5.350543	bleat
-5.350543	blemishes
-5.350543	blend
-4.174451	blessed
-5.049512	blessedness
-4.572392	blessing	-0.17103
-4.447453	blessings	-0.1939866
-4.873421	blest
-4.146423	blind	-0.03108532
-5.350543	blindly
-4.748483	blindness
-5.350543	blink
-4.748483	blinking
-5.350543	blinks
-5.049512	bliss
-4.271361	blood	-0.2837744
-5.049512	bloom
-5.049512	blooming
-5.350543	blooms
-4.748483	blow	-0.03802054
-5.350543	blown
-4.748483	blows
-5.350543	blunted
-5.350543	blurred
-5.350543	blush
-5.350543	blushing
-5.350543	blustering	-0.1774476
-5.049512	boast
-5.350543	boaster
-5.350543	boastful	-0.1774611
-5.350543	boasting
-5.350543	boatswains
-4.00812	bodies	-0.02253857
-3.737759	bodily	-0.2154301
-3.177356	body	-0.2556607
-5.350543	boeckh	-0.177436
-5.350543	boil	-0.1774611
-5.049512	boiled	-0.353634
-5.350543	boils
-4.651573	bold	-0.03015725
-5.350543	bolder	-0.1774495
-4.651573	boldly	-0.09758465
-4.651573	bond	-0.1045531
-5.350543	bonds
-5.350543	bones
-3.386755	book	-0.3943911
-4.174451	books
-5.049512	boon	-0.3536147
-5.350543	boorish
-5.049512	border	-0.3362458
-5.350543	borders
-4.873421	bore
-3.903385	born	-0.09768158
-4.873421	borne	-0.05148199
-5.350543	borrow
-4.350543	borrowed	-0.2706435
-5.049512	borrowing
-5.350543	borrows
-4.873421	bosom	-0.2012025
-3.069509	both	-0.2336859
-5.350543	bottom
-5.049512	bought
-4.204414	bound	-0.03557728
-5.350543	boundless	-0.1774553
-5.350543	bounds
-5.049512	bow
-5.049512	bowed
-5.049512	bowl
-5.350543	box	-0.1774553
-5.049512	boxer	-0.0797283
-5.350543	boxers
-5.350543	boxes	-0.1774631
-5.049512	boxing	-0.07972249
-4.873421	boy	-0.05149168
-4.651573	boys	-0.03015725
-5.350543	brahmins
-4.236599	branch	-0.6165186
-4.748483	branches	-0.2938077
-4.236599	brass	-0.5405
-4.174451	brave	-0.06290286
-5.350543	braver
-4.873421	bravery
-4.651573	bravest
-5.049512	brazen	-0.1774437
-5.350543	bread
-4.3963	break	-0.07624994
-5.049512	breaker
-4.651573	breaking
-4.447453	breaks	-0.06501332
-4.3963	breast	-0.257028
-4.748483	breath
-5.350543	breathe
-5.049512	breathing	-0.3536437
-4.748483	bred
-4.271361	breed	-0.08026002
-5.350543	breeder
-4.447453	breeding	-0.01859299
-5.350543	breeds	-0.177434
-4.873421	breeze
-5.350543	brethren
-5.350543	bribe
-5.350543	bribed
-5.350543	bribery
-4.873421	bribes	-0.1973417
-5.350543	bricks
-5.049512	bride	-0.3349532
-4.651573	bridegroom	-0.03015144
-5.049512	bridegrooms
-5.049512	brides	-0.3349532
-4.651573	bridle
-5.049512	brief	-0.177436
-4.873421	briefly	-0.05148974
-4.748483	bright	-0.07970885
-4.651573	brighter
-4.748483	brightest	-0.1111795
-5.350543	brightness
-5.049512	brilliant
-3.806475	bring	-0.189685
-4.572392	bringing	-0.08877095
-4.30915	brings	-0.04500664
-5.350543	brink
-5.350543	brittle
-5.049512	broadest
-5.350543	broils
-5.350543	broke
-4.748483	broken	-0.03802248
-4.174451	brother	-0.03014564
-5.049512	brotherhood
-5.350543	brotherhoods
-4.09527	brothers	-0.1223494
-3.61018	brought	-0.3688885
-5.350543	browse
-5.049512	bruised
-4.651573	brutal
-5.350543	brutality
-5.350543	brutalized
-4.748483	brute
-5.049512	brutes
-5.049512	buffoon
-5.350543	buffoonery
-4.873421	build
-4.572392	builder	-0.02498304
-5.350543	builders
-4.572392	building
-5.350543	builds
-4.651573	built	-0.148649
-5.350543	bulk
-5.350543	bulldogs
-5.350543	bullies
-5.049512	bulls
-5.350543	bunyan
-4.873421	burden
-5.350543	burglar
-4.873421	burglars	-0.05147424
-4.748483	burial	-0.6565182
-4.873421	buried	-0.1930117
-5.049512	burke
-4.873421	burn
-5.350543	burned
-5.350543	burning
-5.049512	burnt
-5.350543	burst
-5.049512	bury
-5.350543	bushel
-3.618149	business	-0.2270127
-5.350543	bustling
-4.873421	busy	-0.1995353
-4.873421	busybody
-2.172718	but	-0.4808277
-5.350543	butchery
-5.350543	butt
-4.505445	buy	-0.02132259
-5.350543	buyers
-4.873421	buying	-0.1829093
-5.049512	buzz	-0.07970892
-5.049512	buzzing	-0.07970892
-2.225061	by	-0.4645295
-5.350543	bye
-5.350543	c.f
-5.350543	cadmus
-5.350543	caesar
-5.049512	caitiff
-5.350543	cajole
-5.049512	cakes
-5.049512	calamities	-0.07971861
-5.350543	calamity
-4.873421	calculating
-4.204414	calculation	-0.1057376
-5.350543	calendar
-3.518034	call	-0.1906256
-3.447453	called	-0.1555676
-4.236599	calling	-0.07243619
-4.873421	callings
-5.350543	callippus
-4.30915	calls	-0.01344389
-4.873421	calm	-0.05148587
-5.049512	calmer
-5.350543	cambridge	-0.1774534
-3.748483	came	-0.30594
-4.3963	camp	-0.01648819
-5.350543	campaign
-5.350543	campaigning
-4.873421	campanella	-0.05148199
-2.698296	can	-0.398313
-4.873421	candle	-0.1829093
-5.350543	canibus
-3.092864	cannot	-0.2781585
-4.09527	capable	-1.234969
-5.350543	capacities
-4.447453	capacity
-4.873421	capital	-0.2831679
-4.120094	captain	-0.2106519
-5.350543	captivates
-5.350543	captivating
-4.748483	captive
-4.748483	captives	-0.1400847
-5.350543	capture	-0.1774495
-5.350543	cardinal
-5.049512	carding	-0.3511839
-3.469729	care	-0.4362276
-5.049512	career
-4.651573	careful	-0.03014562
-4.873421	carefully
-4.572392	careless	-0.1622792
-5.350543	carelessly
-5.350543	carelessness
-4.3963	cares	-0.05509923
-5.350543	caricatured
-5.350543	caring
-5.350543	carnivorous
-5.350543	carousals
-4.00812	carpenter	-0.09057248
-5.049512	carpentering
-5.350543	carpenters
-3.873421	carried	-0.286686
-4.505445	carries	-0.0741739
-4.09527	carry	-0.2214447
-4.505445	carrying	-0.09965384
-5.350543	carts
-3.421124	case	-0.30303
-3.952603	cases
-5.049512	casks
-4.204414	cast	-0.1492498
-4.873421	caste
-5.049512	casting	-0.3460682
-5.350543	castle
-5.350543	castles
-5.350543	casts
-5.049512	casual	-0.07968955
-5.350543	casuistry
-5.049512	catalogue
-5.350543	catarrh
-5.350543	catastrophe
-4.505445	catch	-0.1207133
-5.350543	catches	-0.1774398
-5.350543	catching
-4.651573	catholic	-0.03015531
-5.049512	cattle
-4.447453	caught
-3.717074	cause	-0.289644
-4.572392	caused	-0.1986623
-3.988815	causes	-0.1138532
-5.049512	cautery
-4.873421	caution
-5.049512	cautious
-4.572392	cave
-5.049512	cavern	-0.07969342
-5.350543	caves
-4.30915	cease	-0.5216705
-4.873421	ceased	-0.4921372
-5.350543	ceaseless	-0.1774611
-4.873421	ceases	-0.1900512
-5.350543	cebes
-5.049512	ceiling
-5.350543	celebrate
-4.748483	celebrated	-0.1400847
-5.350543	celebrating
-5.350543	cells	-0.1774437
-5.350543	censors
-4.873421	censorship	-0.4833863
-4.572392	censure	-0.08892608
-4.873421	censured
-5.350543	censures
-5.049512	censuring
-4.505445	centre
-4.873421	centuries	-0.0514878
-4.350543	century	-0.1613291
-5.350543	ceos
-3.919179	cephalus	-0.06026635
-5.350543	cerberus
-4.873421	ceremonies
-3.475481	certain	-0.1754087
-2.935569	certainly	-0.6832119
-5.350543	certainties
-4.505445	certainty	-0.383625
-5.350543	certifies
-4.572392	cessation	-0.3033839
-5.350543	chafe	-0.1774611
-5.350543	chafes
-4.873421	chain	-0.05147424
-4.873421	chained
-4.572392	chains
-5.350543	chair
-5.350543	chairs
-5.049512	chalcedonian	-0.1774554
-4.873421	champion
-4.049512	chance	-0.08360355
-5.049512	chanced	-0.342095
-5.350543	chances
-3.530999	change	-0.2180829
-4.3963	changed	-0.1102476
-3.988815	changes	-0.1295763
-4.651573	changing	-0.1086334
-5.350543	channel
-4.651573	chaos
-5.350543	chaotic	-0.1774398
-5.049512	chaplets
-5.350543	chapter
-3.377415	character	-0.4551488
-5.350543	characterises
-4.174451	characteristic	-0.4026134
-4.748483	characteristically	-0.07972048
-4.447453	characteristics	-0.1972687
-5.350543	characterize
-5.049512	characterized
-4.028323	characters	-0.1879726
-4.447453	charge	-0.1089521
-4.873421	charged	-0.1995353
-5.350543	charges
-5.049512	chariot	-0.3333442
-4.3963	charm	-0.1669688
-5.049512	charmantides
-4.873421	charmed	-0.1990094
-5.350543	charmer
-5.350543	charmides
-4.146423	charming
-5.350543	charmingly
-4.651573	charms	-0.1065512
-5.049512	charondas	-0.0796973
-5.350543	chase
-5.350543	chased	-0.1774088
-4.748483	chasm
-5.049512	chasms
-5.350543	chasten
-5.350543	chastened
-5.350543	chastise
-5.350543	chastises
-5.350543	chastising
-5.350543	chastity
-4.748483	cheat
-5.350543	cheek
-5.350543	cheered
-4.873421	cheese	-0.05149361
-5.049512	cheiron	-0.3532463
-5.350543	chemical	-0.1774631
-5.350543	chemistry
-5.350543	cherish
-5.350543	cherished
-5.350543	cherisher
-5.350543	cherishes
-5.350543	chestnuts
-4.204414	chief	-0.035965
-4.873421	chiefest
-4.30915	chiefly	-0.04636893
-5.350543	chiefs
-3.903385	child	-0.1107622
-4.30915	childhood	-0.1279669
-5.350543	childish
-3.239953	children	-0.2123842
-5.350543	chimera
-5.350543	china	-0.1774631
-5.049512	chines	-0.3487218
-5.350543	chirping
-5.350543	chisel
-4.120094	choice
-5.350543	choices
-3.935569	choose	-0.06197695
-5.350543	chooser
-4.873421	chooses	-0.05148199
-4.572392	choosing
-5.350543	chords
-4.651573	chorus
-5.049512	choruses	-0.07969536
-4.3963	chose	-0.1566722
-4.120094	chosen
-4.174451	christ	-0.107025
-5.350543	christendom
-4.00812	christian	-0.07494586
-4.873421	christianity
-4.748483	christians
-5.350543	chronique	-0.1774631
-5.049512	chronological	-0.07971086
-5.350543	chronology
-4.651573	chryses	-0.0625546
-4.120094	church	-0.1371641
-5.049512	churches	-0.0797283
-5.350543	churlish
-4.447453	cicero
-4.271361	circle	-0.1120572
-4.572392	circles	-0.1622792
-5.350543	circuit
-5.049512	circuitous	-0.3531882
-5.350543	circuits
-5.350543	circule
-5.350543	circumcision
-5.049512	circumference
-5.350543	circumferences
-4.3963	circumstance	-0.9941659
-5.350543	circumstanced
-3.832029	circumstances	-0.1576469
-5.350543	circumvent	-0.1774127
-5.350543	circumventing	-0.1774127
-5.350543	citadel
-5.350543	citations
-3.888145	cities	-0.0989401
-5.350543	citing
-4.071789	citizen	-0.07931693
-3.239953	citizens	-0.128987
-4.651573	citizenship
-3.177356	city	-0.2670444
-5.350543	civic
-4.572392	civil	-0.304993
-5.049512	civilisation
-5.350543	civilities
-5.350543	civility
-4.505445	civilization
-5.350543	civilize
-4.146423	civilized	-0.04119685
-5.350543	civilizing
-5.350543	civitate	-0.1774631
-4.350543	claim	-0.2605971
-5.350543	claimed
-5.350543	claiming
-4.748483	claims	-0.3025586
-5.350543	clapping
-3.346221	class	-0.2503864
-5.350543	class.the
-3.70709	classes	-0.1847112
-5.049512	classical	-0.1774243
-5.049512	classics
-5.350543	classification
-5.350543	classifying
-5.049512	clause	-0.07970698
-4.572392	clean	-0.223333
-3.859181	clear	-0.2154588
-4.873421	cleared	-0.2011675
-4.236599	clearer	-0.03795331
-5.350543	clearest
-5.049512	clearing
-3.458448	clearly	-0.2760983
-4.120094	clearness	-0.1120393
-5.350543	cleisthenes
-4.505445	cleitophon	-0.09881777
-5.049512	clement
-5.350543	clergy
-4.447453	clever	-0.2487013
-5.350543	cleverest
-5.350543	cleverly	-0.1774611
-4.651573	cleverness
-5.049512	climate
-5.049512	clime
-4.873421	cling	-0.4921372
-5.350543	clinging
-5.350543	clings
-5.350543	cloak	-0.1774379
-4.447453	close	-0.0185988
-5.350543	closed
-5.350543	closely	-0.1774457
-5.350543	closing
-5.350543	clothe
-4.505445	clothed	-0.4665849
-4.748483	clothes	-0.2954167
-5.350543	clothing
-4.447453	clotho	-0.3515889
-4.748483	clouds
-5.350543	club
-5.350543	clubs
-5.350543	clue
-5.350543	clumsiness
-5.049512	clumsy	-0.0797283
-4.651573	co	-0.2396274
-4.748483	coarse	-0.03803604
-5.350543	coarseness
-5.350543	coarser	-0.1774243
-4.572392	coat	-0.1638882
-5.350543	coats
-4.174451	cobbler	-0.07127688
-4.505445	cobblers	-0.2405391
-4.748483	cobbling
-5.049512	cock
-5.049512	cocytus	-0.3349532
-5.350543	coddling
-5.350543	coerces
-5.350543	coextensive
-5.350543	cognate
-5.350543	cognizable
-4.651573	coincide	-0.2284572
-5.049512	coincidence
-5.350543	coincidences
-5.350543	coincides
-5.049512	coined	-0.352802
-4.271361	cold	-0.0775041
-5.350543	coldly
-4.873421	coleridge
-4.651573	colleagues	-0.1062175
-5.350543	collecting
-5.049512	collective
-5.049512	collectively
-5.350543	colleges
-4.873421	collet	-0.1099231
-5.350543	collocation
-5.350543	colonies
-4.204414	colour	-0.04651615
-4.873421	coloured	-0.1990094
-4.146423	colours	-0.1436988
-5.350543	colts	-0.1774263
-4.3963	column	-0.2554088
-5.350543	combating
-5.350543	combe
-4.505445	combination	-0.9359209
-4.3963	combinations
-4.651573	combine
-4.3963	combined	-0.2736541
-5.350543	combines
-5.049512	combining	-0.07972636
-3.30915	come	-0.3221965
-5.350543	comedies	-0.1774301
-4.505445	comedy
-5.350543	comeliness
-5.049512	comer
-3.551202	comes	-0.3507651
-5.350543	comfort
-5.049512	comfortable
-5.350543	comforter
-5.049512	comforts
-4.748483	comic	-0.03803217
-4.09527	coming	-0.09695749
-4.028323	command	-0.0885628
-4.651573	commanded	-0.2279313
-5.350543	commanders
-4.447453	commands	-0.1105611
-5.350543	commence
-4.651573	commencement	-0.6351329
-5.350543	commencing
-5.350543	commend
-5.049512	commensurable	-0.3349532
-5.350543	commensurate
-5.350543	commentators
-5.350543	commerce
-5.049512	commercial
-4.505445	commit	-0.07528164
-4.572392	committed
-5.049512	committing
-5.049512	commodities
-3.267757	common	-0.2688463
-4.873421	commoner	-0.0514878
-4.146423	commonly	-0.03906208
-4.873421	commonplace	-0.0514723
-4.873421	commonplaces	-0.4833863
-4.3963	commonwealth	-0.2288079
-4.873421	commonwealths	-0.1930117
-5.350543	commotion
-5.350543	communicate	-0.1774437
-4.873421	communicated	-0.4921372
-5.350543	communicates	-0.1774224
-5.350543	communication
-5.350543	communications
-4.651573	communion	-0.2284572
-4.3963	communism
-5.049512	communistic	-0.1774147
-5.350543	communists
-3.727293	community	-0.3811499
-4.873421	compact
-4.447453	companion	-0.1972687
-4.120094	companions	-0.02749538
-5.049512	companionship
-3.845393	company	-0.1285074
-5.350543	comparable
-4.447453	comparative	-0.1544509
-5.049512	comparatively	-0.07971861
-4.30915	compare	-0.3914828
-3.919179	compared	-0.9547288
-4.447453	compares	-0.1429389
-4.748483	comparing
-4.120094	comparison	-0.7648346
-5.350543	comparisons
-5.350543	compass
-4.447453	compel	-0.2989449
-3.819064	compelled	-0.6241947
-4.651573	compelling	-0.4017854
-4.572392	compels	-0.1519825
-5.350543	compensating	-0.1774321
-4.572392	compete	-0.4527409
-5.350543	competition
-5.350543	competitor
-4.873421	complain
-5.350543	complainers
-5.350543	complaining
-4.748483	complaints	-0.1411493
-4.271361	complete	-0.1673837
-4.447453	completed	-0.06336676
-4.447453	completely	-0.07970109
-5.350543	completion
-4.30915	complex	-0.02732347
-5.350543	complexion
-4.651573	complexity	-0.2628204
-5.350543	complicated
-5.350543	complicating
-5.350543	complications
-4.873421	compliment	-0.0514878
-4.748483	compose	-0.1393157
-4.30915	composed	-0.09657077
-4.651573	composite	-0.03014369
-4.748483	composition	-0.2938077
-5.350543	compositions
-4.873421	compound
-5.049512	compounded
-4.873421	comprehend
-4.30915	comprehended	-0.230451
-4.873421	comprehending
-5.350543	comprehends
-5.350543	comprehension
-4.748483	comprehensive	-0.03803604
-5.350543	comprehensiveness
-4.873421	compromise
-4.748483	compulsion	-0.07971661
-5.350543	compulsory
-5.049512	compunction
-5.350543	computation
-5.350543	comrade
-5.049512	comrades
-5.350543	concave
-5.350543	conceal
-4.748483	concealed
-4.572392	concealment	-0.3033839
-5.350543	conceals
-5.350543	concede
-5.049512	conceit
-4.873421	conceited
-5.049512	conceits	-0.07971861
-4.651573	conceivable	-0.1094518
-3.832029	conceive	-0.06405611
-3.952603	conceived	-0.08179089
-4.873421	conceives
-4.873421	conceiving
-5.350543	concentrated
-5.350543	concentration
-3.61018	conception	-0.7348711
-4.30915	conceptions	-0.2187396
-4.748483	concern
-3.832029	concerned	-0.6713476
-4.09527	concerning	-0.02704456
-5.350543	concernment
-4.651573	concerns	-0.1086373
-4.873421	conclude	-0.1957696
-5.049512	concluded
-5.049512	concluding	-0.07972636
-3.935569	conclusion	-0.1906558
-4.3963	conclusions	-0.07299815
-5.049512	concord
-5.049512	concrete
-4.572392	concupiscent
-4.873421	condemn
-4.873421	condemnation
-4.505445	condemned
-5.350543	condemning
-5.350543	condensed	-0.1774437
-4.873421	condescend	-0.4921372
-5.350543	condescends
-4.873421	condiments
-3.678445	condition	-0.2435032
-5.350543	conditional
-4.049512	conditions	-0.3264841
-5.049512	conduce	-0.342095
-5.350543	conduces
-4.873421	conducive	-0.4921372
-4.505445	conduct
-4.873421	conducted
-5.049512	conducting	-0.3536282
-5.350543	conductor
-5.350543	confectionary
-5.350543	confectioners
-5.350543	confections
-4.873421	confer
-5.049512	conferring
-5.350543	confers
-4.873421	confess
-4.873421	confession	-0.05149361
-4.748483	confidence
-4.748483	confident
-5.049512	confidently	-0.07971667
-5.350543	confiding
-5.350543	confine
-4.146423	confined	-1.192567
-5.350543	confines
-5.049512	confirmation
-4.748483	confirmed	-0.6713256
-5.350543	confirms
-5.350543	confiscate
-5.350543	confiscation
-4.651573	conflict	-0.2102222
-5.350543	conflicting	-0.177436
-5.350543	conflicts	-0.1774476
-4.447453	conform	-0.2781781
-5.049512	conformed
-5.350543	conformity
-5.049512	confound	-0.07971861
-5.049512	confounded	-0.3515792
-5.350543	confounding
-5.350543	confronted
-4.651573	confuse
-4.271361	confused	-0.05383582
-4.146423	confusion
-5.049512	congenial
-5.350543	congregate
-4.651573	conjecture
-5.350543	conjoined
-5.350543	conjugates
-5.350543	conjure
-5.350543	conjuring
-4.505445	connect	-0.2574556
-4.350543	connected	-0.4211025
-4.873421	connecting	-0.2866481
-4.447453	connection	-0.2155037
-5.049512	connections
-5.350543	connects
-4.3963	connexion	-0.2550038
-5.350543	connexions	-0.1774534
-5.350543	connoisseurs
-5.350543	connotation
-5.350543	conquer
-5.049512	conquered
-5.350543	conquering
-5.350543	conqueror	-0.1774631
-5.049512	conquerors
-5.350543	conquest
-5.350543	conquests
-4.873421	conscience
-4.350543	conscious	-0.4571173
-5.350543	consciously
-4.651573	consciousness	-0.2102222
-5.350543	consecrate
-5.350543	consecrated
-4.748483	consent
-5.350543	consented
-4.174451	consequence	-0.3964078
-4.447453	consequences
-5.049512	consequently	-0.1774263
-5.350543	conservative
-3.458448	consider	-0.2902298
-4.350543	considerable	-0.1481701
-5.350543	considerably	-0.1774476
-5.350543	considerate
-4.505445	consideration	-0.332672
-4.873421	considerations
-3.935569	considered	-0.1426123
-4.572392	considering	-0.08337303
-4.572392	considers	-0.08494508
-4.748483	consist
-5.350543	consisted
-4.748483	consistency
-4.271361	consistent	-0.3156184
-4.748483	consisting	-0.6536165
-4.447453	consists	-0.4284616
-5.350543	consolation
-5.350543	consoled
-5.049512	consonances	-0.3487218
-5.350543	consort
-5.350543	consorted
-5.350543	consorts
-5.350543	conspicuous	-0.1774457
-5.350543	conspiracy
-4.873421	conspire	-0.2013595
-5.049512	conspired
-5.350543	conspiring
-5.350543	constancy
-4.651573	constant	-0.09758465
-4.748483	constantly	-0.125823
-4.873421	constitute
-4.651573	constituted
-5.049512	constitutes	-0.3535468
-3.717074	constitution	-0.26393
-5.049512	constitutional	-0.3523028
-4.30915	constitutions
-5.049512	constrained
-5.049512	constraining
-4.873421	construct
-4.3963	constructed
-4.447453	construction	-0.1972687
-5.350543	constructions
-4.748483	constructive
-5.350543	constructs
-4.873421	consult	-0.05148199
-5.350543	consulting
-5.049512	consume
-5.049512	consummate	-0.07969342
-5.049512	consummation
-4.873421	consumption
-4.505445	contain
-4.236599	contained	-1.140213
-4.651573	containing	-0.2525217
-4.447453	contains	-0.06456152
-5.350543	contamination
-5.350543	contemns
-4.505445	contemplate
-5.350543	contemplated
-5.049512	contemplates
-5.350543	contemplating
-4.049512	contemplation	-0.9796966
-5.350543	contemplations
-4.236599	contemporaries
-4.748483	contemporary	-0.1774087
-4.651573	contempt
-5.350543	contemptible
-5.049512	contemptuous
-4.873421	contending
-5.350543	contends
-4.350543	content	-0.04923045
-4.505445	contented
-4.447453	contention	-0.1105611
-4.748483	contentious	-0.1375174
-5.350543	contentiousness
-5.350543	contents
-4.30915	contest
-4.873421	contests	-0.05148974
-4.873421	contingent	-0.2014642
-4.873421	continually	-0.05148974
-5.350543	continuance
-5.350543	continuation
-4.09527	continue	-0.5748951
-4.572392	continued	-0.02497916
-5.049512	continues	-0.342095
-4.748483	continuing
-4.572392	continuous	-0.02497723
-5.350543	continuously
-5.350543	contracted	-0.1774282
-5.350543	contractors
-4.3963	contracts
-5.350543	contradict
-5.350543	contradicted
-5.049512	contradicting
-4.146423	contradiction	-0.1752756
-5.350543	contradictions
-4.748483	contradictory	-0.07970885
-5.350543	contraries
-4.09527	contrary	-0.2048994
-4.30915	contrast	-0.01577668
-4.873421	contrasted
-4.748483	contrasting	-0.03802442
-4.873421	contrasts	-0.1995353
-5.350543	contribute
-5.350543	contributed
-5.049512	contributes
-5.049512	contribution
-5.350543	contrivances
-4.748483	contrive	-0.1359454
-5.049512	contrived
-5.350543	contriving	-0.177436
-4.00812	control	-0.02230211
-4.651573	controlled	-0.2279313
-5.350543	controlling
-5.350543	controls
-5.350543	controversial	-0.1774379
-4.873421	controversy
-5.350543	convenance	-0.1774088
-5.350543	convenience
-5.049512	conveniences
-5.350543	convenient
-5.049512	conveniently	-0.07972442
-5.350543	convent
-5.350543	convention
-4.651573	conventional	-0.1093859
-4.271361	conversation	-0.04024876
-4.350543	converse	-0.2122149
-5.350543	conversed
-4.651573	conversely	-0.2131238
-4.873421	conversing	-0.1995353
-4.447453	conversion
-5.049512	convert
-4.447453	converted	-0.327541
-5.049512	converting
-4.873421	converts	-0.5028442
-5.350543	convex	-0.1774437
-5.350543	convey
-4.748483	conveyed
-5.350543	conveys
-5.049512	convict
-4.572392	conviction	-0.1767485
-5.350543	convictions
-4.3963	convince	-0.0560487
-4.174451	convinced	-0.2493635
-4.748483	convincing
-5.350543	convivial	-0.1774205
-5.049512	convulsions
-5.350543	convulsively
-4.873421	cookery
-5.049512	cooks	-0.07972636
-5.350543	coolness
-5.350543	cope
-5.350543	copies
-5.049512	coping	-0.353634
-5.350543	copper
-4.572392	copy
-5.350543	cordial
-5.049512	corinth	-0.0797283
-4.873421	corinthian	-0.1774573
-4.651573	corn	-0.2644274
-4.873421	corner	-0.4833863
-5.350543	corners
-5.350543	corporate
-5.350543	corporation
-5.350543	corpse
-4.3963	correct	-0.03363747
-5.049512	corrected
-5.350543	correcting
-5.049512	correction
-5.350543	corrections
-5.350543	corrective
-5.350543	correctly
-5.350543	correctors
-4.572392	correlation	-0.4345058
-5.049512	correlative
-4.873421	correlatives
-4.30915	correspond	-0.1782494
-5.350543	corresponded
-4.028323	corresponding	-0.2200377
-4.651573	corresponds	-0.6438837
-4.447453	corrupt	-0.06266586
-4.30915	corrupted	-0.3598944
-4.873421	corrupters	-0.4833863
-4.651573	corrupting
-5.350543	corruptio	-0.1774631
-4.00812	corruption	-0.2195251
-4.873421	corruptions
-5.350543	corruptors
-5.049512	corrupts
-5.049512	cost
-5.049512	costly
-4.873421	couches	-0.199909
-5.350543	coughed
-3.321159	could	-0.3368292
-5.049512	council
-4.236599	counsel
-5.350543	counselling
-4.748483	counsellor
-4.873421	counsellors
-4.447453	counsels	-0.1118537
-4.3963	count
-4.873421	counted
-5.350543	counteracting	-0.1773856
-5.350543	counterbalanced
-4.873421	counterpart
-5.350543	counters
-5.350543	counteth
-5.350543	counting
-5.350543	countless
-4.204414	countries	-0.07720679
-3.759478	country	-0.03781448
-5.350543	countrymen
-3.634539	courage	-0.2824244
-4.236599	courageous	-0.03696965
-5.350543	courageously	-0.1774631
-3.587115	course	-0.5252166
-5.350543	courses
-5.350543	coursing
-4.651573	court
-5.350543	courteous
-5.350543	courtesans
-5.350543	courtezan
-5.049512	courtezans
-5.350543	courtier
-4.3963	courts	-0.1669688
-5.350543	cousin
-5.350543	covenants
-4.572392	cover	-0.08674338
-5.049512	covered
-5.350543	covering
-4.505445	covetous	-0.07102349
-5.350543	covetousness
-4.873421	coward
-4.505445	cowardice	-0.1326189
-4.651573	cowardly
-4.651573	cowards	-0.06256622
-4.873421	craft	-0.05148393
-5.049512	crafts	-0.3362458
-4.873421	craftsmen
-5.049512	crafty	-0.07972636
-5.350543	cram
-5.350543	crave
-5.350543	creaking
-4.3963	create
-4.447453	created	-0.1105611
-4.651573	creates
-5.049512	creating
-4.09527	creation	-0.3899276
-4.447453	creations	-0.2893755
-4.505445	creative	-0.1475362
-4.3963	creator	-0.2259063
-4.204414	creature	-0.05754725
-4.748483	creatures
-5.350543	creches
-5.049512	credibility
-5.350543	credible	-0.1774573
-5.350543	creditable
-5.350543	creed
-5.049512	creep
-5.049512	creophylus
-5.350543	crept
-5.350543	crest
-5.049512	cretan	-0.0797128
-5.049512	cretans
-5.350543	crete
-5.350543	cretic	-0.1774263
-4.748483	crew	-0.03803604
-5.049512	cries
-4.447453	crime	-0.06502882
-4.447453	crimes	-0.1105611
-4.651573	criminal
-4.651573	criminals
-4.873421	crises
-5.049512	crisis	-0.07971861
-4.3963	criterion	-0.1669688
-4.651573	critias
-5.350543	critical	-0.1774243
-5.350543	criticise	-0.1774534
-5.350543	criticised
-4.447453	criticism
-5.049512	criticisms
-5.350543	critics
-5.049512	croesus
-5.350543	cromwell
-5.049512	cronus	-0.0797283
-4.572392	crooked	-0.02497916
-5.350543	crookedness
-5.350543	cross	-0.1774553
-5.350543	crotchets
-5.350543	crow
-4.748483	crowd	-0.03803604
-5.049512	crowded	-0.07970892
-5.350543	crowding
-4.651573	crown
-4.447453	crowned	-0.1371044
-5.350543	crowning
-5.350543	crowns
-5.350543	crucified
-5.350543	crude	-0.1774611
-5.350543	crudest	-0.1774631
-4.748483	cruel	-0.03801473
-5.049512	cruelty	-0.3450556
-4.748483	crushed
-4.748483	cry
-4.873421	crying	-0.2015998
-4.204414	cube	-0.4268547
-4.30915	cubed	-0.2180185
-4.572392	cubes	-0.3033839
-5.350543	cubing	-0.1774457
-5.350543	cubits	-0.1774185
-4.572392	cultivated
-5.049512	cultivates
-5.350543	cultivating
-4.572392	cultivation	-0.3033839
-4.572392	culture
-5.049512	cunning
-4.873421	cup	-0.1099251
-5.049512	cups
-4.120094	cure
-4.447453	cured	-0.1518953
-5.350543	cures
-4.873421	curiosity
-4.350543	curious	-0.03015531
-4.748483	curiously	-0.07972242
-5.350543	current
-5.350543	curriculum
-5.350543	curriers
-5.049512	curse
-5.049512	cursed	-0.07972249
-5.350543	cursing
-5.350543	curtail
-5.049512	cushioned	-0.1774573
-4.350543	custom
-4.572392	customary	-0.0797031
-4.505445	customs	-0.02132259
-4.30915	cut	-0.2798472
-5.350543	cutpurses
-4.748483	cutting	-0.1416865
-4.572392	cycle
-5.049512	cycles
-4.873421	cyclical	-0.503399
-4.873421	cylinder	-0.05148587
-5.350543	cynic
-5.350543	cynics	-0.177434
-5.049512	dactylic	-0.07972636
-5.049512	daedalus	-0.3493856
-5.350543	daemonium
-5.350543	dagger
-4.651573	daily	-0.2823443
-5.350543	dainties
-5.049512	dainty
-5.350543	dally
-5.350543	damaged
-5.350543	damaging
-4.505445	damon
-5.049512	damsel	-0.3517058
-5.350543	dance
-5.350543	danced
-5.049512	dancers	-0.1774573
-5.350543	dances
-3.806475	danger	-0.111083
-4.3963	dangerous	-0.05148395
-4.236599	dangers	-0.1948403
-4.651573	dante	-0.1444179
-4.146423	dare	-0.7385765
-5.049512	daring
-4.204414	dark	-0.2072442
-4.748483	darkened
-5.049512	darker	-0.3526894
-4.873421	darkly
-4.174451	darkness	-0.2213293
-5.350543	darter
-5.350543	dash
-5.350543	data
-4.873421	date
-4.873421	dates
-5.350543	dating
-4.146423	daughter	-0.2455574
-4.572392	daughters	-0.1622792
-4.873421	dawn
-5.350543	dawned
-3.524468	day	-0.07589718
-5.350543	daylight
-3.888145	days	-0.2817308
-4.651573	dazzled	-0.1068846
-4.572392	de	-0.2286288
-3.970331	dead	-0.1408499
-5.049512	deaf
-4.071789	deal	-0.178808
-4.873421	dealing
-4.505445	dealings
-3.873421	dear	-0.5059363
-5.350543	dearer
-5.049512	dearest
-3.579691	death	-0.269663
-5.350543	deaths
-5.350543	debated	-0.1774592
-4.236599	debt	-0.1986704
-5.350543	debtors
-4.3963	debts	-0.09414749
-4.3963	decay	-0.1685778
-4.873421	deceit	-0.05147037
-5.350543	deceitful	-0.1773953
-4.3963	deceive	-0.1208239
-4.236599	deceived	-0.1330724
-5.049512	deceiver
-4.873421	deceives	-0.1971655
-4.651573	deceiving	-0.1086373
-5.049512	decency
-4.572392	deception	-0.0859457
-4.572392	decide
-4.447453	decided	-0.1234214
-5.350543	decides
-4.505445	decision
-5.350543	decisive
-5.350543	decked
-5.350543	declaration
-4.505445	declare	-0.2540852
-5.350543	declared
-4.748483	declares	-0.308277
-4.572392	declaring	-0.4489751
-4.236599	decline	-0.1003139
-5.049512	declined	-0.342095
-5.049512	declines
-4.651573	declining
-5.350543	decomposition
-5.350543	decreased
-5.350543	decreasing
-5.049512	dedicate
-4.748483	dedicated	-0.3025586
-5.350543	dedication
-5.049512	deduction
-4.350543	deed
-4.350543	deeds	-0.04837109
-4.350543	deem	-0.08859098
-4.049512	deemed	-0.1009772
-5.350543	deeming
-4.873421	deems
-4.505445	deep	-0.04373321
-5.350543	deepen
-4.572392	deeper	-0.1192352
-4.447453	deeply	-0.05836458
-5.350543	defeat
-5.350543	defeated
-5.350543	defeats
-4.350543	defect
-4.873421	defective	-0.1930117
-4.572392	defects	-0.1622792
-4.146423	defence	-0.1008361
-4.350543	defend	-0.09989546
-5.350543	defendant
-4.651573	defenders
-5.049512	defending
-5.049512	defer
-5.350543	deferred
-5.350543	deficiencies
-4.873421	deficiency
-4.651573	deficient	-0.4237934
-5.350543	defiled
-4.447453	define	-0.0185988
-4.271361	defined	-0.3004579
-5.049512	defines
-5.049512	defining
-4.447453	definite	-0.1810998
-5.049512	definitely	-0.177436
-4.873421	definiteness
-4.174451	definition	-0.4616807
-5.049512	definitions
-5.350543	defoe
-5.049512	deformed
-4.572392	deformity
-4.748483	defraud
-5.350543	defrauded
-5.350543	defy
-5.049512	degeneracy
-5.049512	degenerate
-5.350543	degenerated
-4.873421	degenerates
-4.873421	degradation
-5.350543	degrade
-4.651573	degraded	-0.03014562
-5.350543	degrading
-3.61018	degree	-0.2656761
-4.236599	degrees	-0.2627796
-5.350543	dei
-5.350543	deify
-5.049512	deign	-0.342095
-4.572392	deities
-4.873421	deity	-0.05147811
-5.350543	delayed
-5.350543	deliberate
-5.350543	deliberately	-0.1774573
-5.350543	delicacies
-5.049512	delicacy
-5.350543	delicate	-0.1773856
-4.3963	delight	-0.1786802
-4.3963	delighted	-0.1012893
-4.873421	delightful
-5.049512	delighting
-4.572392	delights
-5.049512	delineate
-4.748483	delineated
-4.873421	delineation
-5.350543	deliver
-4.873421	delivered	-0.2000976
-5.350543	delivering
-4.873421	delphi
-5.350543	delphian
-5.350543	deluded
-5.350543	deluding
-5.350543	deluge
-5.049512	deluged
-5.350543	deluges
-4.873421	delusion
-5.350543	demagogues	-0.1774127
-4.30915	demand	-0.04408439
-5.049512	demanded
-5.049512	demanding	-0.07970117
-4.505445	demands
-4.873421	demigods	-0.1829093
-4.651573	democracies
-3.572391	democracy	-0.07973237
-4.505445	democrat	-0.07406512
-4.30915	democratic	-0.2117107
-4.271361	democratical	-0.0954361
-5.350543	democrats
-5.350543	demolished	-0.1774437
-5.350543	demonic	-0.1774515
-5.350543	demonstrate
-5.350543	demonstrated
-5.350543	demonstration
-5.350543	demonstrative
-5.049512	demus	-0.07970311
-3.988815	den	-0.1426959
-5.350543	denaturalized
-5.350543	denial
-4.447453	denied	-0.1118537
-4.873421	denies
-5.049512	denote
-4.748483	denoted	-0.3115168
-5.049512	denounced
-5.350543	denounces
-3.970331	deny	-0.5182366
-5.049512	denying
-4.350543	depart	-0.1558759
-5.049512	departed
-4.873421	departing	-0.05148005
-5.350543	department
-4.873421	departments	-0.4833863
-5.049512	departs
-4.873421	departure
-4.505445	depend	-0.5912268
-5.350543	depended
-4.572392	dependent	-0.5377881
-4.748483	depends	-0.07972242
-5.049512	depict	-0.07971474
-4.873421	depicted
-5.049512	deportment
-4.505445	deposit	-0.1310099
-5.350543	deposited	-0.1774224
-5.350543	depraved
-5.350543	depreciate
-5.350543	depreciated
-5.049512	depreciates	-0.07972055
-4.873421	depreciating
-5.350543	depress
-5.350543	depressing
-5.049512	deprivation	-0.07971861
-5.350543	deprive
-4.271361	deprived	-1.09364
-5.350543	deprives
-5.350543	depriving
-4.651573	depth	-0.1089652
-5.049512	deranged
-5.350543	derided
-4.651573	derive	-0.03015531
-4.028323	derived	-0.6217433
-4.873421	derives	-0.1940243
-5.350543	deriving
-5.350543	descartes	-0.1774631
-4.350543	descend	-0.106034
-5.350543	descendant	-0.1774011
-4.748483	descendants
-5.350543	descended
-4.748483	descending
-4.748483	descends	-0.03803023
-4.748483	descent	-0.1402734
-3.970331	describe	-0.1852894
-3.587115	described	-0.4119011
-4.30915	describes
-3.782341	describing	-0.07185058
-3.988815	description	-0.6424546
-5.049512	descriptions
-4.873421	descriptive	-0.2015126
-5.350543	desert
-5.049512	deserted	-0.07972442
-5.350543	deserters
-5.049512	deserting	-0.3529437
-4.651573	deserve	-0.218973
-5.350543	deserved
-5.350543	deservedly	-0.1774611
-5.049512	deserving
-5.350543	desideratum
-4.30915	design
-5.350543	designate
-5.350543	designated	-0.1774437
-5.049512	designates
-5.350543	designation
-4.350543	designed	-0.3790572
-5.350543	designs
-4.30915	desirable	-0.2085041
-5.350543	desirableness
-3.401153	desire	-0.2364021
-4.271361	desired	-0.07021358
-3.426263	desires	-0.1886257
-5.350543	desiring
-4.505445	desirous	-0.4548735
-5.049512	desolate
-5.049512	despair	-0.3362458
-4.505445	despise
-4.748483	despised	-0.1391852
-5.049512	despises	-0.07971474
-5.350543	despising
-5.049512	despoil
-5.350543	despoiled
-5.350543	despoiling
-5.350543	despotism
-5.350543	dessert
-5.350543	destination
-5.049512	destined	-0.342095
-5.350543	destinies
-4.572392	destiny
-4.873421	destitute
-5.350543	destitutes
-3.970331	destroy	-0.3948732
-4.120094	destroyed	-0.3294885
-5.350543	destroyers
-4.651573	destroying	-0.1070152
-5.049512	destroys
-4.3963	destruction	-0.2259063
-5.350543	destructions
-5.350543	destructive
-4.748483	detail	-0.0380283
-5.350543	detailing
-4.651573	details
-5.350543	detain
-4.651573	detained	-0.5168022
-5.350543	detaining
-5.350543	detect
-4.505445	detected	-0.04375065
-5.350543	detective
-5.350543	deteriorate
-4.651573	deteriorated
-5.350543	deteriorates
-5.350543	deterioration
-4.873421	determination	-0.1900512
-4.174451	determine	-0.1021351
-4.00812	determined	-0.2484985
-5.350543	determines
-4.748483	determining	-0.0380283
-5.350543	deterred
-5.350543	detest
-5.049512	detestable
-5.049512	detestation
-5.350543	detract
-5.350543	detraction
-5.049512	devastate
-5.049512	devastation	-0.3333442
-5.049512	develop
-4.651573	develope
-4.651573	developed
-4.873421	developes
-5.049512	developing
-4.3963	development	-0.09253848
-5.350543	developments
-5.049512	deviation
-4.748483	device	-0.6536165
-5.350543	devices	-0.1774631
-5.049512	devise
-5.350543	devised
-5.049512	devising	-0.07972636
-4.651573	devoid	-0.6351329
-4.651573	devote
-4.505445	devoted	-0.2879733
-5.350543	devotes
-4.651573	devotion	-0.218973
-4.651573	devour	-0.2518713
-5.350543	dexterity
-3.782341	dialectic	-0.1497289
-4.3963	dialectical	-0.2401165
-4.505445	dialectician
-4.204414	dialogue	-0.1241712
-4.071789	dialogues	-0.2327794
-4.651573	diameter	-0.412082
-4.651573	diameters
-5.350543	diamonds
-4.873421	dicast
-5.049512	dice
-5.350543	dictate
-3.416044	did	-0.3730368
-4.236599	die	-0.03631719
-4.873421	died	-0.05149361
-4.651573	dies	-0.03015725
-4.651573	diet
-5.350543	dietetics
-5.350543	dieting
-4.146423	differ	-0.3066617
-3.499284	difference	-0.5801
-4.120094	differences	-0.2423394
-3.368271	different	-0.2805329
-4.748483	differently
-5.049512	differing
-4.505445	differs	-0.4736708
-4.049512	difficult
-4.350543	difficulties	-0.04971298
-5.350543	difficultly
-3.48722	difficulty	-0.4486546
-4.873421	diffused	-0.20147
-5.350543	dig
-5.049512	digits	-0.07971667
-5.350543	dignities
-4.505445	dignity	-0.2412249
-4.873421	digressed
-4.873421	digression
-5.350543	digressions	-0.1774398
-5.350543	dilate
-5.049512	diligent
-4.873421	diligently
-5.049512	dimension
-5.350543	dimensions
-4.748483	diminish
-5.049512	diminished	-0.3510533
-5.049512	diminishing
-5.350543	diminutives
-5.049512	dimly
-5.350543	dimmed
-5.350543	dimmer
-5.350543	dine
-5.350543	diner
-5.350543	dining	-0.1774515
-5.350543	dinners
-5.049512	dinning	-0.3450556
-5.049512	diomede
-5.049512	dionysiac	-0.353636
-4.873421	dionysius
-5.350543	dire	-0.1774611
-5.350543	direct	-0.1774166
-4.236599	directed	-0.3040372
-4.120094	direction	-0.02547922
-5.049512	directions
-4.748483	directly	-0.07971661
-5.350543	directness
-4.748483	director
-5.049512	directs
-5.350543	dirt	-0.1774398
-5.350543	disabused
-5.049512	disagree
-5.049512	disagreeable
-5.049512	disagreeing
-5.350543	disagreement
-4.873421	disappear
-5.049512	disappearance
-4.572392	disappeared	-0.3062856
-5.350543	disappointed
-5.350543	disappointing
-5.049512	disappointment
-5.350543	disapprover
-5.350543	disarmed
-5.350543	disarrange
-5.049512	disaster
-5.350543	disbelief
-5.350543	disbelieve
-5.350543	discard
-5.350543	discarded
-4.651573	discern	-0.1999256
-5.049512	discerned
-5.049512	discernible
-5.049512	discerning
-4.748483	discernment	-0.6536165
-5.350543	discerns
-4.572392	disciple	-0.3578033
-4.204414	disciples	-0.2621809
-4.505445	discipline
-5.049512	disciplined
-5.350543	discomposed
-5.350543	discontent
-5.350543	discontented
-5.350543	discontents
-4.174451	discord	-0.2141875
-4.873421	discordant	-0.2865474
-5.350543	discountenanced
-5.350543	discouraging
-4.350543	discourse	-0.05044353
-5.350543	discoursed
-5.049512	discourses
-5.350543	discourtesy
-4.174451	discover	-0.03192962
-3.888145	discovered	-0.02892844
-4.873421	discoveries
-5.350543	discovering
-4.30915	discovery	-0.1694986
-5.350543	discredit
-5.049512	discreditable	-0.07972055
-5.350543	discrepancies
-4.873421	discretion
-4.651573	discuss
-4.236599	discussed	-0.06630792
-5.049512	discussing
-3.935569	discussion
-4.505445	discussions	-0.07465537
-5.350543	disdain
-3.819064	disease	-0.1084196
-4.748483	diseased	-0.1375174
-4.071789	diseases	-0.06990688
-5.350543	disenchanted
-4.873421	disengaged	-0.5021836
-5.350543	disengaging
-5.350543	disentangle
-4.873421	disfigured	-0.1990094
-4.3963	disgrace	-0.09544011
-4.572392	disgraceful	-0.3080925
-5.049512	disguise
-5.350543	disguised
-5.350543	disguises
-5.049512	disgusted	-0.3519529
-5.350543	dish
-5.350543	dishonest
-5.350543	dishonestly
-4.651573	dishonesty
-4.447453	dishonour	-0.06473222
-4.873421	dishonourable	-0.1973417
-4.873421	dishonoured	-0.1990094
-5.049512	dishonours	-0.3532502
-5.350543	disinclined
-4.748483	disinterested	-0.03803604
-5.049512	disinterestedness
-4.651573	dislike	-0.2102222
-5.350543	disliked
-4.748483	dislikes
-4.873421	dismissed
-5.350543	disobedience
-5.350543	disobey
-5.350543	disobeying
-4.350543	disorder
-4.651573	disordered	-0.3343804
-5.350543	disorderly	-0.1774573
-4.505445	disorders
-5.350543	disorganized
-5.350543	disparate
-5.350543	dispelled
-5.049512	dispensation
-5.049512	dispensed
-5.350543	dispenser
-5.350543	dispensing
-5.350543	dispersed	-0.1774476
-5.049512	displayed
-5.350543	displease
-5.350543	disposal
-4.071789	disposed	-0.3129585
-4.651573	disposition
-5.049512	dispositions
-4.873421	disproportion
-5.350543	disproportionate
-5.350543	disproportionately	-0.1774301
-5.049512	disprove
-5.350543	disproved
-5.350543	disproven
-4.572392	dispute	-0.08857696
-5.049512	disputed
-5.049512	disputes
-5.350543	disputing
-5.350543	disqualified
-4.748483	disregard
-4.651573	disregarded
-5.350543	disregarding
-5.350543	disrepute
-5.350543	dissatisfaction
-5.350543	dissatisfactions
-4.748483	dissatisfied	-0.1400847
-5.350543	dissect
-4.873421	dissent	-0.2014312
-5.049512	dissimilar
-5.049512	dissimilarity
-5.350543	dissimilating
-5.350543	dissipation
-5.049512	dissolute
-4.572392	dissolution
-5.350543	dissolve
-4.748483	dissolved
-5.350543	dissolves
-5.350543	distaff
-3.845393	distance	-0.3237948
-5.049512	distances
-4.447453	distant	-0.08330121
-3.888145	distinct	-0.1147382
-3.888145	distinction	-0.4004481
-4.572392	distinctions
-5.350543	distinctive
-4.873421	distinctly	-0.1099057
-5.049512	distinctness
-4.049512	distinguish	-0.2230944
-5.350543	distinguishable
-3.935569	distinguished	-0.1631173
-4.651573	distinguishes
-4.873421	distinguishing
-5.350543	distorted	-0.1774631
-4.748483	distracted
-5.350543	distracting	-0.1773895
-4.572392	distraction
-5.350543	distractions
-5.350543	distracts
-5.350543	distress
-5.049512	distribute
-5.049512	distributing	-0.07970117
-5.049512	distribution
-5.350543	disturb
-5.350543	disturbances
-4.748483	disturbing	-0.3534598
-5.350543	disuse
-5.350543	dithyramb	-0.1774592
-5.350543	divergence
-4.748483	divers
-4.873421	diverse	-0.0514878
-5.350543	diversion
-5.350543	diversities
-5.049512	diversity
-4.748483	divert	-0.3127683
-5.350543	diverted
-5.049512	divested
-4.505445	divide
-3.988815	divided	-0.1905258
-4.748483	divides
-5.049512	dividing
-5.350543	divinations
-3.558151	divine	-0.1286786
-5.049512	divinely	-0.1774399
-4.873421	diviner	-0.0514878
-4.748483	divinity
-3.717074	division	-0.2721146
-3.952603	divisions	-0.3776365
-4.748483	divisors	-0.1954053
-2.571668	do	-0.7078358
-4.748483	doctor	-0.03802248
-5.049512	doctoring
-5.049512	doctors
-5.350543	doctrinaire
-5.350543	doctrinaires	-0.1774611
-4.09527	doctrine	-0.7604092
-4.748483	doctrines
-5.350543	documents
-4.873421	doer
-4.873421	doers
-3.146423	does	-0.5708848
-3.970331	dog	-0.1447209
-5.350543	dogmatic
-3.919179	dogs	-0.2291204
-3.678445	doing	-0.08965519
-5.350543	doings
-5.350543	dolphin
-4.873421	domestic	-0.05149361
-5.350543	dominican	-0.1774611
-4.873421	dominion	-0.4833863
-5.350543	dominus
-4.505445	don	-0.9562068
-4.873421	donaldson
-3.618149	done	-0.1065622
-5.350543	doom
-5.350543	door
-4.748483	doors	-0.03803217
-4.572392	dorian	-0.1638882
-5.350543	dormant	-0.1774611
-5.049512	dose	-0.3333442
-4.3963	double
-4.873421	doubled
-5.049512	doubles
-3.737759	doubt	-0.3044562
-4.748483	doubted	-0.1412657
-4.651573	doubtful	-0.1089652
-5.350543	doubting
-4.505445	doubtless	-0.04374484
-4.748483	doubts	-0.1401936
-3.572391	down	-0.1827415
-5.350543	downfall
-5.049512	downright	-0.1774399
-4.651573	downwards
-4.651573	dr	-0.6380345
-5.049512	drag
-4.572392	dragged	-0.2391415
-5.049512	dragging
-5.350543	draggling
-4.873421	drama
-5.350543	dramas
-4.30915	dramatic	-0.1147553
-5.350543	dramatize
-4.651573	drank	-0.4361505
-5.350543	drapery
-4.748483	draught	-0.1258307
-4.873421	draughts
-3.832029	draw	-0.2786902
-4.236599	drawing	-0.0513113
-5.350543	drawling
-3.952603	drawn	-0.1077427
-4.271361	draws	-0.1585947
-5.049512	dread
-5.350543	dreaded
-4.748483	dreadful	-0.1954072
-3.888145	dream	-0.371232
-4.873421	dreamed
-5.049512	dreamer	-0.0797283
-5.049512	dreamers
-4.873421	dreaming
-4.873421	dreams	-0.4833863
-5.350543	dregs
-4.572392	dress
-5.350543	dresser
-5.049512	dresses
-5.049512	dressing
-4.651573	drew	-0.1070152
-5.350543	dried
-3.618149	drink	-0.2098821
-5.350543	drinker
-4.071789	drinking	-0.007733885
-4.651573	drinks	-0.1018996
-4.873421	drive
-5.350543	drivelling
-4.30915	driven	-0.16485
-5.049512	drives	-0.07969148
-5.049512	driving	-0.1774495
-5.350543	dronage
-4.271361	drone
-5.350543	dronelike
-4.049512	drones	-0.007343794
-4.873421	drop
-4.873421	dropped
-5.350543	dropping
-5.350543	drops
-5.049512	dross	-0.3487218
-5.350543	drought	-0.1774631
-5.049512	drown	-0.3532211
-4.873421	drug
-5.350543	drugs
-4.873421	drunk	-0.05148005
-5.350543	drunkards
-5.049512	drunken	-0.07972636
-4.651573	drunkenness
-5.350543	dry	-0.1774631
-5.350543	drying
-5.350543	dualism
-5.350543	dublin
-4.174451	due	-0.4663764
-5.350543	dues
-5.049512	dull
-5.049512	duller
-5.350543	dullness
-5.350543	dulness
-4.873421	duly	-0.1099076
-5.350543	dumb
-5.049512	durance	-0.0797283
-5.350543	duration
-4.350543	during	-0.1338679
-5.049512	dust
-5.350543	dusty
-4.071789	duties	-0.1427042
-3.903385	duty	-0.2027031
-4.3963	dwell	-0.2043305
-5.350543	dwellers
-4.350543	dwelling	-0.05103523
-4.873421	dwellings
-4.651573	dwells
-4.748483	dwelt	-0.1331875
-5.350543	dwindle
-4.873421	dye	-0.0514878
-5.049512	dyed	-0.3450556
-5.350543	dyeing
-5.049512	dyers
-4.651573	dying	-0.1094072
-5.350543	dynamics
-5.350543	dynasties
-4.30915	e.g	-1.061779
-3.313116	each	-0.3865092
-4.447453	eager	-0.1177029
-5.350543	eagerly
-5.049512	eagerness
-5.049512	eagle
-4.236599	ear
-4.447453	earlier	-0.1374802
-4.505445	earliest	-0.261926
-3.770759	early	-0.2060213
-4.204414	earnest
-4.873421	earnestly
-4.748483	earnestness
-4.00812	ears	-0.08767761
-3.505445	earth	-0.2075058
-4.873421	earthborn	-0.5028363
-4.447453	earthly	-0.0797069
-4.873421	earthquake
-5.350543	earthquakes
-5.049512	ease
-4.873421	easier	-0.1098786
-5.049512	easiest
-3.669301	easily	-0.04016891
-4.748483	east
-5.350543	eastern	-0.1774631
-3.859181	easy	-0.1141336
-4.447453	eat	-0.01859492
-5.350543	eaten
-5.049512	eaters
-4.146423	eating	-0.7097431
-5.350543	eats
-5.350543	eccentricity
-5.350543	ecclesiastic
-5.049512	ecclesiastical	-0.1774321
-5.350543	ecclesiastics
-5.350543	eccleziazusae
-4.748483	echo	-0.1368536
-5.350543	echoed
-5.350543	ecliptic
-5.049512	economic
-5.049512	economies
-4.873421	economy
-5.350543	ecstasy
-5.049512	edge
-5.049512	edges
-5.350543	edification
-5.350543	edition
-4.505445	educate
-3.859181	educated	-0.06705476
-4.748483	educating
-3.109993	education	-0.3454917
-5.350543	educations
-4.748483	educator	-0.2938077
-5.350543	educators
-5.350543	effaced
-3.759478	effect	-0.1888159
-4.271361	effected	-0.4347067
-5.049512	effecting
-4.572392	effects	-0.08428128
-5.049512	effeminacy
-5.049512	effeminate
-5.350543	efficient
-5.049512	effluence
-4.3963	effort	-0.09253848
-4.572392	efforts	-0.08751237
-5.350543	eggs
-5.350543	ego
-5.350543	egotistical
-4.873421	egypt
-5.049512	egyptian	-0.07972636
-4.873421	egyptians
-5.049512	eight
-4.236599	eighth	-0.04543691
-3.100123	either	-0.2817168
-5.350543	elaborated
-5.350543	elapsed
-5.350543	elastic
-5.350543	elasticity
-4.350543	elder	-0.05038334
-4.748483	elders
-5.350543	eleatic
-5.049512	elected
-4.873421	elegiac	-0.109896
-3.737759	element	-0.2349001
-4.873421	elementary	-0.05147037
-3.748483	elements	-0.4769545
-5.350543	eleusinian	-0.1774611
-4.505445	elevate
-4.873421	elevated
-4.505445	elevating	-0.07520995
-5.049512	elevation
-4.873421	elicit
-4.873421	elicited	-0.5021836
-5.350543	elicits
-5.350543	eliminate
-5.350543	eliminated
-5.350543	eliot
-5.350543	eloquent
-5.350543	eloquently
-3.537629	else	-0.1910133
-4.271361	elsewhere
-5.350543	emaciated
-4.873421	emancipated
-5.350543	emancipation
-5.049512	embassy
-5.350543	embellished
-5.350543	emblazoned
-4.873421	embodied	-0.4950977
-5.049512	embodies
-4.651573	embodiment	-0.6351329
-5.350543	embrace
-5.049512	embraced
-5.049512	embraces
-5.350543	embracing
-5.049512	embroidered	-0.07972636
-5.350543	embroiderer
-4.873421	embroidery	-0.05148974
-5.350543	embryo
-5.350543	emerge
-5.350543	emetic
-5.350543	emigration	-0.1774553
-5.350543	eminence
-4.651573	eminent	-0.06256428
-5.049512	eminently
-5.049512	emotion
-5.350543	emotional
-4.873421	emotions
-5.049512	emphatically
-4.236599	empire	-0.1032156
-4.873421	empires
-5.049512	empirics
-4.505445	employ
-4.447453	employed	-0.06253529
-4.873421	employing
-4.748483	employment
-4.505445	employments
-5.350543	employs
-5.350543	emptied
-4.748483	empty	-0.1954246
-5.350543	emulating
-5.350543	emulous
-4.350543	enable	-0.3160173
-5.049512	enabled
-4.873421	enables
-5.350543	enact
-5.049512	enacted
-5.350543	enacting
-5.049512	enactment
-4.505445	enactments	-0.07105675
-5.350543	enamoured
-5.350543	encamp
-4.873421	encamped
-5.049512	enchant
-5.350543	enchanted
-5.350543	enchanter
-5.350543	enchanters
-4.873421	enchantment	-0.05147618
-5.049512	enchantments
-5.350543	enclosed
-5.350543	enclosure
-5.350543	encomiasts
-5.350543	encomiums
-4.748483	encourage	-0.1950079
-4.651573	encouraged	-0.2228254
-5.049512	encouragement
-5.049512	encourages
-5.350543	encouraging
-3.341943	end	-0.4978868
-5.350543	endanger
-5.350543	endeared
-5.350543	endearment	-0.1774515
-4.748483	endeavour	-0.3025586
-5.350543	endeavouring
-5.350543	endeavours
-5.350543	ended
-4.572392	ending	-0.1180221
-4.651573	endless	-0.06255266
-5.350543	endowments
-4.146423	ends	-0.1712349
-5.350543	endurable
-4.873421	endurance
-4.30915	endure	-0.1821071
-4.651573	endured
-5.350543	endures
-5.350543	enduring
-3.572391	enemies	-0.1972054
-3.727293	enemy	-0.1561247
-5.350543	energetically
-5.049512	energies
-4.651573	energy
-5.350543	enervated
-5.350543	enervating
-5.350543	enfeebles
-5.350543	enfeebling	-0.1774515
-5.049512	enforce
-4.748483	enforced
-5.350543	enfranchisement
-5.350543	engage
-4.3963	engaged	-0.2376177
-4.873421	engaging
-5.049512	engender	-0.0797283
-5.350543	engendered	-0.1774573
-5.049512	england
-4.3963	english	-0.1568003
-5.350543	engrossing
-5.350543	enigmatical
-5.350543	enjoin	-0.1774631
-5.049512	enjoins
-4.651573	enjoy	-0.03014175
-5.049512	enjoying
-4.873421	enjoyment
-5.049512	enjoyments
-5.350543	enjoys
-4.873421	enlarge	-0.2005406
-4.748483	enlarged	-0.3115168
-4.748483	enlargement	-0.2938077
-5.350543	enlighten
-4.572392	enlightened	-0.08661281
-5.049512	enlightenment
-5.350543	enlist
-5.350543	enlisting
-4.350543	enmity	-0.2279113
-5.049512	ennoble
-5.049512	ennobled
-5.350543	ennobling
-5.350543	enormity
-5.049512	enormous
-3.481311	enough	-0.3817958
-4.049512	enquire	-0.3966243
-4.873421	enquirer
-5.049512	enquirers
-4.873421	enquiries	-0.05149361
-4.873421	enquiring
-3.79424	enquiry	-0.06900237
-5.350543	enrol
-5.350543	enrolled
-4.3963	enslave	-0.05492779
-4.30915	enslaved	-0.1292596
-5.350543	ensued
-5.350543	ensured	-0.1774282
-5.350543	entail
-5.350543	entanglements
-4.09527	enter	-0.3001844
-4.873421	entered	-0.2007581
-5.350543	entering
-5.350543	enterprises
-5.049512	enters	-0.352802
-4.572392	entertain	-0.02497529
-4.3963	entertained	-0.1207439
-5.350543	entertainer
-5.350543	entertaining
-4.748483	entertainment
-5.350543	entertainments
-5.350543	entertains
-5.049512	enthroned	-0.07969148
-4.651573	enthusiasm	-0.1045531
-5.049512	enthusiastic
-5.350543	enthusiastically	-0.1774515
-5.350543	enthusiasts
-4.204414	entire	-0.03523969
-4.049512	entirely	-0.07469758
-5.350543	entitle
-5.049512	entrails
-5.350543	entrance
-5.350543	entreat
-5.049512	entreated
-5.049512	entreaties
-5.350543	entreaty
-4.873421	entrust
-5.049512	entrusted	-0.342095
-5.350543	entwine
-5.049512	enumerate
-5.049512	enumerated
-5.049512	enumerating
-5.049512	enunciated
-5.049512	envious	-0.07972055
-5.350543	environment
-4.748483	envy	-0.03803217
-5.049512	epeus
-4.505445	epic	-0.1276446
-5.350543	epicure	-0.1774631
-5.350543	epicureans
-5.049512	epidemic	-0.07971667
-5.350543	epilogue
-5.350543	episcopari
-5.350543	episode
-5.350543	epistles
-5.049512	epithet
-5.350543	epitome
-5.049512	epoch
-5.350543	equable
-3.888145	equal	-0.08780743
-4.174451	equality	-0.1440513
-5.350543	equalize
-5.350543	equalled
-5.350543	equalling
-3.537629	equally	-0.04121174
-4.447453	equals	-0.04643521
-5.049512	equanimity
-5.350543	equator
-5.049512	equestrian	-0.1774515
-5.049512	equilibrium	-0.1774476
-5.350543	equipped
-4.748483	equivalent	-0.6623673
-4.120094	er	-0.1561576
-5.350543	eradicate
-5.049512	eradicated
-5.350543	erase
-5.350543	erect
-5.049512	eriphyle	-0.0796973
-5.350543	eristic
-4.447453	err
-5.350543	errant
-5.049512	erring
-4.748483	erroneous	-0.03802054
-5.350543	erroneously	-0.1774495
-3.859181	error	-0.2115811
-4.505445	errors
-4.873421	errs
-5.350543	eryxias	-0.1774282
-3.935569	escape	-0.2190558
-4.271361	escaped	-0.2247072
-4.873421	escaping	-0.05147424
-3.952603	especially	-0.2378771
-5.350543	espousals
-5.350543	espoused
-4.120094	essence	-0.130274
-5.350543	essences
-4.271361	essential	-0.1327503
-5.049512	essentially
-4.748483	establish	-0.1878371
-4.271361	established	-0.1149589
-5.350543	establishment
-4.873421	estate
-4.873421	estates	-0.4849953
-5.350543	esteem
-4.651573	esteemed
-5.049512	esteeming
-5.049512	estimate
-5.049512	estimated
-5.049512	estimating
-5.049512	estimation
-5.350543	estranged
-4.651573	etc	-0.6380345
-4.204414	eternal	-0.2367759
-4.651573	eternity	-0.4149837
-4.3963	ethical	-0.09595476
-4.09527	ethics	-0.121352
-4.873421	eulogists	-0.4833863
-5.350543	eumolpus
-5.350543	eunuch	-0.1774573
-5.350543	euphemism
-5.350543	euphemistic
-4.651573	euripides	-0.03015144
-4.505445	europe	-0.07369969
-5.350543	european
-5.350543	europeans
-4.873421	eurypylus	-0.2012994
-5.049512	euthydemus
-5.350543	evacuation
-5.350543	evading
-5.350543	evasion
-3.165851	even	-0.3737975
-4.572392	evening	-0.08569381
-5.049512	event
-4.350543	events	-0.01481397
-3.271361	ever	-0.1229029
-4.873421	everlasting	-0.05148005
-5.350543	everlastingly	-0.1774592
-3.090471	every	-0.4341527
-4.271361	everybody	-0.2382301
-3.832029	everything	-0.08624709
-4.204414	everywhere	-0.0105304
-4.572392	evidence
-5.350543	evidencing
-4.447453	evident	-0.1959769
-4.651573	evidently	-0.09756333
-2.983187	evil	-0.2458552
-3.782341	evils	-0.1698747
-5.350543	evokes
-4.748483	evolution	-0.03803217
-4.236599	exact	-0.09464815
-5.350543	exacted
-5.350543	exactions
-3.79424	exactly	-0.7599218
-4.651573	exactness
-5.049512	exaggerated
-4.873421	exaggerates
-5.350543	exaggerating
-4.748483	exaggeration
-5.350543	exalt
-5.049512	exalted
-5.350543	exalting
-4.748483	examination
-4.447453	examine	-0.1094363
-5.350543	examined
-5.350543	examining
-3.618149	example	-0.1563894
-4.204414	examples	-0.2351669
-4.572392	exceed	-0.02497916
-5.049512	exceeded
-5.049512	exceeding	-0.1774457
-4.873421	exceeds
-3.935569	excellence	-0.4391204
-5.049512	excellences
-4.028323	excellent	-0.08306646
-5.350543	excellently	-0.1774611
-4.028323	except	-0.2728058
-4.873421	excepting	-0.05149361
-4.271361	exception	-0.2973833
-5.049512	exceptional
-4.572392	exceptions	-0.2038078
-4.049512	excess	-0.3264841
-4.447453	excessive	-0.08666726
-4.271361	exchange	-0.08512116
-5.350543	exchanged
-5.049512	excitable
-5.350543	excite
-4.873421	excited
-4.873421	excitement
-5.350543	excites	-0.1774166
-5.350543	exciting
-5.350543	exclaiming
-4.748483	exclude	-0.03803604
-4.748483	excluded
-5.350543	excluding
-5.049512	exclusion
-4.651573	exclusive	-0.1094693
-4.873421	exclusively
-5.350543	exclusiveness
-5.350543	excusable
-4.572392	excuse	-0.3213951
-5.049512	excused
-4.748483	execute
-5.049512	executed
-5.350543	executing
-4.572392	execution	-0.1622792
-4.873421	executioner
-4.00812	exercise	-0.1473603
-4.30915	exercised	-0.202939
-4.174451	exercises	-0.1249045
-4.873421	exercising
-5.049512	exert
-5.049512	exerted
-5.350543	exertion
-4.873421	exhausted
-5.049512	exhibit	-0.3531978
-4.748483	exhibited
-4.873421	exhibiting	-0.05149361
-5.350543	exhibition
-5.350543	exhibits
-5.350543	exhorting
-4.350543	exile	-0.2184432
-4.873421	exiled	-0.05148199
-5.049512	exiles
-5.350543	exiling
-4.09527	exist	-0.2978311
-4.236599	existed	-0.1120253
-3.49321	existence	-0.3374243
-5.350543	existences	-0.1774011
-5.049512	existent
-4.120094	existing	-0.1784011
-4.236599	exists	-0.2459841
-5.350543	exodus
-5.350543	exordium
-5.049512	exotic	-0.3536437
-5.350543	expand
-5.350543	expanse
-5.350543	expansion
-5.350543	expatiates
-4.204414	expect
-4.873421	expectation
-4.120094	expected	-0.6168362
-5.049512	expecting	-0.3478135
-5.350543	expects
-4.873421	expediency
-5.049512	expedient
-5.350543	expedite
-5.350543	expedition	-0.1774631
-4.873421	expeditions
-4.873421	expel
-5.049512	expelled
-5.350543	expelling
-4.748483	expenditure	-0.1375507
-5.049512	expense
-4.873421	expenses
-4.748483	expensive
-3.518034	experience	-0.4126952
-4.505445	experienced	-0.1638185
-4.748483	experiences
-5.350543	experiment
-5.350543	experimenting
-5.350543	expert	-0.1774611
-5.350543	expiate
-5.350543	expiations
-3.952603	explain	-0.1049509
-4.120094	explained	-0.05348492
-4.748483	explaining
-4.572392	explains
-4.146423	explanation	-0.3671628
-4.651573	explanations
-5.350543	explicit
-5.350543	exploits
-5.350543	exporters
-5.049512	exports
-5.350543	expose
-5.049512	exposed
-5.049512	exposition
-5.049512	exposure
-4.30915	express	-0.208443
-4.3963	expressed	-0.1042499
-4.748483	expresses
-5.350543	expressible
-4.748483	expressing	-0.1392514
-3.819064	expression	-0.1754236
-4.572392	expressions	-0.1622792
-4.572392	expressive	-0.4345058
-4.873421	expressly
-4.748483	expulsion
-5.049512	expunge	-0.07972636
-5.350543	exquisiteness
-5.350543	extant	-0.1774127
-4.505445	extend	-0.2483667
-4.651573	extended	-0.218973
-4.572392	extending
-4.572392	extends
-5.350543	extension
-5.350543	extensive
-4.30915	extent
-5.350543	exterior
-3.903385	external	-0.07157288
-5.049512	extinct
-5.049512	extinguish
-4.873421	extinguished	-0.05149361
-5.350543	extinguishing
-5.350543	extirpation
-5.350543	extol
-5.350543	extolled
-5.350543	extract
-5.350543	extracting
-5.350543	extracts
-5.350543	extraneous
-4.271361	extraordinary	-0.01230703
-4.651573	extravagance	-0.412082
-5.350543	extravagances
-4.873421	extravagant
-4.350543	extreme	-0.0677568
-4.748483	extremely	-0.07971467
-4.447453	extremes
-5.049512	extremity
-3.565213	eye	-0.2165643
-5.350543	eyed
-3.530999	eyes	-0.1215426
-4.748483	eyesight
-5.350543	eyewitness
-5.350543	fable
-5.049512	fabric
-5.049512	fabulous	-0.07972249
-4.146423	face	-0.1008361
-4.651573	faces
-5.350543	facetious
-5.049512	facetiously	-0.07970117
-5.350543	facilitate
-5.350543	facilities
-5.350543	facility
-5.350543	facing
-5.350543	facon	-0.1774631
-3.748483	fact	-0.2144781
-4.748483	faction
-5.049512	factions
-5.049512	factors
-4.120094	facts
-3.903385	faculties	-0.2183032
-3.759478	faculty	-0.3510731
-4.748483	fade	-0.3139212
-5.350543	fades
-5.350543	fading
-4.09527	fail	-0.366092
-4.505445	failed	-0.2483667
-4.748483	failing	-0.03801861
-4.071789	fails	-0.2219261
-4.572392	failure	-0.1622792
-4.572392	fain	-0.02497916
-4.3963	faint	-0.01649401
-5.350543	fainter
-5.350543	faintly	-0.1774476
-5.350543	faints
-3.759478	fair	-0.1225818
-5.350543	faire
-4.651573	fairer	-0.1085208
-4.049512	fairest	-0.3351446
-4.049512	fairly	-0.04055195
-4.204414	faith	-0.2468783
-5.049512	faithful
-4.873421	faithless	-0.1099018
-3.903385	fall	-0.2179265
-4.873421	fallacious	-0.05147618
-5.350543	fallacy
-4.049512	fallen	-0.3103074
-5.350543	fallibility
-4.748483	falling
-4.120094	falls	-0.1582265
-3.687785	false	-0.1381575
-3.888145	falsehood	-0.3463389
-5.049512	falsehoods
-4.651573	falsely	-0.03015531
-5.350543	falter
-5.049512	faltering
-4.651573	fame
-4.447453	familiar	-0.1177029
-5.049512	familiarity
-5.350543	familiarize
-5.350543	familiarized
-5.350543	familiarly
-5.350543	familiars
-4.447453	families
-3.618149	family	-0.05016111
-3.952603	famous	-0.1596944
-4.873421	fancied
-5.350543	fancier
-4.447453	fancies	-0.01859492
-4.505445	fanciful	-0.04374678
-3.832029	fancy	-0.2830271
-4.651573	fancying	-0.6496022
-4.873421	fangled
-5.049512	fantastic	-0.07971667
-3.092864	far	-0.482009
-5.049512	fare
-5.350543	farmer
-5.350543	farther
-5.049512	farthest	-0.3521415
-5.049512	fascinated	-0.3510533
-5.049512	fascination
-4.271361	fashion	-0.04024876
-4.748483	fashioned
-4.651573	fashioning
-5.049512	fashions
-4.572392	fast
-5.049512	fasten	-0.0797283
-4.748483	fastened	-0.3025586
-5.350543	fastens
-5.350543	fastidious	-0.1774515
-5.350543	fastness
-4.873421	fat
-4.748483	fatal
-4.572392	fate	-0.02497335
-4.748483	fated	-0.3025586
-4.651573	fates	-0.03014756
-3.48722	father	-0.2543027
-5.049512	fatherland
-5.350543	fatherly	-0.1774398
-4.120094	fathers	-0.1322666
-4.873421	fatted	-0.2866171
-5.049512	fatten
-5.350543	fattens
-4.09527	fault	-0.0815508
-4.873421	faultless
-4.873421	faults	-0.1973417
-5.350543	faulty
-5.350543	faust
-5.350543	favor
-5.350543	favorite	-0.1774631
-4.447453	favour	-0.358546
-4.572392	favourable	-0.08914316
-5.350543	favoured
-4.748483	favourite	-0.0380283
-5.350543	favourites
-5.350543	favours
-5.049512	fawns	-0.3532948
-3.587115	fear	-0.3492117
-4.748483	feared
-5.049512	fearful	-0.3362458
-4.873421	fearing	-0.1957696
-4.873421	fearless
-4.748483	fears	-0.2954167
-5.350543	feasible
-4.350543	feast	-0.01481591
-5.350543	feasting
-4.748483	feasts
-5.350543	feat
-5.350543	feather
-5.350543	feats
-4.651573	feature
-5.350543	featureless
-4.748483	features
-5.350543	fechting
-5.350543	fecundity
-4.651573	fed
-5.350543	federation
-4.873421	feeble
-5.350543	feebler
-4.505445	feed	-0.07493275
-5.350543	feeder
-4.748483	feeding
-4.651573	feeds	-0.2348757
-4.049512	feel
-3.669301	feeling	-0.1373866
-4.071789	feelings	-0.05848943
-4.505445	feels	-0.06945144
-5.350543	fees
-4.236599	feet	-0.03886499
-5.350543	feigned
-5.049512	feigning
-5.350543	felicitate
-4.505445	fell	-0.07524095
-4.204414	fellow	-0.2190743
-4.572392	fellows
-5.049512	fellowship
-4.09527	felt	-0.1571429
-4.204414	female	-0.09418351
-4.873421	females	-0.2849319
-4.873421	feminine	-0.1099134
-5.350543	ferebat
-5.049512	ferocity
-5.049512	fertile
-5.049512	fertility	-0.3349532
-5.350543	fervour
-5.350543	festering	-0.1774398
-4.204414	festival	-0.03459287
-4.572392	festivals	-0.08607452
-5.350543	festive	-0.1774573
-4.873421	fetched	-0.1099193
-5.350543	fetters
-5.350543	feudal
-5.049512	fever	-0.07970892
-3.524468	few	-0.05695
-5.350543	fewest
-4.049512	fiction	-0.1661316
-4.873421	fictions
-4.873421	fictitious
-5.049512	fields
-4.447453	fierce	-0.2007323
-5.049512	fierceness
-5.350543	fiercer
-5.049512	fiery	-0.177405
-4.873421	fifteen	-0.2014603
-4.204414	fifth	-0.1114266
-4.3963	fifty	-0.1886254
-4.049512	fight	-0.2354899
-5.350543	fighter
-4.236599	fighting	-0.09451809
-5.350543	fightings
-4.748483	fights	-0.1397111
-5.350543	figment
-5.350543	figs
-5.350543	figurative	-0.1774573
-3.69733	figure	-0.1897847
-4.00812	figures	-0.26718
-5.350543	figuring
-5.350543	file
-5.350543	filial	-0.1774515
-4.204414	fill	-0.1246161
-4.120094	filled	-0.8580212
-4.873421	filling
-5.049512	fills
-5.350543	film
-4.09527	final	-0.2134425
-4.30915	finally	-0.02732541
-5.350543	finance
-3.436729	find	-0.3456092
-4.30915	finding	-0.08244385
-4.174451	finds	-0.2913123
-4.174451	fine	-0.1283532
-4.651573	finer	-0.1091766
-4.748483	finest	-0.1417737
-4.049512	finger	-0.1058221
-4.651573	fingers
-5.049512	finish
-4.447453	finished
-5.350543	finite
-4.071789	fire	-0.268264
-5.350543	fireside	-0.1774127
-4.572392	firm	-0.08915091
-4.748483	firmly
-5.350543	firmness
-2.771904	first	-0.1745368
-4.873421	fish	-0.2014312
-4.505445	fit
-5.350543	fitful	-0.1774418
-5.049512	fitly	-0.1774224
-4.873421	fitness
-5.350543	fits
-4.447453	fitted	-0.1269632
-5.350543	fitting
-3.845393	five	-0.166298
-4.651573	fix
-3.859181	fixed	-0.2344151
-5.350543	fixedness
-5.049512	fixes
-5.350543	flag
-5.350543	flames
-5.350543	flashing
-5.350543	flat	-0.177434
-4.3963	flatter	-0.01648819
-5.350543	flattered
-5.350543	flatterer
-4.3963	flatterers	-0.1685778
-5.049512	flatteries
-5.049512	flatters	-0.3511195
-4.748483	flattery	-0.1230851
-5.350543	flatulence
-5.350543	flaw
-5.350543	flayed
-5.049512	fled
-5.350543	flee
-4.873421	fleeces
-5.350543	flees
-5.350543	fleet
-5.350543	fleeting
-4.572392	flesh
-5.350543	flew
-5.049512	flies
-5.350543	flinch
-5.049512	flitting	-0.07972442
-5.350543	float
-5.350543	floating
-5.350543	floats
-4.572392	flock
-5.350543	flocking
-4.873421	flocks
-4.873421	flood	-0.4833863
-5.049512	flour
-5.350543	flourishes
-5.350543	flouted	-0.1774205
-4.873421	flow
-4.505445	flower
-4.873421	flowing	-0.1930117
-5.049512	flown
-5.049512	flows
-5.350543	fluctuation
-5.350543	fluctuations
-5.049512	fluently
-4.350543	flute	-0.05128331
-4.873421	flutes	-0.05149361
-5.350543	flutter
-5.350543	flutterings
-4.873421	flux
-4.651573	fly	-0.1915812
-4.748483	flying	-0.1394872
-5.350543	foam
-4.748483	fold
-5.350543	folds
-5.350543	folk	-0.1774611
-4.873421	follies
-3.69733	follow	-0.1111746
-4.174451	followed	-0.1402813
-5.049512	follower
-4.236599	followers
-4.120094	following	-0.05709991
-3.782341	follows	-0.1234711
-4.204414	folly	-0.1691592
-4.447453	fond	-0.358546
-5.049512	fondly	-0.07972442
-5.350543	fondness
-3.737759	food	-0.2662709
-4.3963	fool	-0.07397314
-4.350543	foolish	-0.1918411
-5.350543	foolishly	-0.1774495
-4.873421	fools	-0.05149168
-4.271361	foot	-0.170064
-5.350543	footing
-5.350543	footpads	-0.1774437
-5.350543	footsteps
-2.278661	for	-0.4594886
-5.049512	forbade
-4.447453	forbid	-0.1118537
-4.350543	forbidden	-0.1541644
-5.049512	forbidding
-5.350543	forbids
-3.782341	force	-0.1659884
-4.505445	forced	-0.07443994
-5.049512	forces
-5.350543	forcibly	-0.1774495
-4.873421	forcing
-5.350543	fore	-0.1774263
-5.350543	forebodings
-4.236599	foreign	-0.08830357
-5.350543	foreigner	-0.1774457
-4.748483	foresaw
-4.748483	foresee
-5.049512	foreseen
-5.350543	foreshadowed
-5.350543	foresight
-5.350543	foretaste
-5.350543	forfeited
-4.350543	forget	-0.09430946
-5.350543	forgetful
-4.651573	forgetfulness	-0.2118312
-4.651573	forgets	-0.1036449
-4.651573	forgetting	-0.1999256
-4.748483	forgive	-0.1409378
-5.350543	forgiveness
-5.350543	forgiving
-4.748483	forgot	-0.1400906
-4.204414	forgotten	-0.03542986
-3.264183	form	-0.4340866
-5.049512	formation
-4.572392	formed
-3.79424	former	-0.03205264
-4.572392	formerly	-0.1171627
-5.350543	formidable
-4.748483	forming	-0.1342001
-3.551202	forms	-0.3930632
-4.505445	formula
-4.873421	formulae
-5.350543	forsake
-5.350543	forsaken
-4.071789	forth	-0.1131231
-5.350543	forthwith
-5.350543	fortify
-4.873421	fortress
-4.3963	fortunate	-0.1799522
-4.174451	fortune
-4.651573	fortunes	-0.03015725
-4.572392	forty	-0.1824391
-4.204414	forward	-0.3099511
-5.049512	forwardness	-0.342095
-5.350543	forwards
-5.350543	foster	-0.1774321
-4.748483	fostering
-4.748483	fought	-0.313481
-5.049512	foul
-5.350543	foulest	-0.1774573
-3.329353	found	-0.2917891
-4.146423	foundation	-0.5817568
-5.350543	foundations
-4.651573	founded	-0.1083673
-5.049512	founder
-5.350543	foundering
-4.3963	founders	-0.4907956
-4.651573	founding
-5.350543	foundling	-0.1774631
-5.350543	foundlings
-5.350543	founds
-3.618149	four	-0.2488475
-5.350543	fourteen
-3.952603	fourth	-0.040287
-5.049512	fourthly
-5.350543	fourths
-5.049512	fox
-5.350543	fraction
-4.572392	fractions
-4.873421	fragment
-5.049512	fragmentary
-4.572392	fragments	-0.3033839
-4.120094	frame	-0.111618
-4.350543	framed	-0.09754923
-5.350543	framework
-4.748483	framing
-5.350543	frankly	-0.1774592
-4.873421	frankness
-5.350543	fraternity
-4.873421	fraud	-0.1973417
-5.350543	frauds
-5.350543	fray
-3.79424	free	-0.3822542
-5.049512	freed	-0.3521415
-3.687785	freedom	-0.2246258
-4.651573	freeman
-4.271361	freemen	-0.03076456
-5.350543	french	-0.177434
-4.873421	frenzy	-0.05146068
-5.350543	frequent
-5.049512	frequently	-0.1774534
-4.748483	fresh	-0.03802054
-5.350543	fretted	-0.1774611
-5.049512	friar
-5.350543	friction
-3.363771	friend	-0.3988167
-5.350543	friendless
-4.873421	friendly	-0.1098941
-3.436729	friends	-0.4187793
-4.505445	friendship
-5.350543	friendships
-5.350543	frightened
-2.460681	from	-0.4124776
-5.049512	front
-5.350543	frontispiece
-4.873421	fruit
-5.350543	fruition
-5.350543	fruitless	-0.1774495
-5.049512	fruits
-4.505445	fulfil	-0.2579113
-5.350543	fulfilled
-5.350543	fulfiller
-5.049512	fulfilling
-5.049512	fulfilment
-3.551202	full	-0.6844756
-5.350543	fuller	-0.177434
-5.049512	fullest	-0.07972442
-4.572392	fully	-0.2635726
-4.651573	fulness	-0.6351329
-5.049512	function
-5.049512	functions
-4.3963	fundamental	-0.134177
-5.049512	funeral	-0.1774534
-5.049512	funnel
-5.049512	furious
-5.350543	furnace
-4.30915	furnish	-0.1580443
-5.049512	furnished
-4.651573	furnishes	-0.1999256
-5.049512	furniture
-3.337705	further	-0.06505838
-4.873421	fury	-0.05148199
-5.350543	fusion
-5.350543	fuss
-3.687785	future	-0.08457052
-5.350543	gadfly
-5.350543	gaiety
-3.687785	gain	-0.1159067
-4.3963	gained	-0.1102476
-4.873421	gainer
-5.049512	gainers
-4.748483	gainful	-0.6729617
-5.049512	gaining
-4.447453	gains
-4.505445	game	-0.3469517
-4.748483	games	-0.1375174
-5.350543	gang
-5.350543	gapes
-5.350543	gaps
-5.350543	gardener
-5.049512	garland
-4.572392	garlands	-0.1814709
-4.748483	garments
-5.350543	garnished
-5.049512	garrulity	-0.07968955
-5.350543	gate
-5.350543	gates
-4.505445	gather
-4.3963	gathered	-0.2114145
-4.873421	gathering
-5.350543	gathers
-5.350543	gaudet	-0.1774631
-5.350543	gauntlet
-4.174451	gave	-0.1373309
-4.873421	gaze
-5.350543	gazed
-4.873421	gazer
-5.350543	gazers
-5.350543	gazing
-5.350543	gear	-0.1774379
-5.350543	gender
-5.350543	genealogies
-3.464052	general	-0.06008431
-5.049512	generalization
-3.759478	generally	-0.06936283
-5.350543	generals
-5.350543	generate
-4.572392	generated	-0.1651808
-3.748483	generation	-0.07222705
-4.572392	generations
-4.651573	generous	-0.03014562
-5.350543	genesis
-3.859181	genius	-0.09671617
-4.873421	gentile	-0.05148587
-4.00812	gentle	-0.1705298
-4.505445	gentleman	-0.179904
-4.30915	gentlemen	-0.2088546
-4.651573	gentleness
-5.049512	gentler	-0.3535681
-5.350543	gentlest
-4.572392	gently	-0.0514878
-5.049512	gentry
-4.572392	genuine	-0.02497529
-5.350543	geometer
-4.447453	geometrical	-0.1543966
-5.049512	geometrician
-5.350543	geometricians
-3.832029	geometry	-0.101717
-4.873421	germ	-0.4833863
-5.350543	german
-5.350543	germans
-5.049512	germs
-5.350543	gerousia
-4.873421	gesture
-3.618149	get	-0.2169036
-4.204414	gets	-0.06908429
-4.174451	getting	-0.1452444
-4.873421	ghost	-0.0514878
-5.350543	ghostly
-5.049512	ghosts
-4.873421	giant	-0.1099212
-5.350543	giants
-5.350543	gibber
-5.350543	giddiness
-4.505445	gift	-0.332672
-4.30915	gifted	-0.09558146
-3.919179	gifts	-0.3040061
-5.350543	gigantic	-0.177405
-4.651573	giles
-5.350543	girders
-5.350543	girl
-5.350543	girt
-3.346221	give	-0.2656304
-3.447453	given	-0.2966206
-5.350543	giver
-3.806475	gives	-0.1128398
-3.888145	giving	-0.0489737
-4.572392	glad
-4.651573	gladly	-0.1457873
-5.350543	gladness
-4.873421	glance	-0.05149168
-5.049512	glancing
-5.350543	glare
-3.229969	glaucon	-0.1974774
-5.049512	glaucus	-0.07972636
-5.350543	glimpse
-5.350543	glimpses
-5.350543	globe
-4.748483	glories
-4.30915	glorious	-0.09804278
-5.350543	gloriously
-4.447453	glory
-4.873421	gluttony	-0.4849953
-3.313116	go	-0.4774179
-5.350543	goaded
-5.350543	goads
-4.572392	goal
-5.350543	goats
-3.223438	god	-0.1978633
-4.651573	goddess	-0.03015531
-5.049512	goddesses	-0.07971861
-5.049512	godless
-4.873421	godlike	-0.0514723
-4.873421	godly	-0.1099154
-3.239953	gods	-0.31685
-3.919179	goes	-0.2045235
-5.049512	goethe
-3.61018	going	-0.6038733
-5.049512	goings	-0.352536
-3.70709	gold	-0.3182935
-4.3963	golden	-0.2013402
-4.204414	gone	-0.1382139
-2.522527	good	-0.3367842
-5.049512	goodly	-0.07972055
-4.071789	goodness	-0.151976
-3.952603	goods	-0.2487059
-5.350543	gorged
-4.873421	gorgias
-5.350543	gospel
-5.350543	gospels
-4.00812	got	-0.1774669
-5.350543	goths	-0.1774573
-4.350543	govern
-4.236599	governed	-0.07230562
-5.049512	governesses
-4.572392	governing
-3.426263	government	-0.3259332
-4.271361	governments	-0.08759753
-5.350543	governor
-4.271361	governors	-0.128837
-5.350543	governs
-5.350543	gracchi
-4.120094	grace	-0.1203055
-5.350543	graced
-5.049512	graceful
-4.748483	graces
-4.748483	gracious	-0.0380283
-5.350543	gradation
-5.049512	gradations
-5.350543	grades
-4.651573	gradual	-0.06256428
-4.30915	gradually	-0.0564829
-5.350543	graecia
-5.350543	grain
-5.350543	grains
-5.350543	grammar
-4.873421	grammarian
-4.873421	grand	-0.1098921
-5.350543	grandchildren
-5.350543	grander
-4.873421	grandfather
-5.350543	grandfathers
-5.049512	grandly
-5.350543	grandmothers
-4.447453	grant	-0.1396624
-4.651573	granted
-5.350543	granting
-4.651573	grasp
-5.350543	grated	-0.1774592
-5.350543	grateful
-5.049512	gratification
-5.350543	gratified
-5.350543	gratify
-5.350543	gratifying
-5.350543	gratitude
-4.572392	grave	-0.1200789
-5.350543	graven	-0.1773953
-5.350543	graver
-5.350543	graves
-5.350543	gravest	-0.1774611
-5.049512	gravity
-2.940609	great	-0.09433618
-3.289845	greater	-0.1600331
-3.274996	greatest	-0.2384364
-3.988815	greatly	-0.07082445
-4.3963	greatness	-0.4868055
-5.350543	grecian
-4.447453	greece
-5.350543	greedy
-3.530999	greek	-0.1026393
-4.120094	greeks	-0.1425424
-5.350543	greet
-5.350543	greets
-4.873421	grey	-0.05148199
-4.651573	grief	-0.06255072
-5.350543	grieved
-5.049512	grievous
-5.350543	grim
-5.350543	groaning
-5.350543	grossly
-5.350543	grote
-3.888145	ground	-0.05350846
-4.505445	grounds	-0.02132259
-5.350543	groundwork
-5.350543	grouped
-5.350543	grovels
-3.759478	grow	-0.2834957
-4.572392	growing
-4.350543	grown	-0.1858395
-4.09527	grows	-0.1037933
-4.049512	growth	-0.4587674
-5.350543	grudge
-5.350543	grunts
-4.071789	guard	-0.07854863
-3.717074	guardian	-0.1831747
-3.317119	guardians	-0.159651
-5.350543	guardianship
-4.873421	guarding
-5.049512	guards
-4.572392	guess	-0.08337303
-5.350543	guessed
-5.350543	guesses
-5.350543	guests
-4.748483	guidance	-0.2938077
-4.748483	guide
-4.748483	guided	-0.1391852
-4.748483	guiding	-0.2835111
-5.350543	guild
-4.748483	guilt
-4.120094	guilty	-0.6080855
-4.572392	gyges
-5.350543	gymnasia
-5.049512	gymnasium
-3.572391	gymnastic	-0.1802759
-4.028323	gymnastics	-0.2721848
-3.859181	habit	-0.3700491
-5.350543	habitable
-5.049512	habitation
-5.049512	habitations
-4.028323	habits	-0.2772099
-5.049512	habituated	-0.342095
-5.350543	habituates
-2.848115	had	-0.2969853
-4.651573	hades	-0.03015337
-5.350543	hail
-4.873421	hair	-0.2817319
-4.748483	hairy	-0.3515599
-3.952603	half	-0.05659873
-5.350543	halloo
-5.350543	halls
-5.350543	halt
-5.350543	halted	-0.1774611
-5.350543	halting	-0.1774611
-5.049512	halves
-3.436729	hand	-0.1152816
-4.873421	handed
-5.350543	handicraft
-5.350543	handicrafts
-5.049512	handing
-4.873421	handle
-5.350543	handmaiden
-5.350543	handmaids
-3.669301	hands	-0.2213469
-5.049512	handsome
-5.350543	hangs
-4.271361	happen	-0.1197134
-4.651573	happened
-5.049512	happening
-4.350543	happens	-0.2220332
-4.3963	happier	-0.1698704
-4.350543	happiest	-0.4337873
-4.873421	happily	-0.0514878
-3.431464	happiness	-0.3211002
-3.727293	happy	-0.1957991
-5.350543	haranguing
-5.350543	harass
-5.350543	harbour	-0.1774631
-5.350543	harbouring
-5.350543	harbours
-4.174451	hard	-0.03316462
-5.350543	hardened
-5.049512	harder
-3.40606	hardly	-0.2063221
-4.873421	hardness
-5.350543	hardship
-5.049512	hardships
-5.350543	harlot
-5.350543	harlotries
-3.832029	harm	-0.3390543
-5.350543	harmed
-5.350543	harming
-5.049512	harmless
-5.350543	harmonical	-0.1774088
-4.651573	harmonics
-3.988815	harmonies	-0.03581172
-4.146423	harmonious	-0.07440054
-5.049512	harmoniously	-0.07972055
-5.350543	harmonise
-5.350543	harmonised	-0.1774437
-5.350543	harmonist
-5.049512	harmonists
-5.350543	harmonize
-4.748483	harmonized
-5.350543	harmonizes
-5.049512	harmonizing
-3.431464	harmony	-0.3442206
-4.651573	harp	-0.1094634
-5.350543	harrington
-4.748483	harsh	-0.07969142
-5.350543	harshest
-5.350543	harshness
-5.350543	harvest
-2.416044	has	-0.3778125
-4.651573	hast	-0.2090139
-5.049512	hastening
-5.350543	hastiness
-5.350543	hasty	-0.177436
-5.350543	hatched	-0.1774592
-4.350543	hate	-0.05082774
-4.447453	hated	-0.0185988
-4.748483	hateful	-0.03803217
-5.049512	hater
-5.350543	haters
-4.748483	hates	-0.03802248
-4.873421	hating
-4.748483	hatred	-0.03801667
-5.350543	hatreds
-2.179401	have	-0.3161787
-3.117547	having	-0.1816394
-5.350543	hazard
-5.350543	hazarding
-1.844308	he	-0.5708952
-4.00812	head	-0.2097849
-4.873421	headache
-4.873421	headed	-0.286621
-5.350543	headforemost
-4.236599	heads	-0.1309449
-5.350543	heal
-4.873421	healer
-4.572392	healing
-5.350543	heals	-0.177405
-3.572391	health	-0.2106702
-5.350543	healthiest
-4.271361	healthy	-0.05581894
-5.049512	heap	-0.3532114
-3.464052	hear	-0.1629243
-3.782341	heard	-0.09795759
-5.350543	hearer
-4.651573	hearers
-4.120094	hearing	-0.0848033
-4.572392	hears
-4.049512	heart	-0.1633317
-5.350543	heartily	-0.1774611
-4.447453	hearts	-0.1089521
-4.30915	heat
-5.350543	heathen	-0.1774282
-5.350543	heating
-3.537629	heaven	-0.1734001
-4.00812	heavenly	-0.2114349
-3.859181	heavens	-0.1540382
-5.049512	heavier
-4.873421	heaviest	-0.2015863
-4.350543	heavy	-0.214183
-4.873421	hebrew	-0.1774379
