\data\
ngram 1=10119
ngram 2=24076
ngram 3=21372

\1-grams:
-4.891505	<unk>	0
0	<s>	-1.1706638
-1.5202249	</s>	0
-4.5017395	introduction	-0.028115379
-1.4287459	and	-0.45233542
-4.2486	analysis	-0.18226476
-1.6670687	the	-0.46022564
-4.1619363	republic	-0.066715695
-1.5298319	of	-0.59127414
-3.0150359	plato	-0.27703196
-1.953872	is	-0.44165963
-4.61989	longest	0
-2.3892455	his	-0.23760821
-3.59215	works	-0.2779348
-2.1830723	with	-0.4396718
-4.3569813	exception	-0.055987712
-3.5517738	laws	-0.15866642
-3.4197972	certainly	-0.18976139
-3.9736533	greatest	-0.048005555
-2.3356729	them	-0.47835267
-2.5380187	there	-0.6396951
-2.198179	are	-0.30338696
-3.925498	nearer	-0.18249512
-4.1619363	approaches	-0.06606315
-1.7393897	to	-0.58895665
-3.613839	modern	-0.09894588
-4.3569813	metaphysics	0
-1.7291188	in	-0.6435135
-4.735095	philebus	0
-4.0278215	sophist	-0.06028391
-4.61989	politicus	0
-1.8258456	or	-0.29273206
-3.8821533	statesman	-0.12641637
-2.7268767	more	-0.20425005
-3.4647212	ideal	-0.15884744
-3.137131	form	-0.3719951
-3.925498	institutions	-0.17347892
-2.9429405	state	-0.34534532
-3.5714927	clearly	-0.10417002
-3.713382	drawn	-0.13696818
-2.6962461	out	-0.69089925
-2.1103349	as	-0.55336964
-3.209644	art	-0.30112985
-4.61989	symposium	-0.0223448
-4.3569813	protagoras	-0.06606315
-3.4807913	higher	-0.12190479
-3.8427448	excellence	-0.3036254
-2.0999947	but	-0.5580603
-2.7268767	no	-0.21813941
-3.0880678	other	-0.13223629
-4.0897226	dialogue	-0.115548335
-2.4853184	has	-0.3857579
-4.3569813	same	-0.039371815
-4.735095	largeness	0
-3.514834	view	-0.2094136
-3.713382	perfection	-0.22545758
-3.5714927	style	-0.26370874
-3.713382	shows	-0.2240486
-2.7183065	an	-0.23882845
-3.686277	equal	-0.1057067
-3.0206742	knowledge	-0.35233888
-3.514834	world	-0.2229953
-4.0897226	contains	-0.10329033
-2.9477115	those	-0.40645218
-3.59215	thoughts	-0.15726326
-1.9742949	which	-0.56397724
-3.514834	new	-0.03999026
-3.115422	well	-0.22178659
-3.3075905	old	-0.15663517
-2.4082177	not	-0.31871158
-2.6431646	one	-0.3763644
-3.4057992	age	-0.20948797
-2.5380187	only	-0.29233292
-2.5958698	all	-0.38631284
-4.1619363	nowhere	-0.11402257
-2.1376886	a	-0.34430277
-4.1619363	deeper	-0.1440103
-4.0897226	irony	-0.10329033
-3.3301399	greater	-0.15423706
-3.5714927	wealth	-0.20169613
-4.5017395	humour	-0.028115379
-4.61989	imagery	0
-4.0897226	dramatic	-0.05048391
-3.2367806	power	-0.35021588
-2.834353	nor	-0.32038042
-2.677822	any	-0.23324174
-3.8066165	writings	-0.12641637
-3.742292	attempt	-0.3399119
-3.209644	made	-0.28042245
-4.735095	interweave	0
-2.919841	life	-0.422826
-4.1619363	speculation	-0.038420808
-4.61989	connect	-0.08057338
-3.5714927	politics	-0.22531271
-3.1225383	philosophy	-0.255371
-4.3569813	centre	-0.055987712
-3.925498	around	-0.16053343
-3.8821533	dialogues	-0.2192906
-2.4534326	may	-0.3889626
-2.6384318	be	-0.26547796
-4.735095	grouped	0
-3.2861543	here	-0.15755464
-4.1619363	reaches	-0.36304444
-4.1619363	highest	-0.07050615
-3.4342618	point	-0.33803067
-3.713382	ancient	-0.09223841
-4.1619363	thinkers	-0.0429074
-3.1446154	ever	-0.10593007
-4.0897226	attained	-0.11495712
-2.8811266	among	-0.43789223
-4.5017395	greeks	-0.05562527
-2.566979	like	-0.33838654
-4.2486	bacon	0
-4.735095	moderns	0
-2.5493722	was	-0.2430899
-2.8532336	first	-0.19998
-2.3866017	who	-0.37613297
-3.7732644	conceived	-0.108390056
-3.59215	method	-0.37082708
-3.1084201	although	-0.33451396
-3.1446154	neither	-0.18460177
-3.2185025	always	-0.0791661
-3.713382	distinguished	-0.1443562
-4.735095	bare	0
-4.2486	outline	-0.048581623
-2.2827694	from	-0.4400091
-4.2486	substance	-0.08772626
-3.0623348	truth	-0.3484408
-2.9289339	both	-0.32397714
-2.9774938	had	-0.24837223
-3.9736533	content	-0.12726146
-3.9736533	abstraction	-0.124798045
-3.3418694	science	-0.27967793
-3.209644	yet	-0.11082649
-3.9736533	realized	-0.16689536
-2.099314	he	-0.487256
-4.0897226	metaphysical	0
-3.8066165	genius	-0.1741535
-3.1015296	whom	-0.5338136
-3.4342618	seen	-0.17987864
-2.5811841	him	-0.4331943
-2.5811841	than	-0.40400153
-4.2486	thinker	-0.055987712
-4.61989	germs	0
-3.7732644	future	-0.086359434
-4.0897226	contained	-0.48798317
-3.742292	sciences	-0.21165521
-3.9736533	logic	-0.15638202
-4.5017395	psychology	0
-2.5436583	have	-0.3484298
-4.1619363	supplied	-0.119140744
-2.7954965	so	-0.25693202
-2.9335527	many	-0.22150086
-3.9736533	instruments	-0.106853865
-3.2657263	thought	-0.26551184
-2.9477115	after	-0.3898146
-3.5517738	ages	-0.18942259
-3.9736533	based	-0.33849254
-2.766103	upon	-0.41486704
-4.735095	analyses	0
-2.9673378	socrates	-0.30179578
-3.3301399	principles	-0.27388358
-3.9736533	definition	-0.31303477
-3.4647212	law	-0.26640314
-4.0897226	contradiction	-0.08860472
-4.735095	fallacy	0
-4.2486	arguing	-0.055987712
-4.0897226	circle	-0.08635994
-3.8066165	distinction	-0.23580259
-3.0947466	between	-0.28211027
-3.9736533	essence	-0.12017311
-4.61989	accidents	-0.1440103
-3.3075905	thing	-0.28202897
-3.4197972	notion	-0.3660904
-3.6607647	means	-0.117547736
-4.0278215	ends	-0.08446031
-3.713382	causes	-0.15166287
-3.8821533	conditions	-0.13163593
-2.7821865	also	-0.21826941
-3.514834	division	-0.22609317
-3.2462165	mind	-0.25673586
-2.5269547	into	-0.44878572
-4.0278215	rational	-0.063272744
-4.5017395	concupiscent	-0.06606315
-4.5017395	irascible	0
-3.4807913	elements	-0.33699054
-3.2861543	pleasures	-0.30445573
-3.2861543	desires	-0.18661332
-3.4807913	necessary	-0.1841685
-4.0278215	unnecessary	-0.2487795
-2.9525354	these	-0.17645243
-3.0947466	great	-0.12392922
-3.3418694	forms	-0.4225812
-3.3922381	found	-0.19761059
-2.766103	were	-0.17903289
-3.613839	probably	-0.06426514
-4.2486	invented	-0.08772626
-2.092565	by	-0.47524872
-4.3569813	logical	0
-3.8821533	truths	-0.11853043
-3.742292	writers	-0.08135915
-2.3905735	on	-0.4939852
-3.1084201	most	-0.10855514
-4.0897226	apt	-0.68448925
-3.9736533	lose	-0.16592708
-3.4342618	sight	-0.18763696
-3.613839	difference	-0.2854277
-3.2758203	words	-0.2519751
-3.2185025	things	-0.22083025
-3.318719	been	-0.110918015
-4.61989	strenuously	0
-4.61989	insisted	0
-4.5017395	avoided	-0.03790672
-3.9736533	confusion	-0.09370084
-3.9736533	own	-0.11391229
-3.115422	does	-0.40168762
-4.5017395	bind	0
-2.841807	up	-0.40971282
-4.5017395	formulae	0
-3.1015296	still	-0.19157974
-4.2486	veiled	-0.16146985
-4.1619363	imagines	-0.30759788
-4.2486	contemplate	-0.055987712
-3.514834	existence	-0.26209003
-3.2009628	very	-0.16294773
-3.742292	unlike	-0.20666651
-4.2486	doctrine	-0.24025674
-4.735095	syllogism	0
-3.713382	aristotle	-0.18252932
-4.5017395	claims	-0.1440103
-3.8066165	discovered	-0.14109525
-2.7756815	must	-0.34208205
-2.4338953	we	-0.46009886
-4.0278215	forget	-0.1440103
-2.0892296	that	-0.62446797
-3.925498	third	-0.07961798
-3.1297734	part	-0.38651606
-3.925498	larger	-0.030858401
-3.925498	design	-0.106853865
-4.0278215	included	-0.106853865
-3.613839	history	-0.1741898
-4.1619363	athens	0
-3.613839	political	-0.113761805
-3.925498	physical	-0.038420808
-4.61989	fragment	-0.058177628
-4.5017395	critias	0
-3.3418694	given	-0.25309867
-3.8066165	birth	-0.10890344
-3.8066165	famous	-0.07291985
-3.925498	fiction	-0.17434795
-3.713382	second	-0.103406616
-3.925498	importance	-0.13696818
-3.8821533	tale	-0.23707645
-4.3569813	troy	-0.16689536
-4.735095	legend	-0.12537211
-4.735095	arthur	0
-3.1015296	said	-0.29063666
-3.925498	fact	-0.19436926
-3.925498	inspired	-0.20286255
-2.7887905	some	-0.1748028
-3.7732644	early	-0.108579114
-4.735095	navigators	0
-4.735095	sixteenth	0
-4.0897226	century	-0.064078316
-2.5791261	this	-0.2565354
-4.735095	mythical	0
-3.5329113	subject	-0.20091516
-4.2486	wars	-0.08772626
-4.61989	athenians	0
-2.8852615	against	-0.35080352
-4.735095	island	0
-4.61989	atlantis	-0.1977775
-3.6366682	supposed	-0.27734125
-4.2486	founded	-0.08057338
-4.61989	unfinished	0
-4.1619363	poem	-0.1089034
-4.2486	solon	0
-2.7356195	it	-0.34370553
-2.6360846	would	-0.37593463
-4.61989	stood	0
-3.6366682	relation	-0.24080065
-4.61989	logographers	0
-4.0278215	poems	-0.0905234
-3.4492245	homer	-0.17543344
-3.6607647	told	-0.21235901
-4.2486	struggle	-0.048581623
-2.157449	for	-0.5198562
-3.8066165	liberty	-0.087510854
-3.742292	intended	-0.42784128
-4.3569813	represent	-0.1804035
-4.5017395	conflict	-0.03790672
-4.735095	persia	0
-4.1619363	hellas	-0.07245094
-3.686277	judge	-0.09405831
-3.5517738	noble	-0.11319568
-4.61989	commencement	-0.23907574
-4.3569813	timaeus	-0.042897537
-3.7732644	itself	-0.045741428
-3.5714927	book	-0.29032823
-2.602319	what	-0.45206118
-3.255862	manner	-0.26300782
-3.925498	treated	-0.096873835
-3.742292	high	-0.045644138
-3.5714927	argument	-0.14384563
-2.8198178	can	-0.33460775
-4.2486	guess	-0.06606315
-3.4492245	why	-0.19979803
-4.735095	abandoned	0
-3.4492245	perhaps	-0.12241375
-2.8270247	because	-0.51366055
-3.925498	became	-0.11970355
-3.925498	sensible	-0.08635994
-4.735095	incongruity	0
-4.5017395	fictitious	0
-3.6366682	lost	-0.1590079
-3.4647212	interest	-0.28298092
-4.735095	advancing	0
-3.318719	years	-0.19871265
-4.61989	forbade	0
-4.735095	completion	0
-4.0278215	please	-0.073595494
-3.4807913	ourselves	-0.13993067
-3.5329113	fancy	-0.26367503
-4.0278215	imaginary	-0.023611851
-4.0278215	narrative	-0.13163593
-4.1619363	finished	-0.048581623
-2.7567313	should	-0.3324211
-2.812729	himself	-0.36272505
-4.735095	sympathising	0
-3.686277	hellenic	-0.10764282
-4.3569813	independence	-0.10329033
-4.5017395	singing	-0.1440103
-4.5017395	hymn	-0.2133431
-4.5017395	triumph	-0.10329033
-2.9826624	over	-0.38673192
-4.735095	marathon	0
-4.735095	salamis	0
-3.3418694	making	-0.18521644
-3.9736533	reflection	-0.09156529
-4.61989	herodotus	0
-3.2009628	where	-0.2677024
-4.61989	contemplates	0
-3.925498	growth	-0.29804575
-4.0897226	athenian	0
-4.1619363	empire	-0.096873835
-2.841807	how	-0.30480307
-4.1619363	brave	-0.060608882
-3.6366682	freedom	-0.22087435
-4.1619363	speech	-0.04895121
-3.1522312	far	-0.25653118
-4.2486	exceed	-0.06606315
-3.137131	every	-0.2816383
-4.0897226	greatness	-0.36374235
-4.3569813	attributing	-0.10329033
-4.2486	victory	-0.19426279
-2.785476	good	-0.32806146
-3.3075905	order	-0.2970539
-4.735095	favor	0
-4.1619363	apollo	-0.024900047
-4.2486	athene	-0.22175236
-3.0947466	again	-0.23731643
-3.742292	regarded	-0.28933173
-4.2486	captain	-0.13106965
-4.0897226	leader	-0.2771714
-4.61989	goodly	0
-4.2486	band	-0.08057338
-3.9736533	followers	-0.10329033
-3.7732644	original	-0.06761013
-4.2486	cicero	0
-3.0686266	s	-0.09371083
-4.3569813	de	-0.06606315
-4.735095	republica	-0.12537211
-4.3569813	st	-0.44145125
-4.735095	augustine	-0.0223448
-3.514834	city	-0.19878955
-3.2758203	god	-0.21979155
-4.3569813	utopia	-0.01227158
-3.9736533	sir	-0.10386584
-4.735095	thomas	-0.12537211
-4.1619363	numerous	-0.11160333
-3.255862	states	-0.2519211
-4.1619363	framed	-0.0429074
-4.0897226	model	-0.073273465
-4.0278215	extent	0
-4.61989	aristotelian	0
-4.3569813	school	-0.06606315
-4.61989	indebted	-0.23907574
-3.4647212	little	-0.054802757
-4.5017395	recognised	0
-4.735095	recognition	-0.058177628
-3.1446154	two	-0.14698058
-3.3539248	philosophers	-0.20856962
-3.4057992	common	-0.15822943
-2.3139553	they	-0.44170296
-3.9736533	conscious	-0.40949982
-3.686277	remain	-0.11675505
-4.2486	undetected	0
-4.1619363	english	-0.048581623
-2.8852615	too	-0.23404768
-4.3569813	affinities	0
-4.735095	traced	0
-4.735095	cambridge	0
-4.3569813	platonists	0
-4.61989	berkeley	0
-4.5017395	coleridge	0
-3.2275455	ideas	-0.25946733
-3.366324	experience	-0.35939676
-4.0897226	bears	-0.16589773
-4.0897226	witness	-0.0905234
-3.8821533	herself	-0.13801084
-4.2486	conviction	-0.13003848
-2.8023076	our	-0.23322716
-3.5329113	generation	-0.123383544
-4.735095	enthusiastically	0
-4.0897226	asserted	-0.055987712
-4.61989	gaining	0
-3.8427448	ground	-0.10364671
-3.6366682	greek	-0.09514159
-4.3569813	authors	-0.10329033
-2.269485	at	-0.6163515
-4.735095	renaissance	0
-3.4974792	brought	-0.23245072
-3.3922381	influence	-0.4255671
-4.3569813	treatise	0
-3.1678753	education	-0.32436946
-4.5017395	milton	-0.03790672
-4.735095	locke	0
-4.61989	rousseau	0
-4.735095	jean	0
-4.61989	paul	0
-4.61989	goethe	0
-4.61989	legitimate	0
-4.5017395	descendants	-0.10329033
-4.3569813	dante	-0.08057338
-4.735095	bunyan	0
-4.1619363	revelation	-0.21804787
-3.00947	another	-0.22679344
-4.61989	profoundly	0
-4.5017395	impressed	-0.3165125
-3.514834	unity	-0.18690865
-4.0897226	church	-0.15016557
-4.0278215	exercised	-0.16053343
-3.59215	real	-0.07785753
-4.1619363	theology	-0.055987712
-4.735095	revival	0
-3.9736533	literature	-0.18022165
-2.9826624	even	-0.33326787
-4.5017395	fragments	-0.03790672
-2.3892455	when	-0.50198394
-3.925498	repeated	-0.15638202
-3.613839	hand	-0.15792947
-4.61989	ravished	0
-4.5017395	hearts	-0.045901913
-2.8270247	men	-0.34846407
-4.0897226	reflected	-0.1279914
-2.459625	their	-0.1942381
-2.9289339	nature	-0.31881383
-3.59215	father	-0.19040503
-4.3569813	idealism	0
-4.735095	latest	0
-3.8821533	conceptions	-0.23200351
-4.0278215	statesmen	-0.0429074
-2.6676345	such	-0.38892758
-4.5017395	reign	-0.10329033
-3.8427448	equality	-0.19637403
-4.5017395	sexes	-0.07675962
-4.3569813	anticipated	0
-3.8066165	dream	-0.2555435
-4.0278215	search	-0.07072078
-2.8852615	justice	-0.38291258
-4.735095	hinted	0
-3.742292	cephalus	-0.1440246
-3.0263865	just	-0.2613946
-4.3569813	blameless	0
-2.906549	man	-0.36890906
-2.6222618	then	-0.34406963
-3.925498	discussed	-0.12475475
-3.925498	basis	-0.2931427
-4.61989	proverbial	0
-3.8427448	morality	-0.08260505
-3.613839	polemarchus	-0.1821056
-4.735095	caricatured	0
-3.2185025	thrasymachus	-0.20895264
-4.5017395	partially	0
-3.925498	explained	-0.14403221
-4.0897226	reduced	-0.36558983
-3.209644	glaucon	-0.217772
-3.366324	adeimantus	-0.119873755
-2.8936517	having	-0.23023325
-3.318719	become	-0.1254801
-4.0897226	invisible	-0.13464601
-3.6607647	individual	-0.08570043
-4.3569813	reappears	-0.10329033
-4.0897226	length	-0.04963743
-4.1619363	constructed	-0.0429074
-3.318719	care	-0.3459861
-3.5329113	rulers	-0.2699529
-4.61989	providing	0
-4.3569813	improved	0
-3.6366682	religion	-0.1590079
-3.7732644	simplicity	-0.15617484
-3.3539248	music	-0.26195765
-3.4492245	gymnastic	-0.22541162
-4.735095	manlier	0
-3.8427448	strain	-0.14907299
-3.366324	poetry	-0.27356505
-3.4807913	harmony	-0.2704519
-3.29674	thus	-0.10651825
-3.6366682	led	-0.28980634
-3.4807913	conception	-0.4660231
-3.925498	calls	-0.066077255
-3.209644	anything	-0.19794598
-4.3569813	marrying	0
-3.6366682	giving	-0.083637
-3.6607647	marriage	-0.1230576
-3.8066165	kings	-0.28406692
-3.8066165	intellectual	-0.049312294
-3.713382	moral	-0.12203513
-3.925498	religious	-0.020924019
-3.3539248	youth	-0.23719798
-3.713382	whole	-0.07758479
-3.3922381	hardly	-0.10635595
-4.1619363	quickly	0
-4.5017395	degenerates	0
-3.514834	perfect	-0.12258266
-4.61989	succeeds	-0.23907574
-3.6607647	government	-0.19935808
-4.61989	soldier	-0.0905234
-4.0897226	lover	-0.25680882
-3.366324	honour	-0.22893861
-4.2486	declining	0
-3.5517738	democracy	-0.20687881
-3.5329113	tyranny	-0.19211125
-3.9736533	regular	0
-3.2758203	much	-0.1446698
-4.5017395	resemblance	-0.10329033
-4.3569813	actual	-0.020924019
-3.8066165	facts	-0.06607228
-4.5017395	wheel	-0.07405588
-3.2657263	come	-0.29473707
-3.5714927	full	-0.29396725
-2.7921305	do	-0.47001672
-3.613839	begin	-0.40779862
-4.0278215	period	-0.12711698
-3.2861543	human	-0.23812068
-3.6607647	passed	-0.21839826
-3.4647212	best	-0.12921803
-4.2486	worst	-0.08345699
-3.5517738	end	-0.27594662
-4.0897226	changed	-0.08223391
-3.8427448	quarrel	-0.20472677
-3.9736533	lightly	-0.073273465
-4.61989	earlier	-0.03790672
-3.925498	books	-0.025232561
-3.0150359	now	-0.20596291
-4.5017395	resumed	0
-4.5017395	fought	-0.1440103
-3.8427448	conclusion	-0.11492018
-3.5329113	imitation	-0.22479008
-4.3569813	thrice	-0.44145125
-4.0278215	removed	-0.30519804
-3.4974792	poets	-0.14721969
-4.1619363	condemned	0
-4.0897226	imitator	-0.13754383
-3.9736533	sent	-0.11495712
-4.61989	banishment	0
-3.7732644	along	-0.32474658
-3.4974792	idea	-0.270129
-4.735095	supplemented	-0.12537211
-3.5714927	similar	-0.01618457
-3.8066165	divisions	-0.2051103
-3.7732644	later	-0.07251343
-3.4057992	natural	-0.10691512
-3.713382	five	-0.1777978
-3.2367806	number	-0.25434867
-2.351184	i	-0.60337675
-3.6366682	half	-0.09255426
-4.735095	ii	-0.058177628
-3.379088	down	-0.2475498
-4.735095	paragraph	0
-3.4647212	beginning	-0.33809558
-4.5017395	admired	-0.03790672
-4.735095	introductory	0
-4.2486	containing	-0.16146985
-4.61989	refutation	-0.23907574
-4.0278215	popular	-0.030858401
-4.61989	sophistical	0
-3.6366682	notions	-0.36454445
-4.61989	concluding	0
-2.9826624	without	-0.18158449
-4.5017395	arriving	-0.1440103
-4.5017395	definite	-0.09370084
-3.7732644	result	-0.1961321
-4.735095	appended	0
-4.735095	restatement	0
-3.2657263	according	-1.4828439
-3.2462165	opinion	-0.35400712
-3.2367806	answer	-0.30281246
-4.61989	demanded	0
-3.379088	question	-0.30132958
-4.2486	stripped	-0.16146985
-3.925498	appearances	-0.08860472
-4.2486	includes	0
-4.61989	remainder	-0.03790672
-4.0897226	fourth	-0.066468194
-4.61989	mainly	0
-4.5017395	occupied	-0.2133431
-4.3569813	construction	-0.0223448
-4.0278215	consists	-0.31258982
-4.2486	fifth	-0.020265283
-4.3569813	sixth	-0.112509534
-4.5017395	seventh	-0.05131499
-3.043989	rather	-0.3320778
-3.7732644	enquiry	-0.14261349
-4.61989	communism	-0.032284677
-4.5017395	ruled	-0.2133431
-4.3569813	contemplation	-0.10329033
-3.6366682	takes	-0.16098209
-3.3075905	place	-0.23161598
-4.0278215	social	-0.12109345
-3.7732644	virtues	-0.12132741
-4.5017395	eighth	-0.020265283
-4.61989	ninth	-0.058177628
-4.61989	perversions	-0.1440103
-3.5714927	individuals	-0.16281505
-3.9736533	correspond	-0.1804035
-4.735095	reviewed	0
-4.1619363	succession	-0.09370084
-3.184104	pleasure	-0.34032
-3.1446154	principle	-0.38536787
-3.2009628	further	-0.08536527
-4.5017395	analysed	0
-4.61989	tenth	-0.03790672
-3.686277	relations	-0.24002025
-4.0278215	finally	0
-3.7732644	determined	-0.30068845
-3.4492245	happiness	-0.27832925
-3.4342618	citizens	-0.18179847
-4.2486	assured	-0.08057338
-4.0897226	crowned	-0.10329033
-3.8427448	vision	-0.30120653
-3.713382	general	-0.04418181
-3.59215	parts	-0.3186968
-4.2486	adopted	-0.16146985
-3.9736533	description	-0.26979208
-3.4974792	generally	-0.13570137
-4.735095	accordance	-0.058177628
-3.0380418	while	-0.3447417
-4.61989	transformed	0
-4.0278215	kingdom	-0.20286255
-3.8821533	governments	-0.13696818
-3.713382	points	-0.2572437
-3.4342618	really	-0.059084315
-3.925498	opposed	-0.2330841
-4.0897226	opposition	-0.14660296
-4.5017395	phaedrus	-0.0223448
-3.9736533	imperfect	-0.100729205
-3.3075905	light	-0.3320998
-4.0278215	breaks	-0.10329033
-3.1522312	through	-0.38307077
-4.61989	regularity	0
-4.2486	temple	-0.10329033
-3.613839	last	-0.08473965
-4.735095	fades	0
-3.1446154	away	-0.41464037
-4.1619363	heavens	-0.11287245
-2.7297716	whether	-0.44472373
-4.61989	imperfection	-0.1440103
-4.5017395	structure	0
-3.613839	arises	-0.23561057
-4.3569813	enlargement	-0.2133431
-4.1619363	plan	-0.072598666
-4.61989	reconcilement	0
-4.2486	writer	-0.14958951
-4.5017395	struggling	0
-3.184104	together	-0.3086631
-4.5017395	composition	-0.1440103
-3.366324	work	-0.2650806
-3.2657263	different	-0.16190383
-3.4807913	times	-0.15407334
-3.613839	questions	-0.072598666
-2.564987	about	-0.38289943
-4.735095	iliad	0
-4.735095	odyssey	0
-3.7732644	worth	-0.2034516
-4.0278215	asking	-0.0383021
-3.0947466	cannot	-0.20705195
-3.6607647	distinct	-0.07602765
-3.59215	mode	-0.9335024
-4.735095	publication	0
-4.2486	author	-0.08223391
-3.379088	less	-0.18068749
-4.735095	scruple	0
-4.5017395	altering	0
-3.925498	adding	-0.08057338
-3.5714927	known	-0.23476115
-3.713382	few	-0.14243756
-3.4492245	friends	-0.33335724
-4.2486	absurdity	-0.08772626
-4.0278215	supposing	-0.21804787
-3.8821533	laid	-0.16082585
-4.2486	labours	-0.06606315
-3.9736533	aside	-0.06606315
-3.2462165	time	-0.24449629
-3.6366682	turned	-0.22529703
-4.735095	interruptions	0
-3.4807913	likely	-0.34176517
-3.8427448	occur	-0.21659482
-3.514834	case	-0.16161455
-3.5517738	long	-0.10954143
-3.686277	short	-0.1902347
-4.2486	writing	0
-3.925498	attempts	-0.22179618
-4.1619363	determine	-0.15684101
-4.61989	chronological	0
-4.0897226	platonic	-0.044776525
-4.0278215	internal	-0.038420808
-4.2486	evidence	-0.06606315
-4.61989	uncertainty	-0.058177628
-4.0897226	single	-0.061651148
-2.834353	being	-0.22275306
-3.9736533	composed	-0.09388509
-4.735095	disturbing	-0.12537211
-3.5329113	element	-0.25373846
-3.713382	admitted	-0.23609611
-3.9736533	affect	-0.2330841
-4.0278215	longer	-0.04258289
-4.61989	shorter	0
-3.514834	ones	-0.20831299
-3.8427448	seeming	-0.12475475
-4.735095	discrepancies	0
-3.5714927	arise	-0.18956266
-4.5017395	discordant	-0.1440103
-3.7732644	philosopher	-0.1521089
-4.61989	attempted	-0.23907574
-4.1619363	unite	-0.18736073
-3.514834	able	-0.44644058
-3.9736533	recognise	-0.16053343
-4.0278215	inconsistency	-0.18736073
-4.3569813	obvious	-0.14129823
-2.9289339	us	-0.26233304
-3.6607647	judgment	-0.1443562
-4.3569813	anticipate	-0.08057338
-3.1225383	themselves	-0.24384795
-3.925498	perceive	-0.14380598
-3.514834	want	-0.30801353
-4.1619363	connexion	-0.12027649
-4.735095	gaps	0
-4.2486	systems	-0.08057338
-3.925498	visible	-0.11645147
-3.318719	enough	-0.33552656
-4.735095	beginnings	0
-3.686277	amid	-0.121900156
-4.1619363	efforts	-0.1440103
-3.686277	language	-0.17394365
-4.5017395	inconsistencies	0
-4.61989	paths	-0.07944121
-4.2486	worn	-0.1440103
-3.5329113	meaning	-0.18215203
-4.3569813	precisely	-0.0223448
-4.1619363	defined	-0.1514653
-4.3569813	consistency	0
-4.0897226	creations	-0.2133431
-3.8066165	wanting	-0.2269485
-4.0897226	tried	-0.28869915
-4.1619363	test	-0.13003848
-3.6607647	several	-0.091310084
-3.318719	appear	-0.24423043
-4.5017395	defective	-0.1440103
-4.61989	deficiency	0
-3.7732644	proof	-0.2283578
-3.686277	hands	-0.09780033
-4.735095	supposition	0
-3.8427448	written	-0.12700048
-4.735095	uninterruptedly	0
-4.2486	continuous	0
-4.2486	effort	-0.17473207
-3.5517738	degree	-0.19400528
-4.3569813	confirmed	-0.44145125
-4.735095	references	0
-4.1619363	title	-0.1440103
-3.713382	concerning	-0.11683933
-4.5017395	quoted	-0.10329033
-2.841807	either	-0.34276193
-4.3569813	antiquity	-0.2138287
-4.5017395	titles	0
-3.3301399	therefore	-0.102269046
-4.3569813	assumed	-0.17006238
-4.5017395	date	0
-4.5017395	morgenstern	0
-3.1599827	others	-0.29073426
-3.8066165	asked	-0.11000475
-4.61989	professed	0
-3.59215	aim	-0.2122262
-4.0897226	principal	-0.04165181
-4.735095	blend	0
-4.3569813	faces	0
-4.5017395	embodiment	-0.3165125
-2.8455825	under	-0.5164228
-3.8821533	society	-0.20083901
-3.3075905	soul	-0.1910512
-3.5714927	body	-0.16675666
-3.613839	fair	-0.11245421
-4.61989	hegelian	0
-4.61989	phraseology	0
-3.686277	reality	-0.13630396
-3.5517738	described	-0.29396763
-3.8821533	christian	-0.053310726
-3.2462165	within	-0.4682821
-4.5017395	developes	-0.1440103
-3.742292	external	-0.05351034
-3.7732644	house	-0.10159924
-4.1619363	eternal	-0.073273465
-3.8821533	proportions	-0.16613561
-4.0278215	earthly	0
-4.1619363	building	-0.06606315
-3.1759138	use	-0.32213727
-3.4807913	image	-0.33451498
-4.735095	warp	0
-4.735095	woof	0
-3.8066165	run	-0.061729234
-4.61989	texture	0
-3.713382	constitution	-0.16926159
-4.2486	completed	-0.07405588
-4.5017395	dismissed	-0.1440103
-3.5714927	names	-0.15019524
-3.9736533	throughout	-0.20599253
-4.5017395	inner	-0.0905234
-4.1619363	rewards	-0.14329442
-4.61989	punishments	0
-4.1619363	honesty	-0.13003848
-4.61989	buying	-0.058177628
-4.61989	selling	0
-4.2486	shadow	-0.16824983
-4.1619363	motions	-0.42999125
-4.1619363	heavenly	-0.03487042
-3.925498	bodies	-0.10062992
-3.9736533	ethical	-0.0429074
-3.5329113	side	-0.18710141
-3.8821533	chiefly	-0.03478412
-3.8427448	hypotheses	-0.085258156
-4.3569813	outward	-0.048581623
-4.5017395	indications	-0.1440103
-3.3075905	however	-0.082187526
-3.686277	stage	-0.35140532
-4.1619363	criticism	0
-4.5017395	referred	-0.2133431
-3.3922381	indeed	-0.21956706
-3.59215	remains	-0.113349535
-3.3418694	often	-0.090836495
-3.742292	large	-0.061927296
-4.2486	comprehended	-0.20599253
-3.8427448	grows	-0.045568377
-3.613839	act	-0.10087302
-4.61989	worked	-0.23907574
-2.9985476	before	-0.33502
-3.613839	begins	-0.4304881
-4.5017395	reader	-0.01227158
-4.1619363	seeks	-0.38943437
-3.4492245	find	-0.24033558
-3.742292	necessarily	-0.03478412
-4.61989	seize	0
-4.735095	vaguest	0
-4.61989	stallbaum	0
-4.5017395	dissatisfied	-0.10329033
-4.0897226	ordinary	-0.029096816
-4.2486	explanations	-0.08057338
-3.1084201	true	-0.19287655
-4.2486	representation	-0.18226476
-4.2486	perfected	-0.08057338
-3.9736533	governed	-0.055233914
-4.61989	descriptions	0
-4.0897226	express	-0.09370084
-3.4807913	speak	-0.23428878
-4.735095	designs	0
-3.3301399	need	-0.23866424
-4.5017395	excluded	0
-3.6607647	naturally	-0.056337338
-4.3569813	association	0
-4.5017395	interfere	-0.3165125
-3.686277	purpose	-0.16775681
-3.4647212	kind	-0.3458346
-4.0897226	sought	-0.11402257
-4.61989	plastic	-0.058177628
-3.4492245	arts	-0.1795655
-4.0278215	prose	-0.07055554
-4.61989	problem	0
-4.5017395	relatively	-0.1440103
-3.5329113	matter	-0.19630837
-4.2486	intention	-0.15484
-4.0897226	intelligible	-0.07675962
-3.1599827	better	-0.24308695
-3.3922381	once	-0.1997255
-4.5017395	vehicle	-0.3165125
-3.4057992	three	-0.14713995
-3.4807913	four	-0.14553952
-4.0897226	represented	-0.20207416
-4.735095	jewish	-0.12537211
-4.2486	prophets	0
-4.735095	messiah	0
-3.4974792	day	-0.18762863
-4.0278215	lord	-0.2398627
-4.0278215	suffering	0
-3.925498	servant	-0.2217807
-3.366324	people	-0.11376749
-4.2486	sun	-0.05495535
-4.61989	righteousness	0
-4.1619363	healing	0
-4.1619363	wings	0
-4.735095	convey	0
-3.8427448	least	-0.07775928
-4.61989	spiritual	0
-3.8427448	ideals	-0.1383675
-4.5017395	reveals	-0.1440103
-3.59215	divine	-0.110748276
-4.5017395	continuing	0
-4.0278215	sophists	-0.11160333
-3.8821533	tyrants	-0.14451595
-3.6366682	false	-0.103105105
-3.9736533	teachers	-0.10386584
-3.1084201	evil	-0.27648705
-3.59215	mankind	-0.115068235
-3.9736533	exists	-0.16053343
-3.8821533	earth	-0.124196105
-3.713382	heaven	-0.16571961
-4.0278215	pattern	-0.25975984
-3.4057992	rule	-0.27819312
-3.9736533	creation	-0.1648006
-4.61989	clouds	-0.10329033
-4.61989	pierces	0
-4.61989	shade	0
-3.9736533	dark	-0.1717303
-4.3569813	veil	-0.06606315
-4.61989	allowable	0
-3.8427448	philosophical	-0.005479327
-3.9736533	imagination	-0.0073212665
-4.1619363	plane	-0.06606315
-3.4647212	easily	-0.045741428
-3.8066165	passes	-0.24755462
-4.3569813	myths	-0.028115379
-4.1619363	fancies	-0.015842395
-3.8427448	figures	-0.26149812
-3.1522312	ought	-0.5052653
-4.2486	judged	-0.24065112
-3.8427448	rules	-0.13696818
-4.61989	probabilities	0
-4.2486	fashioning	-0.08057338
-4.61989	artistic	0
-3.2462165	take	-0.28499478
-3.8821533	possession	-0.5744767
-4.61989	discuss	0
-4.61989	practicable	0
-4.61989	inward	0
-3.59215	came	-0.15275274
-4.735095	practicability	-0.12537211
-3.0750108	nothing	-0.3348741
-4.3569813	attains	-0.06606315
-3.3301399	truly	-0.076711535
-3.686277	bear	-0.13756369
-4.735095	marks	0
-3.9736533	frame	-0.08442252
-3.742292	dialectic	-0.15476206
-4.735095	organisation	0
-3.9736533	type	-0.21182323
-3.2657263	spirit	-0.265412
-4.3569813	pursued	-0.08223391
-4.735095	spectator	-0.028115379
-4.61989	summit	0
-3.8427448	fail	-0.3108326
-4.5017395	satisfy	-0.14129823
-4.735095	requirements	-0.12537211
-4.0278215	important	-0.08446031
-4.2486	portions	-0.53836125
-4.5017395	minor	0
-3.8427448	raised	-0.20625983
-4.735095	boeckh	0
-3.742292	respecting	-0.15708023
-4.1619363	conversation	-0.096873835
-3.8066165	held	-0.15882139
-3.59215	especially	-0.25357753
-4.735095	notoriously	0
-4.3569813	careless	-0.13003848
-4.735095	chronology	0
-3.8821533	aims	-0.11402257
-4.2486	probability	-0.0223448
-3.2657263	persons	-0.17552732
-3.7732644	mentioned	-0.14952435
-3.184104	could	-0.27107617
-3.8821533	met	-0.15737797
-3.6366682	difficulty	-0.25450522
-4.1619363	occurred	-0.30759788
-4.5017395	reading	0
-4.1619363	forty	-0.13003848
-3.6607647	greatly	-0.022222696
-3.8427448	trouble	-0.11495712
-4.3569813	investigation	-0.06606315
-4.0278215	argue	-0.104966015
-4.735095	historically	0
-4.61989	dates	0
-3.686277	useless	-0.26845154
-4.0278215	waste	-0.15981823
-4.735095	inventing	0
-4.735095	fetched	0
-4.735095	reconcilements	0
-4.0897226	avoid	-0.051047023
-3.9736533	difficulties	-0.038420808
-4.0278215	example	-0.09574777
-4.2486	conjecture	-0.08057338
-4.735095	c.f	0
-4.735095	hermann	0
-3.8427448	brothers	-0.13005081
-4.735095	uncles	0
-4.2486	intentionally	-0.018539928
-3.59215	left	-0.11899507
-4.61989	anachronisms	0
-4.735095	indicating	0
-3.8066165	characters	-0.0984691
-3.2758203	appears	-0.37575364
-4.735095	drops	0
-4.1619363	silence	-0.03790672
-4.2486	close	-0.03790672
-4.3569813	main	0
-3.8821533	discussion	-0.07675962
-3.7732644	carried	-0.23484978
-3.8821533	company	-0.14046176
-4.5017395	lysias	-0.1440103
-4.735095	euthydemus	0
-3.6607647	sons	-0.22045353
-3.742292	unknown	-0.14952435
-4.61989	charmantides	0
-4.735095	mute	-0.12537211
-4.735095	auditors	0
-4.1619363	cleitophon	-0.055987712
-4.735095	interrupts	0
-3.6366682	name	-0.13024653
-3.5517738	friend	-0.2344151
-4.1619363	ally	-0.12027649
-4.735095	patriarch	0
-4.735095	appropriately	0
-4.0278215	engaged	-0.21804787
-4.0897226	offering	0
-4.2486	sacrifice	-0.17006238
-3.4807913	almost	-0.09986632
-3.5517738	done	-0.1652638
-3.713382	peace	-0.14064458
-4.2486	feels	-0.18226476
-3.925498	drawing	-0.09441187
-3.8427448	below	-0.11352343
-3.2367806	seems	-0.65408534
-4.61989	linger	0
-4.1619363	memory	-0.0905234
-3.8821533	past	-0.10611075
-4.0278215	eager	-0.09370084
-4.61989	visit	0
-4.0278215	fond	-0.36558983
-3.4974792	happy	-0.18888947
-4.5017395	consciousness	-0.03790672
-4.1619363	spent	0
-4.3569813	glad	-0.06606315
-4.0897226	escaped	-0.17510235
-4.5017395	youthful	0
-4.1619363	lusts	-0.1440103
-3.209644	love	-0.31665894
-3.9736533	affection	-0.11466614
-4.5017395	indifference	0
-3.8427448	riches	-0.15487441
-4.61989	garrulity	0
-4.1619363	interesting	0
-4.735095	traits	0
-3.3075905	character	-0.36582458
-3.1084201	say	-0.31509182
-4.2486	absorbed	-0.24065112
-3.29674	money	-0.23640853
-4.61989	acknowledges	-0.23907574
-3.686277	advantage	-0.18043122
-4.5017395	placing	0
-3.3418694	above	-0.38721773
-4.5017395	temptation	-0.028115379
-4.2486	dishonesty	0
-3.742292	falsehood	-0.25958472
-4.735095	respectful	0
-4.0278215	attention	-0.09388509
-3.686277	shown	-0.25958472
-3.318719	whose	-0.06435537
-4.735095	mission	0
-4.3569813	imposed	-0.26028547
-4.3569813	oracle	-0.010014435
-3.8427448	leads	-0.14403221
-3.4974792	ask	-0.21058755
-3.4974792	young	-0.15761988
-3.713382	alike	-0.07668689
-4.735095	noted	-0.058177628
-4.1619363	suited	-0.6175425
-3.925498	raise	-0.3116896
-3.0814903	might	-0.24971594
-3.4647212	seem	-0.5191109
-3.713382	expression	-0.12401625
-4.0897226	moderation	-0.064078316
-4.735095	pictured	0
-4.61989	tolerable	0
-3.9736533	portion	-0.41674235
-3.8066165	characteristic	-0.30408266
-3.4057992	feeling	-0.1733861
-4.5017395	contrasts	-0.1440103
-4.5017395	exaggeration	-0.10329033
-4.735095	senectute	0
-4.5017395	evening	-0.10761778
-4.2486	expressive	-0.3102531
-4.735095	fewest	0
-3.4974792	possible	-0.20008685
-4.0278215	touches	-0.15484
-3.8066165	remarks	-0.17400011
-4.3569813	aged	0
-3.686277	follows	-0.11885953
-3.925498	understood	-0.07675962
-3.4647212	taken	-0.24341011
-4.3569813	violation	-0.44145125
-4.1619363	propriety	-0.055987712
-3.5517738	son	-0.25095347
-4.2486	heir	-0.08057338
-4.5017395	frankness	-0.1440103
-4.735095	impetuousness	0
-4.735095	detaining	0
-3.5517738	force	-0.19872785
-4.5017395	opening	0
-4.3569813	scene	0
-2.3029466	will	-0.4199942
-2.919841	let	-0.60770154
-3.4647212	off	-0.21018164
-3.3301399	women	-0.22517681
-3.3418694	children	-0.24681127
-4.0278215	limited	-0.24002025
-3.9736533	represents	-0.17940451
-4.5017395	quotes	0
-4.0278215	simonides	-0.010014435
-4.3569813	pindar	0
-3.8066165	answers	-0.28069493
-3.366324	makes	-0.2740558
-4.5017395	elicited	-0.3165125
-4.2486	experienced	-0.045901913
-3.59215	necessity	-0.1715923
-4.5017395	refuting	0
-4.0897226	belongs	-0.51437306
-4.2486	pre	-0.1440103
-4.1619363	socratic	-0.07675962
-4.2486	dialectical	-0.055987712
-3.925498	incapable	-0.6526758
-4.61989	bewildered	0
-3.3418694	know	-0.35952115
-3.29674	saying	-0.26776367
-3.713382	admit	-0.31588107
-4.61989	thief	-0.13927527
-3.5714927	follow	-0.16345067
-4.0897226	analogy	-0.07775977
-3.8821533	brother	-0.055987712
-3.742292	learn	-0.1348288
-4.1619363	fell	-0.018539928
-4.2486	victim	-0.06606315
-3.9736533	thirty	-0.10386584
-4.2486	allusion	-0.06606315
-4.1619363	fate	-0.06606315
-4.735095	circumstance	-0.12537211
-3.713382	family	-0.10202105
-4.735095	syracusan	0
-3.9736533	origin	-0.19265226
-4.735095	migrated	0
-4.735095	thurii	0
-4.735095	chalcedonian	0
-4.5017395	giant	0
-3.5517738	already	-0.07948529
-3.613839	heard	-0.13335973
-4.735095	personification	0
-4.1619363	characteristics	-0.06606315
-4.1619363	vain	-0.038420808
-4.735095	blustering	0
-4.0897226	refusing	-0.30612975
-4.0278215	discourse	-0.08057338
-3.3301399	unless	-0.2759219
-4.0278215	paid	-0.0905234
-4.61989	oration	0
-4.61989	hoping	0
-4.61989	thereby	-0.23907574
-3.7732644	escape	-0.1758345
-4.5017395	inevitable	0
-3.6607647	mere	-0.040279012
-3.9736533	child	-0.09822549
-3.8066165	unable	-0.60862786
-4.5017395	foresee	0
-3.5329113	next	-0.12962136
-3.8821533	move	-0.027092261
-4.1619363	shut	-0.1440103
-4.3569813	reached	-0.097107954
-4.3569813	framing	-0.10329033
-3.8427448	respect	-0.075761564
-4.3569813	advance	-0.0223448
-4.735095	defending	0
-4.3569813	vainly	0
-4.5017395	tries	-0.3165125
-4.5017395	cover	-0.10761778
-4.735095	banter	0
-4.1619363	insolence	-0.08772626
-4.3569813	doctrines	0
-3.9736533	attributed	-0.50389254
-4.3569813	uncertain	0
-4.5017395	infancy	-0.1977775
-3.713382	serious	-0.050822318
-4.1619363	errors	0
-3.5329113	grow	-0.20608713
-3.3539248	put	-0.32661703
-4.5017395	mouths	-0.03790672
-4.735095	speakers	0
-4.5017395	thucydides	0
-3.8066165	concerned	-0.32854596
-3.4342618	present	-0.1295788
-4.2486	historical	0
-4.61989	inequality	-0.058177628
-4.0897226	contest	-0.024900047
-4.2486	adds	0
-4.61989	pompous	0
-4.3569813	empty	-0.10329033
-3.8427448	utterly	-0.07291985
-4.3569813	helpless	0
-3.5714927	master	-0.29848915
-3.8821533	knows	-0.13369808
-3.9736533	touch	-0.08164012
-4.0278215	springs	-0.097107954
-4.5017395	vanity	-0.1440103
-3.8821533	weakness	-0.19637403
-4.61989	irritated	0
-4.735095	noisy	0
-4.735095	imbecile	0
-4.61989	rage	0
-4.735095	lays	0
-4.0897226	open	-0.12091019
-4.735095	thrusts	0
-4.735095	assailant	0
-4.5017395	determination	-0.1440103
-4.735095	cram	0
-4.735095	throats	0
-3.5329113	bodily	-0.17355224
-3.8427448	souls	-0.093622446
-4.735095	elicits	0
-4.5017395	cry	-0.10329033
-4.5017395	horror	0
-3.8821533	temper	-0.072598666
-3.4057992	quite	-0.14894815
-3.8821533	worthy	-0.30870226
-3.5714927	remark	-0.28773212
-3.925498	process	-0.1505351
-4.3569813	amusing	0
-3.925498	complete	-0.106853865
-4.735095	submission	0
-4.61989	thoroughly	0
-4.2486	beaten	-0.17957999
-3.742292	continue	-0.4210598
-4.2486	reluctance	0
-3.7732644	soon	-0.053279936
-4.0897226	apparent	0
-4.735095	testifies	0
-4.61989	occasional	0
-4.61989	attacked	-0.23907574
-4.735095	humorously	0
-4.5017395	protected	-0.1440103
-3.184104	never	-0.10261378
-3.7732644	enemy	-0.13201837
-4.735095	quintilian	0
-4.2486	rhetoric	0
-3.6366682	ridiculous	-0.21163903
-3.6366682	note	-0.20928138
-4.3569813	preserved	-0.055987712
-3.7732644	play	-0.17589703
-4.3569813	contemporary	0
-4.3569813	herodicus	-0.10329033
-4.0897226	thou	-0.055987712
-4.735095	wast	0
-4.3569813	bold	0
-4.1619363	battle	-0.058912337
-3.686277	show	-0.16233039
-4.3569813	devoid	-0.44145125
-4.5017395	verisimilitude	0
-4.61989	silenced	-0.1440103
-4.735095	respondents	0
-3.925498	tragedy	-0.13392945
-4.3569813	actors	0
-3.8427448	introduced	-0.212228
-4.735095	ariston	-0.01227158
-4.61989	wear	0
-3.925498	likeness	-0.14245714
-4.735095	simmias	0
-4.735095	cebes	0
-4.61989	phaedo	-0.1977775
-4.5017395	examination	-0.10329033
-4.735095	similarity	0
-4.735095	vanishes	0
-4.735095	impetuous	0
-4.735095	fechting	0
-4.0278215	acquainted	-0.51437306
-4.2486	mysteries	-0.08057338
-4.735095	juvenis	0
-4.735095	qui	0
-4.735095	gaudet	0
-4.735095	canibus	0
-4.5017395	improves	-0.1440103
-4.0897226	breed	-0.11970355
-3.6607647	animals	-0.15279199
-4.3569813	experiences	-0.10329033
-4.61989	quickness	-0.23907574
-4.735095	penetration	0
-4.735095	piercing	0
-4.61989	clumsy	0
-4.735095	platitudes	0
-3.9736533	turns	-0.072598666
-4.735095	seamy	0
-3.8427448	faith	-0.2652688
-4.735095	seizes	0
-3.8427448	termed	-0.10237104
-4.0897226	ludicrous	-0.072598666
-4.735095	pigs	0
-4.0897226	prepared	-0.19698526
-3.9736533	jest	-0.09441187
-4.3569813	offers	0
-4.2486	opportunity	-0.13003848
-3.6366682	ready	-0.37942043
-4.3569813	appreciate	-0.16146985
-4.735095	connoisseurs	0
-3.5714927	lovers	-0.48971924
-4.735095	theatricals	0
-4.61989	fantastic	0
-4.3569813	behaviour	-0.10329033
-4.5017395	weaknesses	0
-4.61989	alluded	-0.23907574
-3.59215	allow	-0.19782525
-4.735095	megara	0
-4.735095	.the	0
-4.735095	graver	0
-4.735095	profounder	0
-4.0278215	objections	-0.10329033
-3.925498	commonly	-0.03299573
-4.3569813	mouth	-0.10761778
-4.735095	demonstrative	0
-4.61989	opens	0
-4.5017395	game	-0.1942655
-4.3569813	pursues	0
-4.735095	liveliness	0
-4.1619363	quick	-0.12027649
-4.1619363	sympathy	-0.06606315
-4.61989	maturer	0
-4.1619363	grown	-0.048581623
-4.3569813	insists	-0.22175236
-3.1446154	injustice	-0.23919603
-3.1015296	shall	-0.28563794
-3.9736533	considered	-0.11768511
-3.5714927	regard	-0.24989879
-4.2486	consequences	-0.07405588
-4.61989	sake	-0.028115379
-4.5017395	vein	0
-4.61989	urges	0
-3.8427448	fails	-0.20943615
-3.8427448	answered	-0.18155666
-4.735095	direct	0
-4.3569813	indirect	-0.08057338
-4.0897226	consequence	-0.13464601
-3.8066165	mythology	-0.15812711
-4.61989	respondent	-0.10329033
-3.8821533	slight	0
-4.2486	carries	-0.055987712
-4.3569813	lighter	0
-4.5017395	tone	0
-4.735095	volunteers	0
-3.318719	sense	-0.2369032
-4.5017395	refuses	-0.2133431
-3.6366682	pass	-0.17906061
-4.735095	argumentative	0
-4.5017395	imaginative	0
-3.8066165	corruption	-0.16742307
-4.61989	resumes	-0.23907574
-4.61989	apprehending	-0.058177628
-4.735095	hits	0
-4.1619363	course	-0.090984896
-4.1619363	returns	-0.08772626
-4.5017395	compares	-0.045901913
-4.61989	contentious	-0.10329033
-4.5017395	superseded	0
-4.61989	continues	-0.23907574
-4.3569813	successive	0
-4.0278215	stages	-0.21804787
-4.3569813	gentleman	-0.06606315
-4.735095	olden	0
-3.9736533	followed	-0.14451595
-4.0278215	practical	-0.0429074
-4.5017395	regulating	0
-4.61989	proverbs	0
-4.61989	saws	0
-3.8427448	wild	-0.14032045
-4.61989	generalization	-0.23907574
-4.5017395	lastly	-0.048581623
-4.0278215	disciples	-0.1818327
-3.9736533	teacher	-0.119140744
-3.8821533	arguments	-0.04165181
-4.0897226	convinced	-0.19584998
-3.3075905	desire	-0.27439204
-3.318719	go	-0.35218957
-4.61989	delineation	-0.058177628
-3.7732644	wholly	-0.018020686
-4.0897226	consistent	-0.19061087
-4.5017395	depicted	0
-4.735095	memorabilia	-0.058177628
-4.61989	xenophon	0
-4.2486	earliest	-0.18226476
-4.61989	apology	0
-4.3569813	ironical	0
-4.735095	provoking	0
-4.61989	questioning	-0.058177628
-4.735095	mask	0
-4.735095	silenus	0
-3.9736533	seriously	0
-3.9736533	enmity	-0.16208069
-3.379088	towards	-0.3157914
-4.735095	abates	0
-4.735095	representatives	0
-4.735095	corrupters	-0.12537211
-3.4492245	becomes	-0.09689027
-4.735095	dogmatic	0
-4.735095	constructive	0
-3.613839	passing	-0.12928692
-3.3922381	beyond	-0.26273465
-4.2486	range	-0.15524137
-4.61989	speculative	0
-3.9736533	passage	-0.08832714
-4.735095	intimate	-0.058177628
-3.4492245	give	-0.20858821
-4.3569813	repeating	-0.028115379
-4.2486	teaching	0
-3.032175	though	-0.24513893
-4.3569813	dwelt	-0.10329033
-3.713382	universal	-0.05267993
-3.9736533	final	-0.13971968
-4.1619363	deep	-0.055987712
-3.713382	public	-0.076800406
-4.5017395	failed	-0.08057338
-4.1619363	positive	0
-4.735095	nominally	0
-4.0897226	retained	-0.0905234
-4.0278215	inference	-0.119140744
-4.3569813	discovery	-0.11092817
-3.3075905	see	-0.28290078
-4.735095	affectation	0
-4.735095	wearisome	0
-4.5017395	advances	0
-3.5714927	help	-0.07115913
-4.61989	interlocutors	0
-4.2486	thesis	-0.064078316
-3.9736533	looked	-0.25175
-3.8821533	various	-0.06917657
-4.61989	characterized	0
-4.0897226	describes	-0.072598666
-4.3569813	companion	-0.0223448
-4.61989	fluently	0
-4.0278215	absolutely	-0.041591614
-3.514834	certain	-0.10044729
-3.742292	taught	-0.10729443
-4.0897226	immortality	-0.07405588
-4.5017395	disciple	-0.10329033
-3.1522312	reason	-0.26652706
-3.514834	suppose	-0.32489577
-3.742292	used	-0.17347892
-4.735095	revelations	0
-4.2486	instruction	-0.06606315
-4.0278215	banished	-0.0429074
-4.61989	denounced	0
-4.735095	favorite	0
-4.735095	oath	0
-3.8066165	mention	-0.08635887
-4.735095	daemonium	0
-4.1619363	sign	-0.12027649
-4.61989	phenomenon	0
-4.0897226	peculiar	0
-4.735095	prominent	0
-3.925498	illustration	-0.14952435
-3.8066165	apply	-0.20339152
-3.8821533	instances	-0.07775977
-2.5512936	you	-0.43224418
-3.318719	says	-0.2609781
-4.5017395	ironically	0
-4.61989	unaccustomed	-0.23907574
-3.6366682	images	-0.21057397
-3.8427448	examples	-0.2330841
-4.5017395	enlarged	-0.1440103
-4.0278215	allegory	-0.072598666
-4.1619363	parable	-0.096873835
-4.61989	embodies	0
-4.735095	concrete	0
-3.8066165	abstract	-0.046878546
-3.925498	figure	-0.14015785
-4.5017395	cave	0
-4.735095	vii	-0.03790672
-4.735095	recapitulation	0
-4.735095	vi	-0.058177628
-4.5017395	composite	0
-3.7732644	animal	-0.13550568
-4.735095	ix	-0.058177628
-4.5017395	ship	-0.0429074
-3.9736533	pilot	-0.08345699
-4.0897226	dog	-0.102607735
-4.61989	portionless	0
-4.5017395	maiden	0
-3.9736533	drones	-0.04963743
-4.735095	wasps	0
-4.5017395	links	-0.028115379
-3.8066165	passages	-0.04432825
-4.5017395	recall	0
-4.0897226	previous	-0.04818687
-4.2486	discussions	-0.13645878
-4.3569813	paradoxes	-0.08057338
-4.0278215	speculations	-0.106853865
-4.61989	upward	0
-3.8066165	seemed	-0.49801525
-3.686277	error	-0.18023862
-4.735095	revolted	0
-4.735095	sterner	0
-4.61989	judgement	-0.23907574
-4.0897226	multitude	-0.100832306
-3.318719	sort	-0.46679425
-3.9736533	pity	-0.03478412
-4.61989	misunderstanding	0
-4.3569813	unavoidable	-0.10329033
-4.2486	artificial	0
-4.5017395	possessing	0
-4.3569813	native	0
-4.3569813	applications	-0.18226476
-4.2486	leaders	-0.097107954
-3.686277	measure	-0.13812974
-3.8427448	ignorant	-0.28823587
-4.5017395	stature	0
-4.61989	pitied	0
-4.3569813	laughed	-0.2133431
-4.735095	quarrelled	0
-3.514834	mean	-0.18515149
-4.735095	nostrums	0
-2.467492	if	-0.57699275
-4.5017395	cutting	-0.10329033
-4.5017395	hydra	0
-3.9736533	head	-0.14329442
-4.5017395	features	-0.10329033
-4.2486	representations	-0.16146985
-3.8427448	differences	-0.24025674
-4.0897226	retains	-0.12936881
-4.61989	unwearied	0
-4.5017395	disinterested	0
-4.735095	seeker	0
-4.5017395	ceased	-0.3165125
-4.1619363	leaving	-0.13003848
-4.5017395	analyse	-0.1440103
-4.735095	contents	0
-3.5714927	proceed	-0.36047667
-3.4974792	consider	-0.23714349
-4.0897226	aspects	-0.25497723
-4.2486	lights	-0.08057338
-4.1619363	read	-0.073273465
-4.2486	festival	-0.027092261
-4.61989	goddess	-0.08057338
-4.61989	bendis	0
-4.735095	piraeus	0
-3.8821533	added	-0.08759242
-4.0897226	promise	-0.25459784
-4.61989	equestrian	0
-4.61989	torch	-0.23907574
-3.8427448	race	-0.0999121
-4.61989	recited	0
-3.4807913	small	-0.1264857
-3.7732644	party	-0.025232561
-4.3569813	consisting	-0.44145125
-4.735095	hermocrates	0
-4.61989	rhetorical	-0.03790672
-4.61989	reciting	0
-4.1619363	gained	-0.10329033
-4.3569813	distracted	0
-4.2486	reference	-0.53836125
-4.61989	audience	0
-4.3569813	reminded	-0.10329033
-4.0278215	extraordinary	0
-4.3569813	informed	0
-3.8066165	went	-0.13978982
-4.61989	talked	0
-3.9736533	night	-0.08940237
-4.0897226	arisen	-0.12027649
-3.686277	leave	-0.16625974
-4.2486	detained	-0.3102531
-4.735095	message	0
-4.2486	speedily	0
-4.5017395	accompanied	-0.3165125
-4.61989	playful	0
-4.0278215	violence	-0.024900047
-4.1619363	compels	-0.13003848
-4.5017395	promising	0
-4.5017395	attraction	0
-3.686277	return	-0.19484435
-3.9736533	extreme	-0.0564734
-4.1619363	sitting	-0.11092817
-4.735095	cushioned	0
-4.5017395	seat	0
-3.0623348	me	-0.24969663
-4.3569813	oftener	0
-3.8821533	am	-0.08846373
-2.9289339	my	-0.23994096
-3.925498	asks	-0.2198544
-3.8821533	thinks	-0.17065336
-3.9736533	replies	-0.22952102
-4.1619363	sorrows	-0.055987712
-4.735095	discontents	0
-4.5017395	tempers	-0.10761778
-3.925498	passions	-0.09942908
-3.8821533	felt	-0.14403221
-3.742292	yes	-0.1171215
-3.4647212	rich	-0.21873064
-3.3301399	something	-0.26958385
-3.4197972	imagine	-0.29475084
-4.61989	themistocles	0
-3.8066165	replied	-0.14945339
-4.61989	seriphian	0
-3.713382	reply	-0.1932243
-3.6366682	poor	-0.1556921
-3.4807913	bad	-0.13647088
-3.6607647	quality	-0.21625037
-4.735095	ascribes	0
-4.0278215	inherited	-0.048581623
-3.925498	acquired	-0.12061433
-4.2486	considers	-0.06606315
-4.3569813	chief	-0.027092261
-3.9736533	belief	-0.08164012
-3.8427448	compelled	-0.30364498
-4.0278215	poverty	-0.23109894
-4.0278215	deceived	-0.060170192
-4.735095	anyone	0
-4.735095	unspeakable	0
-4.1619363	blessings	-0.12936881
-4.5017395	evidently	0
-4.2486	preparing	-0.16146985
-3.713382	word	-0.092929855
-3.318719	tell	-0.44171035
-3.742292	pay	-0.10105449
-3.0814903	your	-0.14323804
-4.3569813	debts	-0.03790672
-4.1619363	exceptions	-0.13003848
-3.514834	back	-0.20018137
-4.1619363	gone	-0.08446031
-3.9736533	mad	-0.08223391
-4.735095	sword	0
-4.1619363	borrowed	-0.16689536
-3.255862	right	-0.31581768
-3.613839	authority	-0.21614745
-4.5017395	retires	-0.1440103
-3.4342618	look	-0.22771432
-4.0278215	sacrifices	-0.25958472
-4.735095	bequeaths	0
-4.61989	facetiously	0
-4.3569813	touched	0
-4.735095	key	0
-4.735095	suggesting	0
-3.7732644	afterwards	-0.08135915
-3.7732644	goods	-0.1840355
-4.61989	mythus	0
-4.5017395	portrait	-0.1440103
-4.735095	frontispiece	0
-4.0897226	imply	-0.26449558
-4.3569813	perplexity	-0.13927527
-4.735095	discerning	0
-3.8427448	explanation	-0.27874273
-4.61989	supported	-0.23907574
-4.2486	resolution	-0.018539928
-4.735095	unconnected	0
-4.5017395	precepts	0
-4.1619363	demands	-0.018539928
-4.735095	.he	0
-3.9736533	proceeds	-0.24155246
-3.318719	did	-0.27917525
-3.8821533	arms	-0.1514653
-4.61989	madman	0
-4.5017395	parties	-0.1440103
-3.8066165	meant	-0.2771714
-3.686277	proper	-0.10887267
-3.8066165	harm	-0.13084112
-3.4807913	enemies	-0.22887297
-4.61989	somebody	0
-3.8821533	following	-0.124798045
-3.9736533	due	-0.22179618
-3.137131	way	-0.3291357
-4.735095	alliances	-0.12537211
-3.4807913	going	-0.34936047
-3.4342618	war	-0.23016313
-4.0897226	contracts	-0.013830212
-4.5017395	partnerships	-0.1440103
-3.9736533	safely	0
-4.0897226	kept	0
-3.742292	useful	-0.15372837
-4.2486	opposites	0
-4.5017395	attack	0
-3.9736533	defence	-0.06606315
-4.61989	stealing	0
-4.61989	guarding	0
-4.0897226	hero	-0.08442252
-4.5017395	notwithstanding	-0.10329033
-4.61989	autolycus	-0.23907574
-4.3569813	homeric	-0.0564734
-3.8821533	excellent	-0.059505023
-4.2486	theft	-0.10761778
-4.735095	perjury	0
-4.735095	thieving	0
-4.735095	interpreted	0
-4.5017395	render	-0.055987712
-3.1599827	make	-0.26908934
-3.6607647	produce	-0.12031132
-4.735095	horsemanship	0
-4.61989	horsemen	0
-4.0278215	heat	-0.028115379
-3.9736533	cold	-0.07047689
-4.3569813	sage	-0.10329033
-3.6366682	poet	-0.10602995
-4.61989	maxim	-0.1440103
-4.2486	mighty	-0.013830212
-4.61989	periander	0
-4.61989	perdiccas	-0.23907574
-4.735095	ismenias	-0.12537211
-4.735095	theban	0
-4.735095	aphoristic	0
-4.61989	unconscious	0
-4.735095	inadequate	0
-3.8821533	wants	-0.15501197
-3.59215	set	-0.13704892
-4.735095	winding	0
-4.735095	mazes	0
-4.0278215	approach	-0.055987712
-4.735095	precept	0
-4.735095	forgiveness	0
-4.735095	injuries	0
-3.8821533	applied	-0.19378383
-4.735095	persian	-0.058177628
-4.61989	mystic	0
-4.3569813	stirred	-0.10329033
-4.735095	punishest	0
-4.5017395	thee	0
-4.735095	kheyam	0
-3.9736533	rise	-0.14464243
-4.2486	level	-0.27344674
-4.5017395	theologians	0
-3.4807913	simple	-0.12142819
-4.61989	substituted	0
-3.59215	gives	-0.15496717
-4.0897226	sufficient	-0.045644138
-4.2486	plain	-0.018539928
-3.613839	fall	-0.18565689
-4.61989	precision	-0.03790672
-4.735095	casuistry	0
-3.8427448	established	-0.14464243
-3.8821533	particular	-0.054444417
-3.8821533	cases	-0.068385705
-3.8427448	attain	-0.1793628
-4.5017395	prior	-0.2133431
-4.735095	posterior	0
-4.3569813	fundamental	-0.015842395
-4.61989	interrogation	0
-4.0278215	appeal	-0.41674235
-4.3569813	erroneous	0
-4.735095	.here	0
-4.735095	interrupt	0
-4.2486	hitherto	-0.013830212
-4.735095	pause	0
-4.735095	rushes	0
-4.735095	arena	0
-4.2486	savage	0
-4.61989	roar	0
-4.0278215	folly	-0.15749213
-3.5517738	agree	-0.34967744
-4.735095	vanquished	0
-4.735095	pretended	0
-4.735095	prohibits	0
-4.61989	definitions	-0.23907574
-4.61989	twelve	0
-4.1619363	forbidden	-0.1514653
-3.925498	2	-0.17823109
-3.9736533	x	-0.17510235
-4.1619363	6	-0.018539928
-3.7732644	3	-0.20303838
-4.0278215	4	-0.09683621
-4.2486	reluctant	-0.24065112
-3.925498	payment	-0.08057338
-3.6607647	praise	-0.18565689
-4.1619363	induced	-0.38345927
-4.0278215	listen	-0.24765298
-3.7732644	stronger	-0.1820522
-3.613839	understand	-0.33098322
-4.735095	polydamas	-0.12537211
-4.61989	wrestler	0
-3.925498	finds	-0.21692717
-4.1619363	eating	-0.2801801
-4.61989	beef	-0.10329033
-3.7732644	strong	-0.09822549
-4.2486	indignant	-0.3102531
-4.3569813	apparently	0
-4.735095	restore	0
-4.2486	dignity	-0.13003848
-4.3569813	explains	-0.0223448
-3.713382	interests	-0.12762627
-3.925498	ruler	-0.11423794
-4.0897226	mistake	-0.08164012
-4.1619363	saved	-0.17043054
-4.61989	speedy	0
-4.735095	downfall	0
-4.3569813	introduces	-0.1089034
-4.3569813	unmeaning	0
-4.735095	evasion	0
-3.9736533	differ	-0.21158922
-4.0897226	assertion	-0.13464601
-4.0897226	interpretation	-0.12091019
-4.61989	accepted	-0.23907574
-3.7732644	disposed	-0.25497723
-4.61989	significantly	0
-4.735095	insinuates	0
-4.5017395	adversary	0
-4.5017395	withdraw	0
-4.1619363	admission	0
-4.5017395	affirms	-0.1440103
-4.5017395	infallible	0
-4.1619363	accept	-0.10329033
-3.7732644	position	-0.0869436
-3.318719	equally	-0.06815312
-4.5017395	accidental	0
-3.8821533	artist	-0.044410475
-4.61989	sway	0
-4.735095	brink	0
-4.735095	diversion	0
-4.0278215	nurse	-0.12091019
-3.1924515	she	-0.19080964
-4.61989	neglects	0
-4.61989	lets	-0.058177628
-4.735095	drivelling	0
-4.5017395	shepherd	-0.06821457
-3.9736533	sheep	-0.22483696
-4.2486	shepherds	-0.13003848
-3.379088	think	-0.30149716
-3.514834	subjects	-0.21085958
-3.3418694	whereas	-0.22249012
-4.735095	fatten	0
-4.1619363	proves	-0.08223391
-4.61989	loser	0
-3.4647212	unjust	-0.20131159
-4.735095	gainer	0
-4.61989	grand	0
-3.9736533	scale	-0.11495712
-4.735095	petty	0
-4.5017395	rogueries	-0.1440103
-4.61989	swindlers	-0.23907574
-4.61989	burglars	-0.058177628
-4.3569813	robbers	-0.2133431
-4.1619363	temples	-0.10568914
-4.3569813	gracious	0
-3.8821533	blessed	-0.04745075
-3.742292	tyrant	-0.08465741
-4.0278215	tends	-0.24025674
-4.0897226	profitable	-0.13529253
-4.61989	deluged	0
-4.2486	humble	0
-4.0897226	earnest	-0.0869436
-4.0278215	request	-0.119140744
-4.735095	desert	0
-4.61989	crisis	0
-4.1619363	forbid	-0.09370084
-3.6366682	terms	-0.15818444
-4.2486	employ	-0.055987712
-3.7732644	physician	-0.22505678
-3.9736533	exact	-0.05678279
-4.735095	inexact	0
-4.2486	strictly	0
-4.61989	flocks	0
-4.0897226	insist	-0.26449558
-4.5017395	solely	0
-4.735095	actuated	0
-3.8066165	office	-0.12319542
-3.8066165	doubt	-0.15967934
-4.5017395	concern	-0.03790672
-4.735095	identical	0
-3.686277	hope	-0.33191133
-4.0278215	reward	-0.0429074
-3.4492245	fear	-0.2532732
-4.0278215	punishment	-0.05048391
-3.686277	worse	-0.11412989
-3.7732644	entirely	-0.03588365
-3.8427448	affected	-0.16082585
-3.9736533	motive	0
-4.735095	nolo	0
-4.735095	episcopari	0
-3.8066165	opposite	-0.080204934
-4.5017395	satire	-0.2133431
-3.7732644	existing	-0.13963206
-4.735095	heightened	0
-4.61989	incidental	0
-4.2486	governors	-0.106853865
-3.9736533	demand	-0.024900047
-4.735095	.enough	0
-4.735095	gainful	-0.12537211
-3.713382	try	-0.29153728
-4.0278215	compare	-0.32292888
-4.61989	respective	0
-4.1619363	gains	-0.048581623
-4.2486	decide	0
-4.3569813	mutual	0
-4.2486	admissions	-0.08057338
-4.2486	hesitation	0
-4.0278215	paradox	-0.119140744
-3.2367806	virtue	-0.29004306
-3.613839	vice	-0.2639716
-3.925498	praises	-0.20286255
-4.2486	assumes	-0.10761778
-4.61989	attitude	-0.23907574
-3.742292	wish	-0.22517449
-4.1619363	opponents	-0.048581623
-4.2486	weaving	-0.08057338
-4.735095	net	0
-4.735095	enclosed	0
-3.713382	gain	-0.13477397
-3.9736533	statement	-0.106853865
-4.735095	employs	0
-4.5017395	favourite	0
-4.1619363	musician	-0.16742307
-4.5017395	doctor	0
-4.2486	skilled	0
-3.9736533	seek	-0.117381826
-4.735095	unskilled	0
-4.61989	random	0
-3.925498	excess	-0.22181258
-3.742292	falls	-0.14403221
-4.2486	bringing	-0.06606315
-4.5017395	hot	-0.1440103
-4.735095	streaming	0
-4.61989	perspiration	0
-4.735095	blush	0
-4.61989	refuted	0
-4.5017395	consideration	-0.03790672
-4.3569813	assistance	-0.08057338
-4.2486	hopes	-0.08057338
-3.6366682	clear	-0.21098109
-4.2486	latter	-0.051495183
-4.735095	churlish	0
-4.735095	judicious	0
-4.2486	restored	-0.12027649
-4.2486	thieves	-0.15484
-3.4807913	strength	-0.2575826
-4.1619363	remnant	-0.30759788
-3.59215	absolute	-0.15635204
-3.713382	divided	-0.1858008
-3.925498	stand	-0.09648465
-4.735095	detract	0
-3.6607647	gods	-0.16422506
-4.0897226	wickedness	-0.038420808
-4.735095	semi	0
-4.735095	flourishes	0
-4.0897226	needed	-0.14403689
-4.0278215	union	-0.1279914
-3.514834	action	-0.22363557
-4.61989	happier	-0.018539928
-4.0897226	accomplished	-0.13370967
-4.2486	inseparable	-0.13003848
-4.3569813	disappeared	-0.2838632
-4.61989	entertainment	0
-4.735095	kindness	0
-4.61989	scolding	-0.058177628
-3.742292	fault	-0.10709246
-4.3569813	tasted	-0.06606315
-3.4492245	wisdom	-0.20802908
-4.5017395	comparative	-0.018539928
-3.8821533	advantages	-0.18964812
-4.0897226	sum	-0.106853865
-4.61989	fabric	0
-4.735095	demolished	0
-4.735095	appealing	0
-4.3569813	aiming	-0.2133431
-4.61989	implement	-0.23907574
-4.3569813	workman	-0.08057338
-4.61989	stumble	0
-4.5017395	forgets	-0.028115379
-3.613839	faculties	-0.20541547
-4.61989	undistinguished	0
-4.61989	enquirers	0
-4.735095	helped	0
-4.0897226	fill	-0.05678279
-4.5017395	void	-0.1440103
-4.1619363	comparison	-0.18226476
-4.1619363	perceived	-0.1089034
-4.5017395	fallacious	0
-3.742292	saw	-0.1063723
-4.3569813	agreement	-0.028115379
-3.9736533	manners	-0.12475475
-4.5017395	statue	-0.03790672
-4.0897226	readily	0
-4.1619363	transferred	-0.38345927
-4.3569813	morals	-0.10329033
-4.5017395	cleared	-0.1440103
-4.735095	perplexities	0
-4.3569813	contemporaries	-0.024900047
-4.61989	transition	-0.058177628
-4.1619363	fully	-0.13003848
-4.3569813	production	-0.0223448
-3.925498	implies	-0.060170192
-4.735095	constancy	0
-3.925498	requires	-0.073273465
-4.735095	absurdities	0
-3.8821533	uses	-0.072598666
-4.3569813	intimation	0
-4.3569813	conveyed	0
-3.8821533	implied	-0.17940451
-4.735095	reductio	0
-4.735095	ad	0
-4.735095	absurdum	0
-4.735095	dissatisfaction	0
-4.5017395	expresses	-0.03790672
-4.1619363	employed	-0.07405588
-3.9736533	elsewhere	0
-4.0897226	suggested	-0.31258982
-4.0897226	extend	-0.19698526
-3.4807913	doing	-0.12552178
-4.735095	flaw	0
-4.735095	inaccuracy	0
-4.0897226	injured	-0.097107954
-4.735095	harmed	0
-3.5329113	ill	-0.20361789
-4.735095	wrapped	0
-4.735095	enigmatical	0
-4.735095	finite	0
-4.61989	peculiarly	0
-3.9736533	sentiment	-0.12726146
-3.925498	compared	-0.33231243
-4.5017395	fitness	0
-4.0897226	obedience	-0.25497723
-4.0278215	mathematical	-0.073273465
-3.8427448	limit	-0.09113022
-4.61989	mythological	0
-4.3569813	envy	0
-3.713382	proportion	-0.14807913
-4.735095	moralists	0
-3.925498	fine	-0.018539928
-4.735095	superlatives	0
-4.2486	workmen	0
-4.5017395	strive	-0.1440103
-4.61989	confound	0
-3.925498	skill	-0.12479884
-4.735095	covetousness	0
-4.3569813	fairer	-0.08057338
-3.9736533	musical	-0.0223448
-4.0278215	notes	-0.106853865
-4.61989	conceiving	-0.1440103
-3.613839	called	-0.08184866
-4.735095	epilogue	0
-4.2486	argues	-0.16689536
-3.8427448	discord	-0.17081264
-4.2486	dissolution	-0.06606315
-4.2486	touching	-0.1942655
-4.61989	negative	0
-3.9736533	trace	-0.20286255
-4.61989	germ	-0.23907574
-4.0278215	directed	-0.20286255
-4.61989	identity	-0.1440103
-4.5017395	intimated	0
-4.735095	reassumes	0
-3.713382	satisfied	-0.15500785
-4.5017395	conducted	0
-4.735095	concluded	0
-4.0897226	tendency	-0.25175
-4.5017395	enlarge	-0.1440103
-4.735095	widen	0
-3.8427448	application	-0.22441022
-4.61989	pacified	0
-4.735095	intrepid	0
-4.61989	dividing	0
-3.686277	classes	-0.14686988
-4.0897226	desirable	-0.22588459
-3.742292	secondly	-0.12695885
-4.3569813	results	-0.07047689
-4.0897226	thirdly	-0.010014435
-3.2185025	class	-0.28770602
-4.2486	troublesome	-0.015842395
-4.735095	rejects	0
-3.8821533	voice	-0.14403689
-4.735095	charmer	0
-4.5017395	proposes	-0.1089034
-3.925498	apart	-0.46249986
-4.61989	dinning	-0.23907574
-4.0278215	ears	-0.046878546
-3.8427448	prove	-0.20599253
-4.61989	reasonableness	-0.058177628
-3.8821533	suffer	-0.038420808
-4.61989	sufferers	0
-4.61989	doers	0
-4.61989	compact	0
-4.2486	impossibility	-0.018539928
-3.686277	observe	-0.23517656
-4.2486	obliged	-0.19698526
-4.61989	rings	0
-4.3569813	gyges	0
-3.925498	story	-0.09648465
-4.735095	abstains	0
-4.3569813	fool	-0.064078316
-3.742292	pains	-0.18314074
-3.925498	laugh	-0.10386584
-4.5017395	craft	0
-4.2486	seldom	0
-4.735095	mistakes	0
-4.735095	correcting	0
-3.6607647	gifts	-0.20048766
-4.735095	villain	0
-4.1619363	bearing	-0.055987712
-4.735095	nobleness	-0.12537211
-4.1619363	clothed	-0.38943437
-3.9736533	die	-0.10329033
-3.9736533	lived	-0.08057338
-3.713382	add	-0.09077167
-4.735095	scourged	-0.12537211
-4.61989	racked	-0.058177628
-3.925498	bound	-0.07034864
-3.59215	eyes	-0.15542907
-4.735095	crucified	0
-4.5017395	preferred	-0.10329033
-4.735095	clings	0
-3.7732644	appearance	-0.11060353
-4.1619363	marry	-0.08057338
-4.5017395	likes	-0.07405588
-3.8821533	trade	-0.1932243
-4.2486	hurt	-0.08057338
-3.8427448	got	-0.12636411
-4.0278215	worship	-0.064078316
-4.2486	loved	-0.08057338
-3.713382	thinking	-0.17548001
-4.3569813	joined	-0.2133431
-4.3569813	unequal	-0.058177628
-4.735095	fray	0
-4.1619363	omitted	0
-3.6607647	parents	-0.14733985
-3.5517738	guardians	-0.16825101
-3.8821533	reputation	-0.13066016
-4.5017395	incentive	-0.3165125
-4.5017395	promised	-0.1440103
-3.925498	solid	-0.14312938
-4.2486	wealthy	-0.0429074
-3.9736533	marriages	-0.13370967
-4.1619363	offices	-0.018539928
-4.0897226	pictures	-0.25175
-4.0897226	hesiod	-0.09942908
-4.61989	fat	0
-4.0278215	heavy	-0.097107954
-4.5017395	fleeces	-0.1440103
-4.3569813	corn	-0.16146985
-4.61989	fields	0
-4.3569813	trees	0
-4.735095	toppling	0
-4.61989	fruit	0
-4.0897226	provide	-0.19061087
-4.735095	orphic	0
-3.925498	picture	-0.2481415
-3.8066165	heroes	-0.08057338
-4.5017395	musaeus	-0.3165125
-4.735095	eumolpus	0
-3.6607647	lie	-0.20010175
-4.735095	couches	-0.058177628
-4.3569813	garlands	-0.13003848
-4.3569813	heads	-0.080148496
-4.61989	enjoying	0
-4.61989	meed	-0.23907574
-4.5017395	paradise	0
-4.0897226	immortal	-0.22198693
-4.2486	drunkenness	-0.08057338
-4.1619363	posterity	0
-4.0278215	wicked	-0.08057338
-4.735095	bury	0
-4.5017395	slough	0
-3.925498	carry	-0.17330344
-3.925498	water	-0.08832714
-4.735095	sieve	0
-4.1619363	attribute	-0.08223391
-4.5017395	infamy	-0.1440103
-3.9736533	assuming	-0.1804035
-3.9736533	lot	-0.09943654
-3.7732644	honourable	-0.24033
-3.742292	difficult	-0.13464601
-3.713382	easy	-0.08913623
-4.5017395	prosperity	-0.1440103
-4.5017395	righteous	-0.13927527
-4.61989	afflicted	0
-4.735095	mendicant	-0.12537211
-4.3569813	knock	-0.10329033
-4.5017395	doors	0
-4.735095	atone	0
-4.3569813	sins	-0.058177628
-3.8427448	fathers	-0.16689536
-3.8427448	fashion	-0.1440103
-4.735095	festive	0
-4.3569813	games	-0.10329033
-4.3569813	charms	-0.028115379
-4.735095	invocations	0
-3.59215	get	-0.16600366
-4.2486	rid	-0.25497723
-4.2486	charge	-0.018539928
-4.5017395	professing	0
-4.5017395	orpheus	0
-3.613839	minds	-0.05774883
-3.6366682	cities	-0.09797863
-4.735095	purgatory	0
-3.742292	refuse	-0.6713868
-3.9736533	happen	-0.1811441
-4.61989	lively	0
-4.5017395	minded	0
-4.735095	ingenuous	0
-4.5017395	hears	0
-4.3569813	tower	0
-4.735095	fortify	0
-4.2486	crooked	0
-4.5017395	deceit	0
-4.735095	reflects	0
-3.8821533	misery	-0.2707873
-4.0897226	ruin	-0.080148496
-4.0278215	glorious	-0.05048391
-3.4647212	turn	-0.19381122
-4.61989	trail	0
-3.8066165	behind	-0.13606513
-4.61989	fox	0
-4.5017395	archilochus	0
-3.4492245	hear	-0.18487372
-4.3569813	concealed	0
-3.8821533	prevail	-0.25480017
-3.8066165	acknowledge	-0.2849947
-4.735095	appeased	0
-3.9736533	sin	-0.0905234
-4.735095	indulgences	0
-4.5017395	unpunished	-0.10329033
-4.5017395	sinning	0
-4.5017395	nay	-0.038227953
-4.61989	atoning	0
-3.6366682	powers	-0.26168263
-4.1619363	resist	0
-4.3569813	favour	-0.10329033
-3.5329113	wise	-0.23046097
-4.5017395	worlds	0
-3.686277	miserable	-0.16386104
-4.735095	caitiff	0
-4.2486	refrain	-0.53836125
-4.735095	smiling	0
-3.8427448	angry	-0.18348184
-4.2486	save	-0.0905234
-4.735095	instructors	0
-4.61989	temporal	0
-4.61989	dispensation	0
-3.7732644	honours	-0.30493692
-4.735095	profits	0
-3.9736533	inherent	-0.10329033
-4.1619363	unseen	-0.048581623
-3.742292	eye	-0.14666
-3.742292	guardian	-0.16148974
-3.925498	tend	-0.46249986
-4.61989	strengthen	-0.1440103
-4.0278215	expect	-0.027092261
-4.61989	exclude	0
-3.9736533	superiority	-0.13370967
-4.0278215	maintained	-0.07863706
-4.0278215	converse	-0.20599253
-3.8821533	weaker	-0.16082585
-4.1619363	starting	-0.1440103
-4.3569813	premises	0
-3.8427448	step	-0.12058903
-4.0278215	combined	-0.16689536
-4.2486	theories	-0.13003848
-3.925498	e.g	-0.83939123
-4.0897226	foundation	-0.16689536
-4.735095	monarch	0
-4.2486	govern	-0.038420808
-3.686277	self	-0.15085109
-3.4197972	private	-0.18587987
-4.2486	vices	-0.08772626
-4.5017395	benefits	-0.1440103
-4.61989	plausibility	-0.23907574
-4.2486	partial	0
-4.735095	oscillates	0
-4.0278215	motives	-0.14286545
-3.686277	actions	-0.1509243
-4.5017395	hypothesis	0
-4.735095	obligation	0
-4.1619363	maintaining	-0.06606315
-3.613839	circumstances	-0.20617251
-3.4492245	sometimes	-0.052990608
-4.61989	questionable	0
-4.0897226	strongly	-0.01227158
-4.5017395	instinct	0
-3.925498	civilized	-0.05202209
-4.1619363	expressed	-0.048581623
-4.61989	accompaniment	-0.23907574
-3.5714927	free	-0.26257953
-4.61989	alloy	0
-4.3569813	generous	0
-4.2486	attended	-0.08057338
-4.61989	ghost	-0.058177628
-4.0897226	foolish	-0.048581623
-4.3569813	clever	-0.06606315
-4.5017395	rogue	0
-4.735095	vague	0
-3.8821533	gradually	0
-4.61989	corrected	0
-4.1619363	custom	-0.064078316
-3.8066165	describe	-0.17058744
-3.8066165	feelings	-0.13113086
-4.735095	average	0
-4.0278215	simply	-0.072598666
-4.0278215	theory	-0.16053343
-4.735095	counteracting	0
-4.735095	untruthful	0
-4.61989	disinterestedness	0
-4.735095	cynic	0
-4.0897226	deal	-0.12109345
-3.686277	bring	-0.17034052
-4.0897226	truer	-0.13696818
-4.735095	kindlier	0
-3.9736533	mixed	-0.051047023
-4.0897226	fellow	-0.10836726
-4.735095	ordinarily	0
-4.5017395	consist	0
-4.735095	stoical	0
-4.2486	serve	0
-3.925498	exercise	-0.13415293
-4.735095	ennobling	0
-3.5714927	none	-0.24040392
-4.61989	exceptional	0
-4.61989	humanity	-0.015842395
-3.6366682	death	-0.23288819
-4.735095	deliberately	0
-4.3569813	approves	-0.10329033
-4.5017395	utilitarian	0
-4.735095	moralist	0
-4.0278215	prefer	-0.22441022
-4.2486	agrees	-0.3102531
-4.3569813	expressing	-0.10329033
-3.686277	seeking	-0.36623347
-4.735095	dramatize	0
-4.61989	developing	0
-4.3569813	series	-0.16146985
-4.735095	positions	0
-4.735095	situations	0
-4.5017395	exhibiting	0
-4.61989	undergoing	0
-4.5017395	involves	0
-4.2486	associated	-0.22175236
-4.0897226	satisfaction	-0.08057338
-4.0897226	parallel	-0.072598666
-4.735095	homage	0
-4.61989	pays	0
-3.5329113	taking	-0.16499309
-4.61989	hint	0
-4.3569813	conventional	-0.028115379
-3.7732644	feel	-0.058985867
-4.735095	justifying	0
-3.686277	ways	-0.27123362
-4.735095	recalls	0
-4.5017395	condemnation	0
-4.3569813	greece	0
-4.61989	penetrate	0
-4.61989	objected	-0.23907574
-4.5017395	fashioned	0
-4.3569813	equivalent	-0.44145125
-4.3569813	viz	-0.44145125
-4.735095	ordering	-0.03790672
-4.61989	establish	-0.03790672
-4.2486	purely	-0.06606315
-4.735095	harmonise	0
-4.735095	theses	0
-3.742292	country	-0.113821134
-3.925498	turning	-0.11901557
-4.735095	cross	0
-4.1619363	inconsistent	-0.24065112
-4.2486	solution	-0.16146985
-4.1619363	standard	-0.055987712
-4.5017395	developed	0
-4.735095	deserving	-0.12537211
-4.5017395	immediately	0
-4.0278215	altogether	-0.038420808
-4.61989	tempted	0
-3.8821533	affirm	-0.16962335
-4.61989	rack	0
-4.5017395	dwells	0
-4.5017395	restoring	0
-3.4342618	condition	-0.24617854
-4.735095	comprehends	0
-4.1619363	fanciful	-0.055987712
-4.1619363	letters	-0.05048391
-4.61989	amounts	-0.23907574
-4.3569813	favourable	-0.0223448
-3.8821533	i.e	-0.8807839
-4.2486	coincide	-0.16146985
-3.8427448	exist	-0.2051103
-4.735095	shelter	-0.12537211
-4.0278215	wall	-0.07690808
-4.2486	esteemed	0
-4.3569813	maintains	-0.17957999
-3.8427448	duty	-0.16053343
-4.3569813	accident	-0.028115379
-4.61989	attends	0
-4.5017395	ye	-0.1440103
-4.61989	unto	-0.058177628
-4.3569813	remarked	-0.08772626
-4.3569813	preserves	-0.055987712
-4.2486	genuine	0
-3.8066165	ethics	-0.17945327
-4.5017395	reverse	-0.11495712
-4.735095	struggles	0
-4.0897226	assert	-0.055987712
-3.8821533	citizen	-0.14403221
-4.735095	creed	0
-4.3569813	constantly	0
-4.3569813	tending	-0.2133431
-4.5017395	revert	-0.16146985
-3.6366682	whenever	-0.25144213
-4.3569813	recollection	-0.16146985
-4.61989	identification	-0.23907574
-4.3569813	pervades	0
-4.5017395	subtle	0
-4.735095	collective	0
-3.686277	danger	-0.21234201
-4.3569813	forgetting	-0.16146985
-3.925498	united	-0.029248
-4.2486	elevate	0
-3.8427448	lower	-0.0756326
-4.0897226	legislation	-0.038420808
-4.0278215	acting	-0.03478412
-4.735095	.socrates	0
-3.8821533	offspring	-0.0984691
-4.61989	renowned	0
-4.735095	elegiac	0
-4.735095	eloquently	0
-4.3569813	behalf	-0.13927527
-4.735095	uninfluenced	0
-3.8427448	afraid	-0.26413223
-4.735095	deserting	-0.12537211
-4.1619363	hour	-0.17957999
-3.925498	weak	-0.11970355
-3.686277	allowed	-0.26117492
-4.0278215	smaller	-0.119140744
-4.0897226	accordingly	-0.13464601
-4.61989	construct	-0.1440103
-3.59215	food	-0.30104917
-4.3569813	coat	-0.13003848
-4.1619363	needs	-0.1440103
-4.3569813	possibility	-0.10836726
-4.735095	satisfying	0
-4.0278215	exchange	-0.10329033
-3.8821533	draw	-0.14013846
-4.3569813	spot	-0.042886425
-4.3569813	invent	0
-4.61989	inventor	0
-4.3569813	husbandman	-0.0223448
-4.61989	builder	0
-4.61989	weaver	0
-4.5017395	cobbler	-0.060608882
-3.7732644	required	-0.3516458
-3.29674	natures	-0.26583084
-3.713382	business	-0.14378428
-4.735095	waits	0
-3.9736533	hence	-0.09901149
-3.925498	labour	-0.18512301
-4.1619363	employments	0
-4.61989	wholesale	0
-4.1619363	retail	-0.1837635
-4.5017395	workers	0
-4.0897226	makers	-0.1089034
-4.0897226	tools	-0.12027649
-3.9736533	husbandmen	-0.13163593
-4.61989	exceeded	0
-4.5017395	imports	-0.1440103
-4.735095	necessitate	-0.12537211
-4.735095	exports	0
-3.9736533	variety	-0.28427076
-4.5017395	attract	-0.08057338
-3.925498	taste	-0.14952435
-4.735095	purchasers	0
-4.3569813	merchants	-0.10329033
-4.61989	ships	0
-4.3569813	market	-0.28869915
-4.61989	trades	0
-4.0278215	otherwise	-0.11970355
-4.735095	buyers	0
-4.735095	sellers	0
-3.8066165	meet	-0.16332547
-4.61989	valuable	0
-4.735095	producers	0
-4.61989	wasted	0
-4.61989	hired	0
-3.925498	servants	-0.17347892
-4.5017395	somewhere	-0.3165125
-4.2486	intercourse	-0.24065112
-4.61989	rustic	0
-4.0897226	spend	-0.009171024
-3.7732644	days	-0.07787785
-3.713382	houses	-0.16536584
-4.2486	built	-0.08057338
-4.5017395	clothes	-0.1440103
-4.0278215	wine	-0.20142014
-4.5017395	meal	-0.1440103
-4.735095	flour	0
-3.514834	drink	-0.26577282
-3.6366682	live	-0.19064017
-3.2657263	each	-0.2771339
-4.3569813	interposing	0
-4.735095	relish	0
-4.61989	salt	-0.23907574
-4.735095	olives	-0.12537211
-4.61989	cheese	0
-4.735095	vegetables	0
-4.61989	fruits	0
-4.735095	chestnuts	0
-4.3569813	roast	0
-4.5017395	fire	-0.16258861
-4.61989	tis	0
-4.735095	comforts	0
-4.5017395	sofas	-0.3165125
-4.5017395	tables	-0.048581623
-4.5017395	sauces	-0.10329033
-4.735095	sweets	0
-4.2486	luxurious	-0.0223448
-4.0897226	possibly	-0.060608882
-4.0897226	complex	0
-4.0897226	sooner	-0.10329033
-4.3569813	conceivable	-0.028115379
-4.0897226	instrument	-0.14464243
-4.735095	ornament	0
-4.2486	luxury	-0.097107954
-4.0278215	wanted	-0.21804787
-4.61989	dancers	0
-4.5017395	painters	0
-4.735095	sculptors	0
-4.2486	musicians	0
-4.61989	cooks	0
-4.61989	barbers	0
-4.61989	tire	0
-4.0278215	nurses	-0.0429074
-3.925498	artists	-0.072598666
-4.61989	swineherds	0
-4.61989	neatherds	0
-3.8821533	physicians	-0.08860472
-4.0278215	cure	-0.09113022
-4.1619363	disorders	-0.055987712
-4.3569813	source	-0.24065112
-4.2486	feed	-0.055987712
-4.5017395	superfluous	0
-4.61989	neighbour	-0.23907574
-3.6607647	land	-0.20132463
-4.0278215	ours	-0.055987712
-3.6366682	evils	-0.1849396
-3.686277	require	-0.15019524
-4.1619363	addition	-0.08772626
-4.5017395	camp	-0.064078316
-4.2486	converted	-0.18226476
-4.0278215	forgotten	-0.07675962
-3.9736533	learned	-0.0832419
-4.3569813	aptitude	-0.10329033
-3.6366682	military	-0.1867751
-3.8427448	duties	-0.0984691
-4.1619363	warlike	-0.06606315
-3.59215	dogs	-0.24478447
-4.3569813	keen	-0.08057338
-4.735095	scent	0
-4.3569813	swift	0
-4.1619363	foot	-0.0429074
-4.0897226	pursue	-0.06606315
-4.61989	limb	0
-3.9736533	fight	-0.20599253
-3.4342618	courage	-0.2624958
-4.1619363	spirited	-0.10836726
-4.61989	bite	-0.23907574
-4.61989	devour	-0.07944121
-4.61989	gentleness	-0.028115379
-4.735095	fierceness	0
-3.3922381	qualities	-0.3037173
-4.5017395	suggests	0
-3.8427448	gentle	-0.16988209
-4.0897226	fierce	-0.12936881
-4.3569813	strangers	-0.08057338
-3.8427448	judges	-0.023611851
-3.7732644	knowing	-0.10764282
-4.0278215	beast	-0.0564734
-3.9736533	parent	-0.12797439
-4.5017395	watchdogs	0
-3.742292	learning	-0.1084918
-3.8821533	kinds	-0.32228002
-3.925498	stories	-0.16053343
-3.8427448	gymnastics	-0.19712499
-4.1619363	untrue	-0.055987712
-4.735095	grains	0
-4.735095	bushel	0
-4.61989	impressible	0
-4.735095	unlearn	0
-4.61989	censorship	-0.23907574
-4.735095	nursery	0
-3.925498	tales	-0.07405588
-4.3569813	banishing	-0.10329033
-4.1619363	keeping	0
-4.61989	improper	0
-4.0897226	lies	-0.032284677
-4.61989	uranus	-0.058177628
-4.735095	saturn	0
-4.1619363	immoral	-0.06606315
-3.8066165	spoken	-0.25742444
-4.3569813	mystery	-0.08057338
-4.735095	eleusinian	0
-4.61989	pig	-0.23907574
-4.5017395	unprocurable	-0.1440103
-4.3569813	encouraged	-0.13927527
-4.2486	beat	-0.38943437
-3.7732644	zeus	-0.08860472
-4.61989	incited	0
-3.925498	hearing	-0.09333089
-3.713382	seeing	-0.31982654
-4.0897226	strife	-0.09370084
-4.5017395	hephaestus	-0.018539928
-4.2486	binding	0
-4.0278215	mother	-0.15784417
-4.3569813	sending	-0.10329033
-4.5017395	flying	-0.03790672
-4.2486	helping	0
-2.9477115	her	-0.15188074
-4.61989	mystical	0
-3.5714927	understanding	-0.15665837
-4.0897226	legislators	-0.055987712
-4.0278215	lay	-0.03478412
-4.3569813	write	0
-4.735095	steward	0
-4.735095	casks	0
-4.735095	destinies	0
-4.5017395	pandarus	0
-4.1619363	break	-0.013830212
-4.5017395	treaty	0
-4.1619363	caused	-0.23907574
-4.3569813	sufferings	-0.018539928
-4.735095	niobe	0
-4.735095	pelops	-0.12537211
-4.735095	trojan	-0.12537211
-4.3569813	wishes	-0.10329033
-3.7732644	destroy	-0.30316985
-4.0897226	punished	-0.045644138
-4.0278215	deed	-0.038420808
-4.5017395	suicidal	0
-3.925498	utter	-0.083379924
-4.735095	variableness	0
-3.4197972	change	-0.19986078
-4.3569813	teaches	0
-4.61989	noblest	-0.011028695
-3.925498	liable	-0.6640744
-4.5017395	fairest	-0.08446031
-4.2486	begging	0
-4.735095	priestess	0
-4.2486	deities	-0.06606315
-4.735095	prowl	0
-3.925498	strange	-0.04054024
-4.735095	disguises	0
-4.735095	blasphemous	0
-4.3569813	nonsense	-0.0223448
-4.0278215	mothers	-0.05678279
-4.3569813	manhood	0
-4.61989	suppressed	-0.23907574
-4.3569813	unchangeable	0
-3.925498	hate	-0.17957999
-3.9736533	lying	-0.13766757
-4.0278215	innocent	0
-4.5017395	theirs	-0.055987712
-3.6607647	changes	-0.15203042
-4.61989	deceives	-0.058177628
-3.8427448	agamemnon	-0.035451338
-4.3569813	accusation	0
-4.5017395	thetis	0
-4.1619363	aeschylus	-0.14286545
-3.8427448	clearness	-0.22418523
-3.8066165	community	-0.22515872
-4.735095	increases	0
-4.1619363	extends	-0.06606315
-3.9736533	countries	-0.04165181
-4.2486	medium	-0.048581623
-4.735095	retailers	0
-4.0278215	sit	-0.10329033
-3.8066165	steps	-0.035451338
-4.735095	constructs	0
-4.0278215	primitive	-0.03478412
-4.3569813	introducing	0
-4.735095	economy	0
-3.318719	comes	-0.27721387
-4.5017395	indulges	-0.13927527
-4.2486	powerful	0
-4.5017395	interpret	0
-4.61989	literal	0
-4.735095	dried	0
-3.9736533	abstractions	-0.13696818
-4.735095	treatises	-0.12537211
-4.3569813	scattered	0
-3.9736533	population	-0.11402257
-4.735095	adulteration	0
-4.5017395	wills	0
-4.61989	bequests	0
-4.735095	eryxias	0
-3.8066165	value	-0.11489609
-4.3569813	admirable	0
-4.735095	lucidity	0
-4.61989	economic	0
-3.8066165	system	-0.3207337
-4.1619363	recognized	-0.17006238
-4.5017395	traders	0
-3.713382	inferior	-0.086789906
-4.735095	quaintly	0
-3.8066165	everywhere	-0.027092261
-3.9736533	keep	-0.09572104
-4.735095	taverns	0
-4.3569813	etc	-0.44145125
-3.8821533	knew	-0.24523349
-4.1619363	pleasant	-0.015842395
-4.3569813	agreeable	-0.3102531
-4.61989	disappointment	0
-4.0897226	ministers	-0.19698526
-4.735095	refined	0
-4.735095	afterthought	0
-4.61989	doctors	0
-4.735095	desirableness	0
-4.735095	impure	0
-4.61989	celebrated	-0.03790672
-3.4647212	speaking	-0.2907749
-4.735095	startles	0
-4.3569813	affirming	-0.44145125
-3.742292	trained	-0.12717718
-4.3569813	develope	0
-3.925498	acknowledged	-0.26805395
-4.0897226	line	-0.10836726
-4.2486	somewhat	0
-4.3569813	differently	0
-4.61989	economies	0
-4.735095	accommodations	0
-4.735095	communication	0
-4.2486	falsely	0
-4.1619363	support	-0.08772626
-4.5017395	fictions	0
-4.1619363	requiring	0
-3.6366682	effect	-0.11767747
-4.0897226	dangerous	0
-4.5017395	weapon	0
-3.5714927	alone	-0.14952435
-3.4647212	objects	-0.18221569
-4.2486	attached	-0.3102531
-4.735095	narratives	0
-3.925498	began	-0.37302005
-4.2486	suspect	-0.066077255
-4.3569813	religions	0
-4.735095	documents	0
-4.61989	recorded	0
-4.0897226	events	-0.08057338
-4.735095	supernatural	0
-4.735095	protestant	0
-4.3569813	catholic	0
-3.8821533	inclined	-0.50389254
-4.61989	identify	-0.03790672
-4.2486	refused	0
-3.5329113	believe	-0.2234285
-4.5017395	superhuman	0
-4.3569813	accuracy	-0.08057338
-4.61989	discernible	0
-4.61989	record	-0.03790672
-4.5017395	amongst	0
-4.61989	frequently	0
-4.2486	lesson	-0.1089034
-4.2486	gathered	-0.055987712
-3.8821533	reflections	-0.23868623
-4.61989	unimportant	0
-4.735095	disregarding	0
-4.61989	misstatements	0
-4.61989	traditions	0
-4.61989	tolerant	0
-4.5017395	condemn	0
-4.5017395	allegorical	0
-3.9736533	christ	-0.12027649
-4.61989	theagenes	-0.23907574
-4.735095	rhegium	0
-4.3569813	rejected	-0.13003848
-4.3569813	civilization	0
-4.3569813	altered	0
-4.735095	palpable	0
-4.0278215	existed	-0.060170192
-4.0897226	tradition	-0.08057338
-4.1619363	customary	0
-4.0278215	dwelling	-0.0564734
-3.7732644	offer	-0.13971968
-4.735095	cock	0
-4.735095	aesculapius	0
-4.2486	prayers	0
-4.1619363	rising	0
-4.1619363	antagonism	-0.18226476
-3.686277	educated	-0.0932772
-4.3569813	uneducated	0
-4.0897226	royal	-0.030858401
-4.735095	heracles	0
-4.735095	knight	0
-4.735095	errant	0
-4.735095	benefactor	0
-4.1619363	wonderful	-0.03478412
-4.61989	transformations	0
-4.1619363	effected	-0.24025674
-4.61989	ingenuity	0
-4.61989	stoics	0
-4.5017395	neo	-0.3165125
-4.5017395	centuries	0
-4.0897226	roman	-0.03478412
-4.735095	permeated	0
-4.5017395	resolved	0
-4.2486	purer	0
-4.0897226	decay	-0.14485338
-4.3569813	waning	-0.10329033
-4.2486	singular	0
-4.1619363	occurs	-0.048581623
-3.9736533	connected	-0.30612975
-4.2486	involuntary	-0.018539928
-3.5329113	ignorance	-0.29854426
-4.0897226	voluntary	-0.048581623
-4.2486	deception	-0.0223448
-4.735095	delivering	0
-4.735095	deluding	0
-4.2486	sensation	-0.08057338
-3.8066165	becoming	-0.04963743
-4.3569813	hateful	0
-4.61989	unconsciousness	0
-4.735095	untruth	0
-4.735095	gospels	0
-3.742292	blind	-0.16033365
-4.1619363	aspect	-0.19698526
-3.8427448	describing	-0.07671333
-4.1619363	holy	-0.0429074
-4.3569813	allowing	-0.10329033
-4.0278215	modes	-0.5655256
-4.735095	accommodation	0
-4.0278215	answering	-0.12091019
-4.61989	deceiving	-0.08057338
-4.3569813	contrasting	0
-4.5017395	appearing	0
-4.735095	reserving	0
-4.5017395	approval	0
-4.61989	traditional	0
-4.3569813	preparation	-0.27344674
-4.61989	contemptuous	0
-4.735095	euphemistic	0
-4.735095	alludes	0
-4.735095	chronique	0
-4.735095	scandaleuse	0
-4.735095	iii	-0.12537211
-4.735095	purifying	0
-4.3569813	banish	-0.0429074
-4.0278215	courageous	-0.04165181
-4.2486	believes	-0.09290854
-4.1619363	gently	0
-4.61989	requested	0
-4.61989	abuse	0
-4.5017395	hell	-0.03790672
-4.735095	discouraging	0
-4.61989	expunge	0
-4.61989	obnoxious	-0.23907574
-4.735095	depressing	0
-4.2486	achilles	-0.048581623
-4.61989	serving	0
-4.1619363	dead	-0.083588324
-4.5017395	verses	-0.055987712
-4.61989	squalid	0
-4.61989	mansions	0
-4.3569813	senseless	0
-3.8066165	shadows	-0.21567966
-4.61989	flitting	0
-4.735095	mourning	0
-4.735095	gibber	0
-3.9736533	beneath	-0.14485338
-4.5017395	smoke	0
-4.735095	suitors	0
-4.735095	flutter	0
-4.61989	bats	0
-4.5017395	terrors	-0.10329033
-4.61989	horrors	0
-4.61989	cocytus	-0.23907574
-4.735095	styx	-0.12537211
-4.735095	ghosts	0
-4.735095	sapless	-0.12537211
-4.61989	shades	-0.058177628
-3.6607647	rest	-0.15900834
-4.735095	tartarean	0
-4.735095	nomenclature	0
-4.735095	vanish	0
-3.8427448	soldiers	-0.1804035
-4.735095	sympathies	0
-4.61989	tears	0
-4.61989	throwing	0
-4.61989	ashes	0
-4.735095	pacing	0
-4.1619363	sea	-0.0383021
-4.5017395	shore	0
-4.61989	distraction	-0.0223448
-4.61989	priam	-0.23907574
-4.735095	cousin	0
-4.5017395	crying	-0.1440103
-4.735095	aloud	0
-4.3569813	rolling	-0.44145125
-4.735095	mire	-0.07944121
-4.735095	prostrated	0
-4.1619363	loss	-0.1089034
-4.0278215	fortune	-0.075693145
-3.925498	terrible	-0.15071513
-4.61989	lamentations	0
-4.0897226	practised	-0.038420808
-4.735095	attribution	0
-4.735095	goddesses	0
-4.3569813	alas	-0.44145125
-4.61989	travail	-0.23907574
-4.1619363	king	-0.048822608
-4.61989	laments	-0.23907574
-4.5017395	inability	0
-4.5017395	hector	-0.17957999
-4.735095	impending	0
-4.735095	doom	0
-3.8821533	dear	-0.18348184
-4.61989	sarpedon	0
-4.5017395	ridiculed	0
-4.2486	imitated	-0.08057338
-4.0897226	laughter	-0.064078316
-4.0897226	violent	0
-4.1619363	delights	-0.06606315
-4.3569813	re	0
-4.735095	shaking	0
-4.0897226	sides	-0.038420808
-4.735095	clumsiness	0
-3.7732644	medicine	-0.11966193
-4.3569813	employment	-0.10329033
-4.5017395	privilege	-0.1440103
-4.1619363	patient	-0.0429074
-4.2486	sailor	-0.055987712
-4.0278215	temperate	-0.26380536
-3.4342618	temperance	-0.20929283
-3.8066165	control	-0.12636411
-3.8066165	places	-0.08135915
-4.735095	achaeans	-0.028115379
-4.5017395	marched	-0.1440103
-4.61989	breathing	-0.23907574
-4.735095	prowess	0
-4.2486	silent	-0.08772626
-4.5017395	awe	-0.03790672
-3.742292	o	-0.18116893
-4.5017395	hast	-0.028115379
-3.925498	heart	-0.025232561
-4.735095	stag	0
-4.3569813	impress	-0.028115379
-4.0897226	drinking	-0.0223448
-4.61989	dread	0
-4.735095	starvation	0
-3.9736533	tells	-0.18435161
-4.735095	rapturous	0
-4.2486	loves	-0.048581623
-4.61989	ares	-0.23907574
-4.735095	aphrodite	0
-3.742292	occasion	-0.20202884
-4.2486	nobler	-0.07405588
-4.3569813	endure	-0.0905234
-4.3569813	endured	-0.08057338
-3.5517738	receive	-0.15777257
-4.61989	bribes	-0.1440103
-4.0897226	persuade	-0.07675962
-4.61989	reverend	-0.23907574
-4.61989	applaud	0
-4.2486	ignoble	-0.08772626
-4.1619363	advice	-0.055987712
-4.61989	phoenix	0
-4.3569813	assisted	-0.10329033
-3.925498	meanness	-0.15737797
-4.5017395	ransom	0
-4.735095	cursing	0
-4.61989	river	-0.13927527
-4.735095	scamander	0
-4.735095	dedication	0
-4.3569813	patroclus	-0.10761778
-4.61989	hair	-0.058177628
-4.3569813	dedicated	-0.2133431
-4.735095	spercheius	0
-4.61989	cruelty	-0.23907574
-4.61989	dragging	0
-3.6366682	round	-0.19515619
-4.5017395	walls	-0.13927527
-4.735095	slaying	0
-4.61989	captives	-0.03790672
-4.61989	pyre	-0.028115379
-4.3569813	combination	-0.44145125
-4.61989	cheiron	-0.23907574
-4.3569813	pupil	0
-4.2486	inconceivable	-0.0223448
-4.735095	amatory	0
-4.735095	exploits	0
-4.735095	peirithous	0
-4.61989	theseus	0
-4.1619363	unworthy	-0.055987712
-4.1619363	blood	-0.11092817
-4.5017395	flowing	-0.1440103
-4.735095	veins	0
-3.7732644	imitate	-0.16499309
-4.735095	tellers	0
-4.735095	prosper	0
-4.735095	misrepresentations	0
-4.61989	anticipating	0
-4.61989	defer	-0.23907574
-4.3569813	sufficiently	-0.0429074
-4.1619363	imitative	-0.09665508
-3.8821533	instance	-0.060170192
-3.5714927	partly	-0.10533773
-4.1619363	throw	-0.013830212
-4.735095	oratio	0
-4.735095	obliqua	0
-4.3569813	priest	-0.10761778
-4.5017395	prayed	0
-4.1619363	safe	-0.048581623
-4.3569813	daughter	-0.14505498
-4.5017395	assented	0
-4.735095	wroth	-0.12537211
-4.61989	descriptive	-0.058177628
-4.2486	speaker	-0.011028695
-4.3569813	omit	0
-4.3569813	styles	-0.08057338
-4.5017395	comedy	0
-4.2486	doubtful	-0.08057338
-4.0897226	imitators	-0.08635994
-4.0278215	decided	-0.09370084
-4.61989	rhapsodist	0
-4.3569813	actor	0
-4.61989	coined	-0.23907574
-4.0897226	pieces	-0.119140744
-4.1619363	imitating	0
-4.61989	baseness	0
-4.61989	wears	0
-3.9736533	face	-0.04165181
-4.0897226	quarrelling	-0.1089034
-4.3569813	weeping	-0.1942655
-4.735095	boasting	0
-3.6607647	slaves	-0.22646844
-4.735095	bullies	0
-4.3569813	cowards	0
-4.735095	drunkards	0
-4.61989	madmen	0
-4.61989	blacksmiths	0
-4.61989	neighing	0
-4.0278215	horses	-0.096873835
-4.61989	bellowing	0
-4.61989	bulls	0
-4.735095	sounding	0
-4.61989	rivers	0
-4.735095	raging	0
-3.8066165	willing	-0.4511101
-4.3569813	perform	0
-4.3569813	ashamed	-0.22175236
-3.9736533	contrary	-0.14912218
-3.8427448	anybody	-0.060608882
-3.8066165	sounds	-0.18279079
-4.61989	cries	0
-4.61989	performance	-0.03790672
-4.5017395	gesture	-0.1440103
-4.61989	compound	-0.058177628
-4.735095	attractive	0
-4.2486	vulgar	-0.048581623
-4.5017395	plays	-0.03790672
-3.9736533	adapted	-0.35188723
-4.2486	complexity	-0.16146985
-4.735095	polyphonous	0
-4.5017395	pantomimic	-0.1440103
-4.0897226	gentlemen	-0.1279914
-4.735095	exhibit	-0.12537211
-4.735095	observance	0
-4.2486	room	-0.16146985
-4.3569813	rough	-0.08057338
-4.3569813	honest	0
-4.0278215	depart	-0.1279914
-4.2486	models	0
-4.2486	song	-0.015842395
-4.735095	ode	-0.12537211
-3.8821533	rhythm	-0.09977124
-4.1619363	dependent	-0.36304444
-4.0897226	strains	-0.16689536
-4.5017395	lamentation	-0.2133431
-4.1619363	lydian	-0.18226476
-3.8821533	harmonies	-0.112716995
-4.735095	convivial	0
-4.61989	ionian	0
-3.5517738	pure	-0.16244173
-4.5017395	dorian	-0.028115379
-4.61989	phrygian	0
-4.1619363	reject	-0.06606315
-4.3569813	varieties	-0.44145125
-4.61989	stringed	0
-4.3569813	variously	0
-4.735095	shaped	0
-4.61989	utterance	0
-4.3569813	flute	-0.01227158
-4.61989	lyre	-0.1440103
-4.735095	harp	-0.028115379
-4.3569813	permitted	-0.19698526
-4.61989	town	0
-4.735095	pan	0
-4.61989	pipe	-0.23907574
-4.3569813	purgation	-0.028115379
-4.61989	metres	0
-3.8821533	suitable	-0.21659482
-4.735095	tetrachord	0
-4.61989	ratios	-0.23907574
-4.3569813	metre	-0.018539928
-4.1619363	1	-0.1440103
-4.1619363	feet	-0.08446031
-4.1619363	rhythms	-0.07405588
-4.1619363	damon	0
-3.925498	speaks	-0.20815752
-3.7732644	remember	-0.237988
-3.6607647	rightly	-0.08427798
-4.735095	martial	0
-4.61989	dactylic	0
-4.61989	trochaic	0
-4.3569813	iambic	0
-4.735095	arranges	0
-4.735095	equalize	0
-4.735095	syllables	0
-4.61989	assigning	0
-4.1619363	quantity	-0.07405588
-4.3569813	venture	-0.44145125
-4.2486	conform	-0.19698526
-4.2486	learnt	-0.10329033
-4.5017395	anywhere	-0.03790672
-4.5017395	creative	-0.12027649
-4.1619363	plants	-0.13003848
-4.735095	warned	0
-4.5017395	unseemliness	0
-4.61989	sculpture	-0.23907574
-4.0897226	painting	-0.0905234
-4.735095	violates	0
-4.0897226	corrupt	-0.048581623
-4.5017395	deformity	-0.0223448
-4.735095	poison	0
-3.4197972	health	-0.26335248
-3.5714927	beauty	-0.23022893
-3.5517738	object	-0.21521041
-3.713382	sweet	-0.124798045
-3.925498	harmonious	-0.03299573
-3.8821533	influences	-0.16418932
-4.61989	innermost	0
-4.3569813	imparts	-0.10329033
-4.3569813	arrives	-0.028115379
-4.61989	welcomes	0
-3.925498	acquire	-0.106853865
-4.735095	separately	0
-4.1619363	combinations	-0.064078316
-4.1619363	recognize	-0.12091019
-3.2185025	until	-0.3811754
-3.925498	essential	-0.11402257
-3.925498	defect	-0.17043054
-4.61989	excused	0
-3.8821533	former	-0.026718073
-3.9736533	madness	-0.01227158
-4.2486	ending	-0.06606315
-4.5017395	related	-0.2133431
-3.686277	cause	-0.17716075
-4.3569813	educate	0
-4.735095	abstain	-0.12537211
-4.0897226	wits	-0.060608882
-3.8066165	habits	-0.30829507
-4.735095	palaestra	0
-4.61989	sleepy	-0.03790672
-3.9736533	suddenly	0
-4.735095	endanger	0
-4.0278215	warrior	-0.025232561
-4.1619363	athletes	0
-4.3569813	wide	-0.10329033
-4.0897226	awake	-0.08057338
-4.735095	inured	0
-4.61989	climate	0
-4.61989	simpler	0
-3.9736533	akin	-0.6582255
-4.2486	diet	0
-4.3569813	feeds	-0.13927527
-4.3569813	meat	-0.028115379
-4.61989	fish	-0.058177628
-3.686277	living	-0.07504569
-4.61989	boiled	-0.23907574
-4.2486	meats	-0.19698526
-4.5017395	involve	0
-4.735095	apparatus	-0.12537211
-4.5017395	pots	-0.1440103
-4.735095	pans	0
-3.9736533	mistaken	-0.14772183
-4.735095	mentions	0
-4.5017395	sicilian	-0.1440103
-4.61989	cookery	-0.1440103
-4.735095	attic	0
-4.735095	confections	0
-4.61989	corinthian	0
-4.61989	courtezans	0
-4.61989	melodies	0
-4.5017395	gluttony	-0.3165125
-4.0897226	intemperance	-0.17957999
-4.61989	fills	0
-4.735095	pleaders	0
-4.5017395	airs	0
-4.0897226	freemen	-0.07047689
-4.3569813	disgraceful	-0.17957999
-4.3569813	abroad	-0.028115379
-3.713382	home	-0.12031132
-3.6607647	disease	-0.18176736
-4.0278215	pride	-0.14485338
-4.735095	twists	0
-4.1619363	considering	-0.1440103
-3.613839	lives	-0.14824548
-4.61989	nodding	0
-4.0897226	disgrace	-0.10329033
-4.5017395	employing	0
-4.61989	wounds	-0.23907574
-4.61989	epidemic	0
-4.735095	laziness	0
-4.735095	contracted	0
-3.713382	diseases	-0.13074373
-4.0278215	asclepius	-0.098414585
-3.7732644	practice	-0.23037905
-4.5017395	eurypylus	-0.1440103
-4.3569813	wounded	0
-4.5017395	drinks	-0.13927527
-4.61989	posset	-0.058177628
-4.735095	pramnian	-0.12537211
-4.735095	heating	0
-4.0897226	blame	-0.072598666
-4.735095	damsel	-0.12537211
-4.5017395	attending	0
-4.5017395	nursing	0
-4.5017395	trainer	0
-4.3569813	sickly	-0.08772626
-3.59215	training	-0.24966064
-4.735095	tortured	0
-4.0897226	practise	-0.051756807
-3.8427448	ordered	-0.0984691
-4.3569813	leisure	-0.028115379
-4.3569813	kill	-0.22175236
-4.0278215	artisans	-0.13464601
-4.61989	labourers	0
-4.735095	coddling	0
-4.3569813	recover	-0.028115379
-4.1619363	don	-0.6175425
-4.61989	t	0
-4.2486	afford	0
-4.61989	phocylides	-0.028115379
-4.1619363	excessive	-0.048581623
-4.1619363	occupation	-0.16589773
-4.735095	inculcates	0
-4.5017395	student	-0.13003848
-4.61989	headache	0
-4.735095	unwell	0
-4.0897226	preserve	-0.106853865
-4.61989	puny	0
-4.61989	wretched	0
-4.735095	sires	0
-4.735095	honestly	0
-4.3569813	cured	-0.12027649
-4.1619363	remedies	0
-4.2486	eat	0
-4.5017395	liked	-0.028115379
-4.61989	declined	-0.23907574
-4.2486	treat	-0.08057338
-4.3569813	intemperate	0
-4.5017395	worthless	0
-4.3569813	fortunes	0
-4.3569813	slain	0
-4.735095	thunderbolt	0
-4.1619363	severally	-0.09370084
-4.1619363	crimes	-0.09370084
-3.9736533	draws	-0.12775263
-4.735095	professions	0
-4.735095	cures	0
-4.735095	controls	0
-4.2486	corrupted	-0.1089034
-4.1619363	crime	-0.048581623
-4.3569813	insight	-0.19698526
-3.925498	observation	-0.106853865
-4.61989	criminal	0
-4.735095	detective	0
-4.735095	wonderfully	0
-4.61989	suspicious	0
-4.735095	foolishly	0
-4.61989	diminished	-0.23907574
-4.2486	corresponds	-0.53836125
-4.735095	tamed	0
-4.3569813	aroused	-0.08057338
-4.61989	sustained	0
-4.0897226	supply	-0.073273465
-4.61989	twofold	0
-4.0897226	passionate	-0.11970355
-4.2486	disposition	0
-4.735095	hardened	0
-4.735095	brutalized	0
-4.5017395	philosophic	-0.028115379
-4.735095	enervated	0
-4.61989	pour	0
-4.735095	funnel	-0.12537211
-4.61989	edge	0
-4.735095	melted	0
-4.5017395	exhausted	0
-4.61989	nervous	0
-4.735095	irritability	0
-4.2486	athlete	-0.055987712
-4.3569813	feeding	-0.10329033
-4.5017395	doubled	0
-4.2486	stupid	0
-3.6366682	everything	-0.1633587
-4.5017395	blows	0
-4.0278215	counsel	-0.10329033
-4.2486	policy	-0.08057338
-3.6366682	passion	-0.1307666
-4.735095	mingles	0
-4.61989	concord	0
-4.3569813	presiding	-0.10329033
-4.3569813	elder	-0.01227158
-4.5017395	younger	-0.10761778
-4.3569813	elders	0
-4.735095	welfare	0
-3.925498	select	-0.096873835
-4.61989	watched	-0.058177628
-4.61989	epoch	-0.23907574
-3.8066165	opinions	-0.1708335
-4.61989	enchantment	-0.1440103
-4.2486	persuasion	-0.08057338
-4.61989	enchant	0
-4.3569813	grief	0
-3.514834	pain	-0.25146157
-4.0278215	compel	-0.24025674
-4.3569813	tests	0
-3.713382	gold	-0.24037188
-4.735095	refiner	-0.12537211
-4.3569813	trials	-0.10329033
-4.61989	victorious	-0.23907574
-4.735095	stain	0
-3.8066165	command	-0.08223391
-4.5017395	magnificent	0
-4.5017395	oh	0
-4.0278215	train	-0.0905234
-4.2486	rate	-0.059505023
-4.61989	version	-0.23907574
-4.735095	cadmus	0
-4.735095	unbelieving	0
-4.61989	slow	0
-4.61989	imparted	0
-4.5017395	inform	0
-3.925498	during	-0.1279914
-4.5017395	protect	0
-4.735095	cherish	0
-4.5017395	sisters	0
-4.0278215	wonder	-0.1801288
-4.735095	propound	0
-3.8821533	silver	-0.18179116
-3.925498	auxiliaries	-0.08635994
-4.61989	craftsmen	0
-4.2486	formed	-0.0223448
-4.5017395	brass	-0.12936881
-4.0897226	iron	-0.15693946
-4.61989	sprung	0
-4.5017395	stock	-0.19576365
-4.61989	golden	-0.058177628
-3.9736533	rank	-0.112509534
-4.3569813	descend	-0.080148496
-4.1619363	artisan	0
-4.61989	earthborn	-0.23907574
-3.713382	forth	-0.09380321
-4.735095	pitch	0
-4.1619363	likewise	0
-4.735095	insurrections	0
-4.735095	tents	0
-4.61989	shopkeepers	-0.1440103
-4.1619363	avarice	-0.048581623
-4.3569813	wolves	-0.10329033
-4.735095	dwellings	0
-3.6607647	property	-0.17452443
-4.5017395	expenses	0
-4.5017395	meals	-0.09290854
-4.1619363	gift	-0.30759788
-4.61989	dross	-0.23907574
-4.735095	roof	-0.12537211
-4.735095	accursed	0
-4.0897226	lands	-0.20783818
-4.735095	householders	0
-4.5017395	tradesmen	0
-3.3539248	instead	-1.1411957
-4.61989	helpers	0
-3.925498	hereafter	-0.08057338
-4.0897226	separate	-0.029248
-3.8066165	lesser	-0.050148893
-4.61989	conveniently	0
-4.5017395	noticed	-0.1440103
-4.3569813	constant	0
-4.5017395	grave	-0.06606315
-4.61989	summons	0
-4.0897226	attempting	-0.68448925
-3.9736533	distinguish	-0.14952435
-4.5017395	text	-0.10329033
-4.735095	quoting	0
-4.61989	alluding	0
-4.735095	inaccurately	0
-4.735095	delighting	0
-4.3569813	inferences	0
-4.3569813	heracleitus	0
-4.3569813	expressions	-0.08057338
-4.735095	vehicles	0
-4.735095	metrodorus	0
-4.735095	dictate	0
-4.1619363	conclusions	-0.064078316
-4.0278215	sound	-0.035451338
-4.5017395	appeals	-0.1440103
-4.0278215	charm	-0.18736073
-4.735095	follies	-0.058177628
-4.735095	citations	0
-4.5017395	scripture	0
-4.1619363	gather	0
-4.735095	adaptations	0
-4.61989	fascination	0
-4.61989	classical	0
-3.925498	exercises	-0.21352978
-3.8066165	maintain	-0.21920322
-3.925498	observed	-0.10494962
-3.7732644	deny	-0.32607162
-4.5017395	exceeds	0
-4.735095	lucid	0
-3.9736533	gets	-0.07675962
-4.2486	euripides	0
-4.0897226	sophocles	0
-3.925498	grace	-0.19637403
-4.0897226	connection	-0.1089034
-4.1619363	tragic	-0.020265283
-4.61989	choruses	0
-4.2486	lyric	-0.08057338
-4.735095	unfrequently	0
-4.735095	tangled	0
-4.3569813	thread	-0.44145125
-4.2486	mingled	-0.16146985
-4.735095	disengaging	0
-4.735095	arranging	0
-4.61989	infused	0
-4.5017395	associations	0
-4.5017395	sequence	0
-4.61989	puzzling	0
-4.5017395	obscure	0
-4.3569813	harsh	0
-4.735095	distorted	0
-4.735095	collocation	0
-4.2486	remote	-0.06606315
-3.6607647	coming	-0.116443954
-4.5017395	sweetly	0
-4.61989	ease	0
-4.735095	obscurities	0
-3.925498	arose	0
-3.9736533	clearer	-0.06606315
-4.735095	shakespere	0
-4.735095	spite	-0.058177628
-4.735095	imperfections	0
-4.2486	returning	-0.13003848
-4.5017395	obscurity	0
-4.61989	prevailed	-0.1440103
-4.5017395	excuse	-0.10329033
-4.3569813	losing	0
-4.61989	transitional	0
-4.5017395	preceded	-0.07047689
-4.5017395	measuring	-0.0223448
-4.61989	disproportion	-0.058177628
-3.713382	else	-0.18534021
-4.0278215	views	-0.060170192
-4.5017395	summed	-0.3165125
-4.3569813	energy	0
-4.1619363	repose	-0.06606315
-4.3569813	atmosphere	-0.10329033
-4.1619363	create	-0.064078316
-4.735095	expelled	0
-4.3569813	extending	0
-3.686277	sphere	-0.2052248
-3.8066165	confined	-0.72522646
-4.5017395	preliminary	0
-3.8066165	habit	-0.22016089
-3.925498	kindred	-0.025232561
-4.5017395	pericles	0
-4.735095	allude	0
-4.61989	rapture	0
-4.735095	phidias	0
-4.735095	parthenon	0
-4.735095	propylea	0
-4.3569813	statues	-0.10329033
-3.8821533	hard	-0.12479884
-4.5017395	inspire	0
-4.5017395	broken	0
-4.5017395	stones	-0.12027649
-4.735095	mechanical	-0.12537211
-3.9736533	remarkable	-0.055987712
-4.1619363	entire	-0.008458644
-4.5017395	striking	0
-4.5017395	newly	-0.08057338
-3.713382	born	-0.14710897
-4.61989	inspiring	0
-4.61989	robust	-0.058177628
-4.3569813	illness	0
-3.5714927	person	-0.16639107
-4.3569813	innocence	0
-4.2486	late	0
-4.1619363	fit	-0.08772626
-4.735095	hearer	0
-4.61989	doubted	-0.10329033
-4.0897226	correct	0
-4.61989	estimate	0
-4.5017395	ascertained	0
-4.735095	intuition	0
-4.5017395	abhorrence	-0.3165125
-4.735095	directness	0
-4.61989	independent	-0.23907574
-3.8427448	special	-0.03299573
-3.925498	5	-0.06492783
-4.735095	un	0
-4.5017395	transposition	-0.1440103
-4.2486	ranks	-0.0905234
-4.3569813	spartan	-0.0068600425
-4.735095	enfranchisement	0
-4.735095	helots	0
-4.5017395	degradation	-0.1440103
-4.5017395	aristocracies	0
-4.3569813	merit	0
-4.5017395	founders	-0.26028547
-4.3569813	benefactors	-0.2133431
-4.5017395	services	0
-3.8821533	warriors	-0.05202209
-4.735095	entitle	0
-4.61989	privileges	-0.058177628
-4.61989	citizenship	0
-4.0897226	aristocracy	-0.119140744
-4.735095	slenderly	0
-4.61989	proven	0
-4.735095	ascribing	0
-4.2486	aspiration	0
-4.735095	accommodated	0
-4.61989	applying	0
-3.59215	fixed	-0.20017406
-4.3569813	governing	0
-4.735095	academic	0
-4.0897226	discipline	-0.055987712
-4.1619363	sparta	-0.1145527
-4.5017395	indicates	-0.1440103
-4.61989	caste	0
-4.61989	extinct	0
-4.735095	european	0
-3.925498	aware	-0.36415857
-4.0897226	deeply	-0.015842395
-4.735095	resent	0
-4.5017395	interference	0
-4.61989	novel	0
-4.1619363	monstrous	0
-4.2486	indicated	-0.13003848
-4.0897226	personal	0
-4.61989	adapts	0
-4.61989	phoenician	-0.23907574
-4.5017395	myth	-0.0223448
-3.6366682	its	-0.064470336
-4.735095	gravity	0
-4.735095	verification	0
-4.5017395	succeeding	0
-4.3569813	supposes	-0.055987712
-4.5017395	supplies	0
-4.5017395	enables	0
-4.3569813	details	-0.028115379
-4.2486	allows	-0.13003848
-4.61989	fade	-0.1440103
-4.0897226	distance	-0.14691783
-4.735095	communistic	0
-3.9736533	regulations	-0.04165181
-3.713382	chance	-0.12762627
-4.3569813	poetical	0
-4.1619363	air	-0.14485338
-4.735095	invulnerable	0
-4.3569813	penetrated	-0.10329033
-4.735095	shafts	-0.12537211
-3.925498	strike	-0.072598666
-4.5017395	suggest	0
-3.9736533	secret	-0.020265283
-4.0897226	melody	-0.16689536
-4.61989	indefinite	0
-3.8821533	masters	-0.19513878
-4.2486	enthusiasm	-0.08057338
-4.3569813	mingle	-0.2133431
-4.2486	pythagorean	-0.06492783
-4.0897226	reverence	-0.055987712
-3.4807913	numbers	-0.16688456
-4.2486	numerical	0
-4.5017395	stranger	-0.08772626
-4.0897226	intervals	-0.07775977
-3.925498	sacred	-0.03478412
-4.61989	variations	-0.23907574
-4.5017395	connecting	-0.1440103
-4.61989	link	0
-4.3569813	evident	-0.13645878
-4.5017395	national	0
-3.742292	besides	-0.08759242
-4.735095	potently	0
-4.0278215	curious	-0.038420808
-4.5017395	drop	0
-4.0278215	familiar	-0.09370084
-4.735095	conveys	0
-4.2486	precise	-0.055987712
-3.8821533	creature	-0.08860472
-4.61989	asunder	0
-4.61989	reconciled	0
-4.3569813	unconsciously	0
-4.735095	consciously	0
-4.0278215	pursuit	-0.10386584
-4.735095	nerve	0
-4.735095	strained	0
-4.0278215	calling	-0.096873835
-4.1619363	hidden	-0.06606315
-4.0897226	intellect	-0.035451338
-4.0897226	senses	-0.0383021
-4.735095	parting	0
-4.5017395	meeting	0
-4.61989	diversity	-0.23907574
-4.3569813	tendencies	-0.08057338
-4.61989	operations	0
-4.735095	unnoticed	0
-3.8427448	appetites	-0.15016557
-4.735095	responsibility	-0.058177628
-4.735095	rightful	0
-3.742292	superior	-0.1708335
-4.61989	responsible	-0.23907574
-3.925498	enter	-0.19378383
-4.61989	management	-0.23907574
-4.2486	continued	-0.06606315
-4.735095	agents	0
-4.735095	disappointed	0
-4.5017395	prevailing	-0.1440103
-4.61989	depreciates	0
-4.5017395	effects	-0.10761778
-3.7732644	capable	-0.7873744
-4.0278215	receiving	-0.075075075
-4.0897226	treatment	-0.19698526
-4.735095	invalidism	0
-4.61989	interfering	-0.23907574
-4.61989	healer	-0.058177628
-4.1619363	mental	-0.07047689
-4.2486	gradual	-0.08057338
-4.735095	safer	0
-4.5017395	sudden	0
-4.735095	catastrophe	0
-3.6607647	surely	-0.15186048
-4.61989	7	-0.058177628
-3.8066165	matters	-0.17459658
-4.61989	tentative	0
-4.61989	sustains	0
-4.3569813	expulsion	-0.10329033
-4.735095	litigation	0
-4.5017395	valetudinarian	0
-4.61989	satirical	0
-4.2486	notice	0
-4.735095	iv	-0.03790672
-4.61989	lords	0
-4.1619363	mercenaries	-0.06606315
-4.735095	mounting	-0.12537211
-4.0278215	guard	-0.13754383
-4.1619363	journey	-0.0383021
-4.5017395	mistress	0
-4.61989	happiest	-0.058177628
-4.5017395	surprised	-0.1440103
-3.9736533	designed	-0.3102531
-4.735095	sculptor	0
-4.1619363	blamed	-0.055987712
-4.61989	painted	-0.23907574
-4.2486	feature	-0.08057338
-4.1619363	purple	-0.08772626
-4.0897226	black	0
-3.925498	everybody	-0.16053343
-4.735095	linen	0
-4.2486	potters	-0.08057338
-4.0897226	cobblers	-0.18226476
-4.735095	distinctive	0
-4.61989	degenerate	0
-4.61989	boon	-0.23907574
-4.0897226	companions	-0.068706006
-3.9736533	talking	-0.14464243
-4.735095	peasants	0
-4.61989	holiday	0
-4.5017395	expected	-0.1089034
-4.3569813	resides	-0.028115379
-4.3569813	middle	-0.07876394
-4.3569813	buy	0
-4.61989	lazy	-0.23907574
-4.3569813	contented	-0.055987712
-3.8821533	fighting	-0.12475475
-4.5017395	match	-0.1440103
-4.61989	stout	0
-4.61989	engaging	0
-4.1619363	send	0
-4.735095	ambassadors	0
-3.713382	share	-0.31091234
-4.61989	spoil	0
-4.61989	lean	-0.1440103
